befolkningarna people 0.0050000
befolkningarna participants 0.1250000
befolkningarna there 0.0013793
befolkningarna must 0.0033389
verksamhetsavbrottet activity 0.1111111
verksamhetsavbrottet fifg 0.1666667
verksamhetsavbrottet cessation 1.0000000
verksamhetsavbrottet made 0.0054645
verksamhetsavbrottet there 0.0013793
verksamhetsavbrottet that 0.0007326
verksamhetsavbrottet can 0.0024752
verksamhetsavbrottet is 0.0003257
utbyte exchange 0.2631579
utbyte return 0.0833333
utbyte backing 0.1000000
utbyte including 0.0277778
utbyte conquered 0.3333333
utbyte exchanges 0.3000000
utbyte consider 0.0120482
utbyte axis 0.2000000
andel in 0.0002725
andel way 0.0054645
andel tarred 0.1666667
andel consumption 0.3333333
andel rising 0.2500000
leinster leinster 0.5000000
leinster of 0.0001833
ilisu- construction 0.0322581
ilisu- ilisu 0.3333333
minskas determination 0.0909091
minskas single-minded 0.3333333
instämmer accepts 0.1428571
instämmer shall 0.0096154
instämmer , 0.0005601
instämmer are 0.0007663
instämmer meantime 0.1000000
instämmer fully 0.0172414
instämmer endorse 0.1000000
instämmer agrees 0.0769231
instämmer do 0.0024691
instämmer agree 0.0434783
instämmer with 0.0021030
ändamålsenligheten expediency 0.1428571
ändamålsenligheten examine 0.0625000
ändamålsenligheten action 0.0085470
ändamålsenligheten a 0.0003757
ändamålsenligheten particular 0.0101010
samhälleliga which 0.0009116
samhälleliga tarred 0.1666667
samhälleliga social 0.0126582
bse-krisen crisis 0.1250000
bse-krisen bse 0.2727273
måhända though 0.0270270
måhända perhaps 0.0487805
obevekliga unwavering 0.2500000
obevekliga us 0.0036765
obevekliga on 0.0006502
bibeln god 0.3333333
bibeln &apos; 0.0015106
bibeln bible 0.5000000
now-projektet now 0.0043478
förlitar wales 0.0909091
förlitar relies 0.2000000
förlitar confident 0.0909091
förlitar rely 0.2500000
förlitar trust 0.0833333
förlitar also 0.0018248
förlitar looking 0.0555556
förlitar are 0.0015326
förlitar am 0.0042017
israeliska end 0.0119048
israeliska israeli 0.5384615
målats been 0.0021882
målats painted 0.1666667
humör good-tempered 0.1428571
humör round 0.0666667
återlämna hand 0.0377358
återlämna back 0.0392157
avsett intended 0.0416667
avsett c 0.2500000
avsett dedicated 0.1428571
avsett pretend 0.3333333
organisationernas ngo 0.3333333
omges silence 0.1428571
omges deafening 0.1666667
grannland country 0.0135135
grannland neighbouring 0.1666667
attentat morning 0.0344828
attentat attack 0.1250000
attentat terrorist 0.0909091
attentat this 0.0004284
antibedrägerilagstiftning force 0.0270270
antibedrägerilagstiftning in 0.0002725
antibedrägerilagstiftning anti-fraud 0.1250000
antibedrägerilagstiftning legislation 0.0102041
ansvariga impenetrable 0.3333333
ansvariga for 0.0005266
ansvariga services 0.0227273
ansvariga responsible 0.1454545
ansvariga competent 0.3000000
ansvariga accountable 0.0666667
ansvariga this 0.0004284
ansvariga perpetrators 0.5000000
ansvariga liable 0.1250000
ansvariga people 0.0050000
hittills adapt 0.2000000
hittills publication 0.1428571
hittills date 0.2666667
hittills have 0.0008039
hittills far 0.1089109
hittills decided 0.0285714
hittills so 0.0334448
hittills lothar 0.1666667
hittills until 0.0857143
hittills been 0.0065646
hittills exactly 0.0434783
hittills to 0.0013786
hittills past 0.0153846
hittills now 0.0043478
hittills watered 0.1000000
hittills has 0.0051282
hittills speaker 0.0588235
hittills achieved 0.0270270
hittills warrants 0.2500000
hittills bogged 0.2000000
hittills comprehension 0.2500000
hittills traced 0.2500000
hittills efterløn 0.1250000
bidrag hugely 0.3333333
bidrag our 0.0019268
bidrag towards 0.0140845
bidrag beneficiary 0.1111111
bidrag watered 0.1000000
bidrag subsidies 0.2142857
bidrag contribution 0.3846154
bidrag contributions 0.5454545
bidrag slovene-speaking 0.1666667
bidrag from 0.0023202
bidrag c 0.2500000
bidrag contribute 0.0625000
bidrag funding 0.0576923
förhandlingsprocess territory 0.0769231
förhandlingsprocess as 0.0009050
förhandlingsprocess over 0.0098039
förhandlingsprocess detail 0.0476190
femton sets 0.0666667
femton tougher 0.1111111
femton eu 0.0043103
femton just 0.0051282
femton fifteen 0.6000000
binder is 0.0003257
binder that 0.0003663
binder polycentric 0.1428571
binder because 0.0042735
binder unites 0.3333333
binder bind 0.5000000
binder it 0.0005984
återställandet restoration 0.2000000
återställandet did 0.0212766
återställandet not 0.0008333
återställandet mention 0.0208333
återställandet reforestation 0.2000000
tragiskt , 0.0002800
tragiskt tragedy 0.2000000
tragiskt a 0.0003757
tragiskt tragically 1.0000000
tragiskt during 0.0163934
tragiskt monument 0.2500000
gripit started 0.1111111
gripit has 0.0012821
exploaterbara usable 1.0000000
läkarkontroller not 0.0008333
läkarkontroller checks 0.1000000
läkarkontroller check-ups 0.5000000
läkarkontroller do 0.0049383
läkarkontroller medical 0.4000000
läkarkontroller comes 0.0227273
slutit subsequently 0.1428571
slutit concluded 0.1111111
litar are 0.0022989
litar trust 0.0833333
litar that 0.0003663
litar so 0.0033445
litar counting 0.5000000
fruktansvärt may 0.0066667
fruktansvärt terrible 0.2500000
livsmedelssäkerhetsenheter safety 0.0188679
livsmedelssäkerhetsenheter scientific 0.0333333
livsmedelssäkerhetsenheter food 0.0176991
livsmedelssäkerhetsenheter agencies 0.2307692
lättförståeligt to 0.0001723
lättförståeligt wording 0.0909091
lättförståeligt grasp 0.1666667
lättförståeligt easier 0.0625000
åsikt consensus 0.0588235
åsikt spots 0.2000000
åsikt merit 0.1250000
åsikt immoral 0.1666667
åsikt accord 0.2000000
åsikt it 0.0005984
åsikt bombings 0.5000000
åsikt limiting 0.1250000
åsikt view 0.0618557
åsikt as 0.0009050
åsikt opinion 0.1140351
åsikt bureaucratic 0.0833333
specialbestämmelser approach 0.0212766
specialbestämmelser special 0.0425532
specialbestämmelser which 0.0009116
specialbestämmelser allow 0.0158730
specialbestämmelser introduce 0.0357143
specialbestämmelser arrangements 0.0555556
specialbestämmelser provisions 0.0400000
sociala social 0.5316456
sociala corporate 0.3333333
avsatts funding 0.0192308
avsatts allocated 0.0208333
avsatts level 0.0125000
avsatts 2.8 0.2000000
behålls awards 0.2500000
irriterad handed 0.1428571
irriterad fact 0.0059172
irriterad am 0.0042017
irriterad any 0.0043860
irriterad indignant 0.2500000
irriterad about 0.0031348
irriterad over 0.0098039
stopp stop 0.0666667
stopp stifle 0.5000000
stopp put 0.0243902
stopp end 0.0476190
stopp an 0.0048000
samtalen down 0.0140845
samtalen talks 0.0909091
samtalen when 0.0049261
samtalen attempted 0.2500000
essex essex 0.3333333
hundra one 0.0026667
hundra hundred 0.4000000
hundra hundreds 0.1000000
hundra a 0.0003757
gammalmodig old-style 1.0000000
förutsäga what 0.0025840
förutsäga predict 0.2000000
på once 0.0079365
på hollywood 0.3333333
på goods 0.0333333
på preparing 0.0833333
på drastically 0.1250000
på changing 0.2222222
på stubbornness 0.3333333
på practicality 0.2000000
på applied 0.0800000
på volume 0.1428571
på remedy 0.3333333
på deadly 0.1666667
på about 0.0250784
på concerning 0.0476190
på equipped 0.1428571
på phenomenon 0.3333333
på collect 0.1666667
på penetration 0.2500000
på consider 0.0120482
på swing 0.2500000
på undermined 0.2000000
på investment 0.1250000
på being 0.0441176
på long 0.0135135
på field 0.0714286
på considers 0.1111111
på within 0.0462963
på apex 0.3333333
på intervene 0.1250000
på knell 0.2000000
på continuation 0.3333333
på reconciling 0.1666667
på potent 0.2500000
på entering 0.1000000
på occupying 0.5000000
på attentively 0.3333333
på test 0.1428571
på gauge 0.2000000
på rojo 0.2000000
på environmentally 0.0714286
på thereby 0.1666667
på insisted 0.2500000
på reinstated 0.3333333
på into 0.0817121
på centuries 0.2000000
på correctly 0.1052632
på exchanging 0.3333333
på reacting 0.1666667
på rural 0.0185185
på view 0.1030928
på complied 0.2500000
på specialists 0.2000000
på unanimous 0.2000000
på answered 0.1428571
på well 0.0156250
på vehicle 0.0833333
på meantime 0.2000000
på keeper 0.2500000
på mismanaged 0.2500000
på intervention 0.0500000
på for 0.0331754
på oil 0.0370370
på hypocrisy 0.1111111
på tentative 0.2000000
på consultancy 0.2000000
på sure 0.2758621
på due 0.1489362
på advanced 0.1250000
på seriously 0.1612903
på thorough 0.1428571
på substance 0.1333333
på resultant 0.1666667
på stabilise 0.1666667
på how 0.0211268
på railways 0.3333333
på enlarges 0.3333333
på infrastructures 0.1428571
på extremism 0.1666667
på fresh 0.2500000
på constructively 0.2000000
på put 0.0081301
på just 0.0461538
på NULL 0.0183835
på reaction 0.1818182
på altar 0.2500000
på judged 0.1818182
på still 0.0078125
på thinking 0.0769231
på trouble 0.1000000
på undermines 0.2500000
på compendium 0.3333333
på buck 0.2000000
på pro-nazi 0.2500000
på viability 0.2000000
på successive 0.1666667
på nominal 0.3333333
på respectable 0.2500000
på answers 0.1000000
på finalising 0.3333333
på referring 0.2142857
på reverse 0.1428571
på trees 0.2500000
på carried 0.0526316
på to 0.0372221
på reasonably 0.2500000
på aspe 0.2500000
på suggest 0.0625000
på watered 0.1000000
på are 0.0022989
på strictly 0.1250000
på intending 0.1428571
på stand 0.0555556
på beliefs 0.2500000
på weight 0.1818182
på mean 0.0750000
på doubt 0.0208333
på significant 0.0333333
på calls 0.1250000
på along 0.0952381
på assassinations 0.3333333
på declares 0.2000000
på imposing 0.1111111
på getting 0.0555556
på gaza 0.2000000
på indication 0.2857143
på exposure 0.2000000
på features 0.1428571
på deprivation 0.1000000
på broadest 0.1428571
på sixties 0.1250000
på examples 0.3333333
på as 0.0009050
på on 0.1801040
på dispensing 0.2000000
på overreaching 0.1428571
på properly 0.0303030
på arrives 0.1428571
på shrugging 0.3333333
på mark 0.1428571
på appropriately 0.2857143
på illustration 0.1818182
på outcome 0.0526316
på attributable 0.3333333
på co2 0.0769231
på needless 0.0909091
på engage 0.2000000
på auroi 0.2500000
på extent 0.0344828
på from 0.0185615
på at 0.1544462
på cow 0.2000000
på grow 0.1176471
på misery 0.2000000
på await 0.2941176
på double 0.1538462
på redistributed 0.2000000
på balkan 0.3333333
på attention 0.1791045
på of 0.0423465
på because 0.0641026
på palestine-israel 0.2000000
på people-focused 0.3333333
på enthusiastically 0.1111111
på listen 0.3076923
på awaiting 0.2142857
på reminiscing 0.2500000
på legislators 0.3333333
på taking 0.0131579
på indications 0.3333333
på ultra-liberal 0.5000000
på hoped 0.1111111
på internet 0.1538462
på reinstate 0.5000000
på investigations 0.1250000
på measured 0.1666667
på inspire 0.3333333
på europeanised 0.1666667
på the 0.0038234
på establish 0.0312500
på horizontally 0.3333333
på intrigued 0.2000000
på chipped 0.2500000
på solidly 0.3000000
på indicated 0.1333333
på wiebenga 0.2500000
på inputs 0.2000000
på vertically 0.5000000
på awaited 0.2000000
på reunion 0.1428571
på anticipation 0.2500000
på condone 0.3333333
på upon 0.1320755
på fixed 0.1250000
på insisting 0.1428571
på dealings 0.3333333
på fed 0.5000000
på concluded 0.1111111
på setting 0.0416667
på rehabilitation 0.2222222
på with 0.0010515
på monocultures 0.5000000
på equally 0.1111111
på suggestions 0.0714286
på confederation 0.2500000
på crown 0.1250000
på revise 0.2000000
på sorted 0.1666667
på trust 0.2500000
på and 0.0002669
på across 0.0952381
på ban 0.0250000
på reconsidering 0.2500000
på fate 0.0833333
på demonstrated 0.1666667
på recovering 0.2222222
på stems 0.3333333
på mainland 0.2000000
på proper 0.0800000
på based 0.0425532
på geographical 0.1250000
på answer 0.1864407
på community-level 0.4000000
på doubted 0.1666667
på medium 0.2142857
på expect 0.0232558
på manages 0.3333333
på added 0.0666667
på by 0.0112740
på signs 0.3750000
på pending 0.2000000
på restating 0.3333333
på ideology 0.1111111
på going 0.0092593
på disappointed 0.0909091
på exceeded 0.5000000
på west 0.1428571
på experimental 0.1428571
på experienced 0.0833333
på recurring 0.1000000
på overload 0.2500000
på abbreviated 0.2500000
på provided 0.0232558
på end 0.0238095
på supports 0.0476190
på collision 0.1428571
på response 0.2424242
på confident 0.0909091
på recently 0.0810811
på backing 0.1000000
på adopts 0.3333333
på beforehand 0.3333333
på diametrically 0.2000000
på spells 0.1250000
på given 0.0336134
på crystal 0.2000000
på ships 0.0833333
på cease 0.1666667
på provide 0.0142857
på filed 0.2500000
på subsidiary 0.1250000
på dumping 0.2000000
på perspective 0.1052632
på stake 0.2777778
på contributors 0.1666667
på successful 0.0400000
på retabled 0.1666667
på oarsmen 0.2000000
på nagorno-karabakh 0.5000000
på in 0.0863760
på lack 0.2372881
på reopen 0.2000000
på earthquakes 0.2500000
på attend 0.0909091
på item 0.2586207
på reviewing 0.2000000
på reminiscent 0.2000000
på transferred 0.1538462
på founded 0.1666667
på towards 0.0140845
på btf 0.1666667
på intergovernmentalisation 0.1666667
på dishing 0.1111111
på decisively 0.3333333
på complies 0.2000000
på allocated 0.0416667
på moves 0.2500000
på short 0.1034483
på indeed 0.0108696
på reinvent 0.3333333
på alter 0.1818182
på plates 0.1666667
på persist 0.2142857
på crust 0.1428571
på responding 0.5000000
på magnificently 0.2000000
på enlarge 0.1111111
på uniformly 0.1428571
på follows 0.0416667
på elsewhere 0.1333333
på recycled 0.0833333
på through 0.0571429
på painted 0.1666667
på assuming 0.1666667
på unilateral 0.1666667
på moderate 0.1666667
på help 0.0119048
på wait 0.1500000
på effectively 0.1935484
på 98 0.1250000
terrón terrón 0.3333333
terrón mrs 0.0068966
något catastrophic 0.1000000
något barrier 0.2500000
något mild 0.3333333
något constitute 0.0625000
något anything 0.1153846
något slightly 0.3333333
något store 0.1250000
något excessive 0.0526316
något embellish 0.1666667
något schulz 0.2500000
något equation 0.1111111
något solve 0.1111111
något far 0.0099010
något possess 0.3333333
något good 0.0086207
något notion 0.1000000
något nothing 0.0769231
något arbitrarily 0.1666667
något a 0.0105184
något naïve 0.1428571
något cost-intensive 0.2500000
något sceptical 0.1428571
något compounded 0.0909091
något tell 0.0263158
något accredited 0.2500000
något protectionism 0.2500000
något foil 0.5000000
något partnerships 0.0666667
något konrad 0.3333333
något and 0.0002669
något an 0.0016000
något disappearing 0.2500000
något add 0.0270270
något prevented 0.0833333
något somewhat 0.2352941
något hidden 0.3333333
något there 0.0027586
något contrary 0.0400000
något something 0.4117647
något hindering 0.2000000
något fundamentally 0.1428571
något disagreement 0.1250000
något succeeded 0.0769231
något types 0.0666667
något importantly 0.1428571
något few 0.0102041
något currency 0.0454545
något received 0.0588235
något any 0.0657895
något compulsory 0.0555556
något act 0.0270270
något cargo 0.1428571
något inglewood 0.1000000
något recurring 0.1000000
något competition-related 0.3333333
något qualities 0.1428571
något accomplished 0.1000000
något end 0.0119048
något mention 0.0208333
något no 0.0199501
något necessity 0.2000000
något lag 0.3333333
något about 0.0031348
något place 0.0217391
något optional 0.4000000
något action 0.0256410
något whatever 0.0555556
något assimilated 0.1428571
något extraordinary 0.0909091
något law-drafting 0.2000000
något transferred 0.0769231
något created 0.0370370
något particulars 0.2500000
något it 0.0005984
något less 0.0212766
något motorbikes 0.1111111
något holds 0.0833333
något connection 0.0434783
åberopa to 0.0003446
åberopa claim 0.1000000
åberopa on 0.0006502
åberopa adhere 0.1000000
grunder validly 0.3333333
grunder conditions 0.0181818
grunder are 0.0007663
mördare killers 1.0000000
avskaffa eliminate 0.1111111
avskaffa eliminating 0.1666667
avskaffa independent 0.0370370
avskaffa ex 0.0909091
avskaffa rid 1.0000000
avskaffa does 0.0055866
avskaffa combat 0.0400000
avskaffa control 0.0149254
avskaffa want 0.0109890
avskaffa financial 0.0114943
avskaffa to 0.0001723
avskaffa discontinue 0.2500000
avskaffa alone 0.0476190
avskaffa ending 0.1250000
avskaffa get 0.0175439
avskaffa abolish 0.3333333
avskaffa abolished 0.1250000
avskaffa at 0.0015601
fuf this 0.0004284
utarmade with 0.0010515
utarmade uranium 0.2142857
utarmade depleted 0.2727273
näringskedjan food 0.0088496
näringskedjan chain 0.0833333
elementet of 0.0001833
elementet mainstay 0.3333333
elementet element 0.0370370
42 42 1.0000000
betalningsskyldiges be 0.0005429
betalningsskyldiges supposed 0.1000000
blekaste a 0.0003757
blekaste slightest 0.2000000
blekaste position 0.0090090
blekaste right 0.0079365
öppet transparent 0.1739130
öppet exercised 0.2000000
öppet openly 0.1818182
öppet which 0.0018232
öppet effective 0.0243902
öppet is 0.0003257
öppet open 0.0303030
öppet pro-nazi 0.2500000
öppet openness 0.0714286
löper expiry 0.3333333
löper treaty 0.0126582
löper cause 0.0357143
löper of 0.0007333
löper expires 0.1666667
löper able 0.0096154
löper obscuring 0.1666667
löper they 0.0028249
löper will 0.0020367
löper run 0.2000000
handlingskraft power 0.0294118
handlingskraft of 0.0001833
handlingskraft enterprises 0.0909091
handlingskraft act 0.0270270
återanvändning re-use 0.5000000
återanvändning and 0.0002669
återanvändning recovery 0.0526316
återanvändning recycling 0.0652174
jämställdhetsperspektivet a 0.0003757
jämställdhetsperspektivet perspective 0.0526316
jämställdhetsperspektivet respect 0.0117647
jämställdhetsperspektivet with 0.0010515
jämställdhetsperspektivet equality 0.0400000
samhällelig results 0.0277778
samhällelig stability 0.0500000
samhällelig poor 0.0909091
samhällelig excellent 0.0212766
samhällelig gives 0.0526316
saluföringsfrågorna beyond 0.0400000
saluföringsfrågorna basis 0.0163934
saluföringsfrågorna questions 0.0136986
saluföringsfrågorna going 0.0092593
saluföringsfrågorna commercial 0.1111111
saluföringsfrågorna working 0.0181818
saluföringsfrågorna mere 0.0833333
saluföringsfrågorna for 0.0005266
införlivat transposed 0.0909091
införlivat this 0.0004284
införlivat into 0.0038911
avståndstagande normal 0.0833333
avståndstagande disagreement 0.1250000
avståndstagande further 0.0158730
avståndstagande rejection 0.1428571
jämfört hitherto 0.1000000
jämfört contrast 0.1250000
jämfört in 0.0005450
jämfört as 0.0009050
jämfört comparison 0.3333333
jämfört on 0.0019506
jämfört one 0.0026667
jämfört allocated 0.0208333
jämfört subject 0.0172414
jämfört by 0.0011274
jämfört improvement 0.0416667
jämfört opposed 0.0400000
jämfört frequency 0.1666667
förnuftigt sense 0.0588235
förnuftigt searching 0.1666667
förnuftigt then 0.0158730
förnuftigt laudable 0.1250000
förnuftigt reasonable 0.0416667
förnuftigt clear 0.0074074
förnuftigt so 0.0033445
förnuftigt ecologically 0.3333333
förnuftigt rationally 0.5000000
jaså done 0.0108696
jaså act 0.0270270
jaså when 0.0098522
jaså have 0.0008039
jaså because 0.0042735
jaså should 0.0018315
jaså did 0.0212766
jaså it 0.0005984
skadeersättning payments 0.1000000
skadeersättning claims 0.1666667
skadeersättning covering 0.1666667
hanteras be 0.0021716
hanteras managed 0.1111111
hanteras dealt 0.0869565
hanteras regulates 0.1666667
hanteras with 0.0021030
hanteras to 0.0001723
stabiliteten they 0.0028249
stabiliteten stability 0.1000000
stabiliteten europe 0.0030769
stabiliteten within 0.0046296
utvecklingssamarbetet tailor 0.1666667
utvecklingssamarbetet particular 0.0101010
utvecklingssamarbetet own 0.0092593
utvecklingssamarbetet development 0.0135135
utvecklingssamarbetet with 0.0010515
utvecklingssamarbetet cooperating 0.3333333
utvecklingssamarbetet cooperation 0.0106383
åtstramning tightening 1.0000000
åtstramning up 0.0049261
harmoniserar amongst 0.0500000
harmoniserar flying 0.2000000
harmoniserar these 0.0022676
harmoniserar tougher 0.1111111
harmoniserar vessels 0.0588235
medlemsland state 0.0352941
medlemsland my 0.0029499
medlemsland being 0.0049020
medlemsland states 0.0037594
medlemsland member 0.0231023
medlemsland mep 0.0769231
medlemsland major 0.0163934
negativ against 0.0093458
negativ set 0.0125000
negativ negative 0.3000000
låter we 0.0004531
låter bought 0.3333333
låter does 0.0055866
låter receive 0.0588235
låter allow 0.0158730
låter do 0.0024691
låter put 0.0081301
låter speak 0.0196078
låter compound 0.1666667
fullmakt jurisdiction 0.1428571
fullmakt significant 0.0333333
fullmakt gave 0.0526316
fullmakt texts 0.0714286
eftertryckligen fully 0.0172414
eftertryckligen emphatically 0.2500000
skälen grounds 0.0555556
skälen delay 0.0476190
skälen why 0.0081301
skälen reasons 0.0357143
skälen is 0.0003257
dricksvattnet water 0.0093458
dricksvattnet our 0.0019268
dricksvattnet drinking 0.1666667
dricksvattnet for 0.0005266
direktivförslag draft 0.0161290
direktivförslag directive 0.0059172
direktivförslag kind 0.0212766
slukas it 0.0005984
slukas you 0.0015949
slukas devour 0.5000000
obestridlig indisputable 1.0000000
menligt detrimental 0.3333333
minimum believe 0.0069444
minimum absolute 0.0666667
minimum requirement 0.0909091
minimum , 0.0002800
minimum minimum 0.1250000
minimum i 0.0005015
offentlighetskampanj campaign 0.0588235
offentlighetskampanj publicity 0.5000000
talet speech 0.0454545
talet statements 0.0454545
talet unabridged 0.1666667
förlikningsetappen following 0.0256410
förlikningsetappen conciliation 0.0322581
förlikningsetappen stage 0.0357143
a5-0006 a5-0006 1.0000000
övervakningen i 0.0005015
övervakningen would 0.0015773
övervakningen monitoring 0.0312500
övervakningen relating 0.0250000
övervakningen wholeheartedly 0.1250000
övervakningen something 0.0117647
sågverk sawmills 1.0000000
sågverk ; 0.0082645
sågverk aid 0.0062893
sågverk especially 0.0149254
sågverk shipyards 0.2500000
alibiresolution currency 0.0909091
alibiresolution future 0.0084034
alibiresolution being 0.0049020
alibiresolution preventing 0.0625000
alibiresolution averted 1.0000000
alibiresolution overvalued 0.2000000
alibiresolution through 0.0142857
alibiresolution crises 0.1428571
kollektivavtal collective 0.6000000
kollektivavtal agreements 0.0714286
kollektivavtal agreement 0.0169492
kollektivavtal : 0.0049751
kollektivavtal choice 0.0526316
bemanningsbehovet needs 0.0136986
bemanningsbehovet staffing 0.3333333
fonderna funds 0.0446429
avsattes eur 0.0312500
avsattes was 0.0028818
motåtgärder countermeasures 0.5000000
motåtgärder worth 0.0714286
motåtgärder taken 0.0097087
rejält upright 0.2500000
rejält they 0.0028249
rejält long 0.0135135
rejält eu 0.0043103
rejält behind 0.0312500
rejält are 0.0007663
rejält way 0.0054645
rejält substantially 0.1666667
rådens advice 0.0625000
tsatsos tsatsos 0.2857143
tsatsos mr 0.0029762
tsatsos from 0.0023202
ersätter warlords 0.1666667
ersätter replacing 0.1250000
ersätter on 0.0006502
preciseringar few 0.0102041
preciseringar heard 0.0333333
preciseringar a 0.0003757
preciseringar details 0.0555556
preciseringar explanations 0.1111111
hamn any 0.0043860
hamn within 0.0046296
hamn into 0.0038911
hamn finishing 0.2500000
hamn harbour 0.2500000
kontrasterar most 0.0062500
kontrasterar contrasts 0.3333333
foderblandningar compound 0.1666667
foderblandningar feed 0.0588235
foderblandningar compounders 0.3333333
6 6 0.9411765
6 nos 0.0800000
arbetsvillkoren increasing 0.0303030
arbetsvillkoren working 0.0363636
arbetsvillkoren conditions 0.0363636
utvecklingsmöjligheter anticipate 0.2000000
utvecklingsmöjligheter it 0.0005984
utvecklingsmöjligheter development 0.0067568
utvecklingsmöjligheter possible 0.0096154
utvecklingsmöjligheter , 0.0002800
utvecklingsmöjligheter options 0.1111111
utvecklingsmöjligheter least 0.0192308
utvecklingsmöjligheter make 0.0046083
misslyckats broke 0.2000000
misslyckats achieve 0.0147059
misslyckats have 0.0008039
misslyckats shall 0.0096154
misslyckats a 0.0003757
misslyckats failed 0.1200000
ordvändning mind 0.0227273
ordvändning why 0.0081301
ordvändning by 0.0011274
ordvändning what 0.0025840
ordvändning was 0.0028818
ordvändning said 0.0086207
ordvändning should 0.0018315
ordvändning we 0.0004531
ordvändning bear 0.0263158
människornas human 0.0153846
människornas an 0.0016000
människornas are 0.0015326
människornas linked 0.0476190
sysselsättningsåtgärderna employment 0.0113636
sysselsättningsåtgärderna far 0.0099010
sysselsättningsåtgärderna as 0.0009050
sysselsättningsåtgärderna papayannakis 0.2000000
sysselsättningsåtgärderna mr 0.0014881
sysselsättningsåtgärderna for 0.0005266
sysselsättningsåtgärderna plan 0.0312500
sysselsättningsåtgärderna action 0.0085470
tas removed 0.0625000
tas accepted 0.0588235
tas tackle 0.0500000
tas preparatory 0.1111111
tas processed 0.1428571
tas move 0.0303030
tas will 0.0010183
tas be 0.0086862
tas systematic 0.2000000
tas is 0.0003257
tas included 0.0400000
tas taken 0.0194175
tas excess 0.2500000
tas by 0.0011274
tas satellite 0.2000000
tas disposed 0.1000000
tas b1-382 0.1250000
tas reiterates 0.1250000
tas raised 0.0422535
tas developed 0.0476190
tas beneficiaries 0.1666667
tas can 0.0024752
tas mentioned 0.0147059
tas addressed 0.1935484
tas dealt 0.0434783
tas incorporated 0.0833333
tas separately 0.1000000
tas utilisation 0.1666667
tas brought 0.0384615
lokala bottom-up 0.2500000
lokala local 0.6794872
erinra me 0.0126582
erinra achievements 0.1111111
erinra remind 0.1176471
erinra let 0.0322581
erinra reiterate 0.1250000
erinra approximation 0.3333333
erinra you 0.0063796
erinra remember 0.0303030
förskräckliga dreadful 0.2000000
förskräckliga truly 0.0625000
förskräckliga were 0.0055249
vanligen usually 0.0625000
vanligen out 0.0048780
vanligen find 0.0200000
bildar forms 0.0909091
bildar in 0.0002725
bildar coalition 0.0666667
bildar offers 0.0769231
vara contemplate 0.3333333
vara warning 0.1000000
vara formulate 0.2000000
vara view 0.0103093
vara meet 0.0500000
vara honest 0.0833333
vara equilibrium 0.2500000
vara subject 0.0172414
vara iron 0.2000000
vara leave 0.0526316
vara bolkestein 0.1000000
vara undertake 0.0769231
vara fixture 0.2000000
vara fallen 0.2857143
vara zero-risk 0.2000000
vara facilitate 0.0666667
vara seem 0.0909091
vara ground-breaking 0.0833333
vara state-sanctioned 0.1111111
vara makeup 0.1111111
vara proving 0.5000000
vara happens 0.0625000
vara fruitfully 0.5000000
vara worse 0.0833333
vara remain 0.0625000
vara what 0.0025840
vara tighter 0.1111111
vara join 0.0333333
vara act 0.0270270
vara inexcusable 0.2500000
vara fear 0.0476190
vara else 0.0555556
vara goal 0.1000000
vara dread 0.2500000
vara abuse 0.1111111
vara consequent 0.2222222
vara provides 0.0588235
vara wording 0.0909091
vara foundations 0.2000000
vara incompatible 0.1666667
vara being 0.0196078
vara admit 0.0833333
vara vigilant 0.0909091
vara marseilles 0.3333333
vara considers 0.1111111
vara seems 0.0909091
vara chasing 0.5000000
vara price 0.0454545
vara rationale 0.1111111
vara make 0.0046083
vara be 0.1221498
vara hardly 0.1111111
vara tree 0.2500000
vara oppose 0.0714286
vara showing 0.1000000
vara schools 0.1250000
vara primarily 0.2500000
vara retain 0.1111111
vara desirable 0.1666667
vara prove 0.1000000
vara balanced 0.0588235
vara profound 0.2500000
vara impose 0.0833333
vara become 0.0377358
vara heaton-harris 0.1000000
vara noble 0.5000000
vara exhaustion 0.2500000
vara 105 0.1666667
vara constraints 0.2000000
vara inquiries 0.2500000
vara help 0.0119048
vara automatically 0.2500000
vara benchmark 0.1666667
vara landaburu 0.2000000
vara nationalistic 0.1428571
vara contaminated 0.3333333
vara feel 0.0232558
vara is 0.0003257
vara auspices 0.1666667
vara reply 0.0434783
vara harness 0.2500000
vara income 0.2500000
vara pricing 0.1111111
vara show 0.0322581
vara crux 0.2500000
vara bourlanges 0.1000000
vara rest 0.0833333
vara non-democracy 0.6666667
vara ourselves 0.0208333
vara term 0.0434783
vara 2000-2006 0.0500000
vara provide 0.0285714
vara unapplied 0.3333333
vara product 0.0454545
vara copyright 0.1666667
vara ingredients 0.1250000
vara progressed 0.5000000
vara agree 0.0108696
vara proved 0.1111111
vara beside 0.5000000
vara treasury 0.3333333
konkurrenspolitik without 0.0103093
konkurrenspolitik competition 0.1042945
konkurrenspolitik is 0.0003257
konkurrenspolitik designed 0.0416667
konkurrenspolitik achieve 0.0147059
konkurrenspolitik saying 0.0256410
konkurrenspolitik policy 0.0602837
avseenden ways 0.1875000
avseenden disappointing 0.2500000
avseenden it 0.0005984
avseenden work 0.0057803
avseenden respects 0.1818182
avseenden , 0.0001400
avseenden of 0.0001833
uppförande receiving 0.0909091
uppförande harbour 0.2500000
uppförande project 0.0285714
folkpartiet party 0.0563380
folkpartiet &apos; 0.0015106
folkpartiet s 0.0020877
folkpartiet people 0.0200000
folkpartiet övp 0.1250000
folkpartiet &apos;s 0.0348837
folkpartiet sit 0.2000000
folkpartiet continue 0.0147059
utsläppsrätter rights 0.0109890
utsläppsrätter immoral 0.1666667
utsläppsrätter in 0.0002725
utsläppsrätter emissions 0.1111111
tradition dealing 0.0384615
tradition ourselves 0.0208333
tradition find 0.0200000
tradition norm 0.3333333
tradition with 0.0010515
tradition traditionally 0.2500000
starkare consensus 0.0588235
starkare larger 0.3333333
starkare determined 0.3333333
starkare momentum 0.2500000
starkare stronger 0.2857143
starkare so 0.0033445
starkare significance 0.1666667
relation that 0.0003663
relation given 0.0084034
villkor necessity 0.2000000
villkor recognises 0.3333333
villkor arbitrarily 0.1666667
villkor conditions 0.1454545
villkor necessary 0.0096154
villkor sustainability 0.1111111
villkor eight 0.1666667
villkor either 0.0322581
villkor restricted 0.0666667
villkor condition 0.2500000
villkor specific 0.0156250
villkor retirement 0.2000000
villkor conditionality 0.1666667
osårbart immune 0.5000000
demonstration demonstration 0.4000000
demonstration illustration 0.0909091
beviljat granting 0.0666667
beviljat granted 0.0322581
beviljat been 0.0021882
beviljat authorised 0.1818182
förändra affect 0.0454545
förändra interpret 0.2000000
förändra changing 0.1111111
förändra there 0.0013793
förändra able 0.0096154
förändra alter 0.0909091
förändra is 0.0003257
förändra u-turn 0.3333333
sökanden put 0.0081301
sökanden applicants 0.1428571
sökanden oblige 0.1428571
sökanden on 0.0006502
vattengränser areas 0.0065359
vattengränser maritime 0.0370370
a32 a32 1.0000000
rockskört coattails 1.0000000
rockskört onto 0.3333333
debatterar debating 0.0500000
säkerhetskriser by 0.0011274
säkerhetskriser security 0.0217391
säkerhetskriser crises 0.1428571
heroisk heroic 1.0000000
heroisk decision 0.0200000
jordbrukare farmer 0.2000000
jordbrukare are 0.0015326
jordbrukare farmers 0.4736842
jordbrukare part-time 0.1250000
hållningen attitude 0.1428571
dubbel double 0.1538462
dubbel allow 0.0158730
enhällighet will 0.0010183
enhällighet longer 0.0250000
enhällighet unanimously 0.0500000
enhällighet a 0.0011270
enhällighet unanimous 0.1000000
enhällighet necessary 0.0096154
enhällighet matter 0.0098039
enhällighet consensus 0.0588235
enhällighet unanimity 0.2941176
enhällighet be 0.0005429
valutan single 0.0208333
valutan currency 0.2272727
skapa switzerland 0.1666667
skapa can 0.0049505
skapa obscuring 0.1666667
skapa in 0.0008174
skapa non-technical 0.2000000
skapa establishment 0.1176471
skapa creation 0.1304348
skapa blocking 0.2000000
skapa activators 0.3333333
skapa cause 0.0357143
skapa putting 0.0833333
skapa unbalanced 0.3333333
skapa created 0.1111111
skapa greater 0.0142857
skapa shareholders 0.2000000
skapa of 0.0001833
skapa we 0.0004531
skapa credible 0.1250000
skapa busquin 0.3333333
skapa creating 0.2162162
skapa engender 0.1666667
skapa vigorously 0.5000000
skapa to 0.0001723
skapa generate 0.3333333
skapa bring 0.0333333
skapa seem 0.0454545
skapa enable 0.0555556
skapa future-orientated 0.3333333
skapa early 0.0555556
skapa asylum 0.0416667
skapa restricted 0.0666667
skapa unthinkable 0.1428571
skapa instigate 0.1428571
skapa build 0.0416667
skapa qualified 0.0625000
skapa create 0.5111111
skapa implement 0.0555556
skapa a 0.0007513
skapa for 0.0021064
skapa achieving 0.0555556
skapa enacting 0.2222222
skapa closer 0.1428571
skapa voting 0.0333333
oreglerade regulatory 0.1250000
oreglerade especially 0.0149254
oreglerade vacuums 0.3333333
betraktats been 0.0021882
betraktats seen 0.0270270
olämpligt be 0.0005429
olämpligt inappropriate 0.1666667
olämpligt for 0.0005266
olämpligt view 0.0103093
7.1 7.1 1.0000000
beskriver described 0.0769231
beskriver would 0.0015773
beskriver describe 0.1428571
beskriver state 0.0058824
revirstrider wars 0.1428571
revirstrider turf 1.0000000
riskkapital venture 0.0909091
riskkapital risk 0.0166667
riskkapital capital 0.1176471
israelerna the 0.0000869
israelerna do 0.0024691
israelerna shepherdstown 0.2000000
israelerna israel 0.0344828
86 86 1.0000000
följas deal 0.0121951
följas observed 0.0909091
följas follow 0.0666667
följas them 0.0070423
följas not 0.0008333
följas with 0.0010515
följas only 0.0040486
följas followed 0.0769231
prodi mr 0.0238095
prodi prodi 0.5538462
prodi saying 0.0256410
lära learn 0.2857143
lära learning 0.3333333
lära leaf 0.1666667
lära baptism 0.2000000
lära from 0.0023202
fastslå make 0.0046083
fastslå set 0.0250000
fastslå determine 0.0833333
fastslå its 0.0030395
fastslå by 0.0011274
fastslå be 0.0005429
fastslå out 0.0048780
härstammar stem 1.0000000
skogspolitik altogether 0.1666667
skogspolitik forestry 0.0769231
transport- the 0.0000869
transport- transport 0.0333333
transport- transportation 0.1250000
transport- evacuation 1.0000000
bevisbördan of 0.0003666
bevisbördan proof 0.2857143
bevisbördan burden 0.0952381
återvinns are 0.0007663
återvinns recycled 0.0833333
tillämpad applied 0.0400000
tillämpad wrongly 0.2500000
överfiske overfishing 0.3333333
överfiske consolidate 0.1666667
överfiske future 0.0084034
tänker intrigued 0.2000000
tänker principally 0.1000000
tänker do 0.0074074
tänker in 0.0008174
tänker have 0.0008039
tänker am 0.0294118
tänker limitations 0.0769231
tänker are 0.0030651
tänker thinking 0.1923077
tänker aspe 0.2500000
tänker going 0.0185185
tänker envisage 0.2307692
tänker follow-up 0.0666667
tänker indian 0.3333333
tänker will 0.0020367
tänker think 0.0201005
tänker intends 0.0588235
tänker include 0.0227273
tänker talk 0.0312500
tänker mind 0.0227273
planeten planet 0.3333333
planeten blue 0.5000000
planeten yet 0.0123457
unifil unifil 0.5000000
håvar been 0.0021882
håvar making 0.0175439
håvar have 0.0008039
utverka permits 0.0833333
utverka taken 0.0097087
utverka having 0.0117647
rent in 0.0013624
rent concretely 0.3333333
rent cleanliness 0.2500000
rent a 0.0003757
rent clean 0.1538462
rent even 0.0268456
rent nominees 0.2000000
rent theory 0.1666667
rent to 0.0005170
rent plainly 0.5000000
rent serbs 0.2000000
rent predict 0.2000000
rent nonsensical 0.5000000
rent maintained 0.1250000
rent repressive 0.3333333
rent instil 0.5000000
rent underlined 0.1000000
rent crossing 0.2000000
nyetableringar organisations 0.0454545
nyetableringar newly 0.3333333
nyetableringar established 0.0256410
hota danger 0.0500000
hota obviate 0.1428571
interventionism interventionism 1.0000000
enhetligt uniformly 0.1428571
enhetligt uniform 0.2222222
enhetligt at 0.0015601
enhetligt core 0.0833333
urban-program programmes 0.0097087
urban-program urban 0.0147059
förnekas added 0.0666667
förnekas offers 0.0769231
förnekas this 0.0004284
förnekas undeniable 0.1250000
förnekas value 0.0588235
förnekas though 0.0270270
fredsprocessen process 0.1150442
fredsprocessen peace 0.2600000
fredsprocessen middle 0.1538462
fötterna soundly 0.1666667
fötterna feet 0.1428571
fötterna placed 0.0454545
fötterna on 0.0006502
fötterna their 0.0036496
former eliminating 0.1666667
former forms 0.1818182
former eliminate 0.1111111
former ways 0.0625000
former survey 0.0833333
former misreading 0.1250000
former form 0.0243902
former cover 0.0384615
former many-sided 0.3333333
former sorts 0.1666667
förorenaren polluter 0.1250000
förorenaren the 0.0001738
förorenaren polluters 0.2500000
analysen leonardo 0.1666667
analysen return 0.0833333
analysen analysis 0.0540541
analysen his 0.0085470
analysen to 0.0001723
analysen about 0.0031348
analysen going 0.0092593
präglad emotional 0.2500000
utbredning beetle 0.2500000
utbredning spread 0.1111111
utbredning unemployment 0.0312500
utbredning trend 0.1111111
valts basis 0.0163934
valts this 0.0004284
valts comment 0.0384615
valts election 0.2000000
valts elected 0.0454545
valts address 0.0166667
valts your 0.0051020
valts positive 0.0166667
valts chosen 0.1250000
valts steps 0.0625000
kvalificera hulten 0.0384615
kvalificera van 0.0277778
kvalificera mr 0.0014881
invald elected 0.0454545
ledaren leader 0.0317460
ledaren forcibly 0.5000000
ledaren made 0.0054645
ledaren point 0.0057471
ledaren by 0.0011274
ledaren very 0.0029851
duhamels duhamel 0.5000000
duhamels olivier 0.2000000
kund enter 0.0833333
kund should 0.0018315
kund customer 0.5000000
kund into 0.0038911
civiliserat mankind 0.2000000
civiliserat civilised 0.2500000
tvekat no 0.0024938
tvekat been 0.0021882
tvekat reluctance 0.3333333
tvekat slow 0.0769231
tvekat showed 0.1428571
phare phare 0.3333333
fascistiskt fascistic 0.5000000
fascistiskt here 0.0068493
marknadsinstrumentet itself 0.0166667
marknadsinstrumentet instrument 0.0294118
läckte reported 0.1428571
läckte been 0.0021882
läckte has 0.0012821
läckte widely 0.1111111
läckte spillage 0.2000000
finanserna same 0.0077519
finanserna had 0.0080000
finanserna said 0.0086207
finanserna financial 0.0114943
finanserna take 0.0043103
finanserna aspect 0.0500000
finanserna simply 0.0185185
finanserna could 0.0064103
finanserna board 0.0625000
etablerade established 0.0256410
placeringen continuation 0.0833333
placeringen has 0.0012821
placeringen been 0.0021882
placeringen which 0.0009116
placeringen accorded 0.0769231
placeringen it 0.0005984
eftersträvade the 0.0001738
eftersträvade certain 0.0129870
eftersträvade pursued 0.1000000
eftersträvade envisaged 0.0833333
lagrar with 0.0010515
lagrar itself 0.0166667
lagrar glory 0.3333333
eurofederalistiska eurofederalist 0.6666667
nyaste latest 0.2500000
slutdatum date 0.0333333
slutdatum target 0.0833333
fortskrider is 0.0003257
fortskrider proceeding 0.2500000
diskussion question 0.0044643
diskussion addressing 0.1000000
diskussion discussion 0.1190476
diskussion debate 0.0126582
diskussion exchange 0.1052632
diskussion when 0.0098522
diskussion industrialised 0.2500000
diskussion in 0.0002725
diskussion discussions 0.1333333
diskussion past 0.0153846
diskussion programming 0.1250000
ppe-de-gruppen ppe-de 0.3750000
ppe-de-gruppen the 0.0000869
ppe-de-gruppen group 0.0214286
tvivel utopian 0.2000000
tvivel occurred 0.0588235
tvivel undoubtedly 0.2142857
tvivel cry 0.1250000
tvivel unquestionably 0.2500000
tvivel no 0.0124688
tvivel enforced 0.1111111
tvivel clearly 0.0181818
tvivel doubtless 0.1818182
tvivel doubt 0.2291667
tvivel involve 0.0370370
tvivel certainly 0.0144928
delaktig secure 0.0769231
delaktig greater 0.0142857
delaktig contends 0.2500000
delaktig participation 0.0416667
delaktig process 0.0088496
34 34 0.6250000
pse-gruppens pse 0.2500000
pse-gruppens fact 0.0059172
pse-gruppens de-pse 1.0000000
pse-gruppens behalf 0.0192308
transportera twice 0.2000000
transportera people 0.0050000
transportera before 0.0111111
transportera think 0.0050251
transportera transporting 0.1666667
räkna on 0.0026008
räkna count 0.2857143
räkna few 0.0102041
räkna do 0.0024691
räkna accomplished 0.1000000
räkna next 0.0101010
räkna counting 0.1666667
räkna performances 0.1250000
räkna can 0.0024752
räkna 2 0.0256410
kommissionen orientation 0.1428571
kommissionen reminders 0.1428571
kommissionen hoped 0.1111111
kommissionen regulatory 0.1250000
kommissionen motivated 0.1250000
kommissionen tabled 0.0178571
kommissionen the 0.0499652
kommissionen stockbrokers 0.2500000
kommissionen far 0.0099010
kommissionen commission 0.7018779
kommissionen further 0.0158730
kommissionen moreover 0.0344828
kommissionen discrepancy 0.2500000
annars gravitate 0.2000000
annars omitting 0.1666667
annars pr 0.2000000
annars otherwise 0.2333333
annars as 0.0009050
annars might 0.0204082
annars but 0.0019342
annars well 0.0078125
annars deliberate 0.3333333
annars apart 0.1111111
återhämtning lasting 0.1666667
återhämtning recovery 0.1578947
återhämtning underway 0.1666667
återhämtning now 0.0043478
återhämtning with 0.0010515
rätta corrects 0.5000000
rätta work 0.0057803
rätta share 0.0250000
rätta one 0.0026667
rätta available 0.0238095
rätta real 0.0208333
rätta correct 0.0344828
rätta remedying 0.1250000
rätta right 0.0238095
rätta rightly 0.1333333
rätta be 0.0005429
rätta conform 0.3333333
rätta quite 0.0212766
rätta the 0.0006083
rätta so 0.0033445
rätta grudgingly 0.2500000
arbete presidency 0.0140845
arbete turn 0.0476190
arbete employed 0.0909091
arbete seeking 0.0769231
arbete mine 0.2500000
arbete house 0.0129870
arbete diligence 0.3333333
arbete responses 0.1250000
arbete proceedings 0.0625000
arbete job 0.0666667
arbete uniformity 0.1666667
arbete shown 0.0416667
arbete delimitation 0.1666667
arbete process 0.0088496
arbete philosophy 0.1250000
arbete paper 0.0133333
arbete start 0.0172414
arbete trouble 0.1000000
arbete neutral 0.3333333
arbete trying 0.0500000
arbete on 0.0006502
arbete efforts 0.0222222
arbete performance 0.1666667
arbete instructors 0.1666667
arbete labour 0.0769231
arbete work 0.3526012
arbete working 0.0363636
arbete marks 0.1428571
arbete project 0.0285714
arbete outbreaks 0.3333333
arbete magnificent 0.3333333
arbete to 0.0001723
vatanen vatanen 0.4285714
vatanen mr 0.0044643
oegentlighet possible 0.0096154
oegentlighet quickly 0.0285714
oegentlighet up 0.0049261
oegentlighet come 0.0104167
oegentlighet as 0.0018100
oegentlighet irregularity 0.5000000
lyckade exchanges 0.1000000
lyckade successful 0.0800000
lyckade between 0.0058480
fotbollsbedrägerierna football 1.0000000
frivilligt voluntarily 0.3333333
frivilligt add-on 0.1666667
frivilligt optional 0.2000000
frivilligt turned 0.1000000
rådsordförandeskapet presidency 0.0140845
rådsordförandeskapet clearly 0.0090909
rådsordförandeskapet improve 0.0322581
rådsordförandeskapet will 0.0010183
rådsordförandeskapet respect 0.0117647
olyckorna these 0.0022676
olyckorna risks 0.0555556
rekonstruktion reconstruction 0.0909091
rekonstruktion is 0.0003257
minimireglerna standards 0.0222222
minimireglerna been 0.0021882
minimireglerna already 0.0068027
minimireglerna mentioned 0.0147059
minimireglerna it 0.0005984
minimireglerna concerns 0.0114943
minimireglerna minimum 0.0625000
laboratorium out 0.0048780
laboratorium tests 0.3333333
laboratorium because 0.0042735
laboratorium carried 0.0263158
laboratorium one 0.0026667
laboratorium laboratory 0.5000000
livsmedelsproduktion for 0.0005266
livsmedelsproduktion production 0.0333333
livsmedelsproduktion food 0.0088496
ospar-normen question 0.0044643
ospar-normen are 0.0007663
ospar-normen standard 0.1666667
ospar-normen called 0.0476190
ospar-normen into 0.0038911
2006 attached 0.1428571
2006 year 0.0140845
2006 2006 0.4736842
2006 were 0.0055249
hitler-regimen regime 0.1111111
hitler-regimen hitler 0.1250000
misslyckade unsuccessful 0.3333333
misslyckade have 0.0008039
misslyckade seen 0.0270270
fransktalande french-speaking 0.3333333
konfrontationspolitik confrontation 0.2500000
konfrontationspolitik gain 0.0714286
konfrontationspolitik little 0.0158730
konfrontationspolitik policy 0.0035461
finansiärer turn 0.0476190
finansiärer investors 0.2000000
entusiasmen and 0.0002669
entusiasmen or 0.0028490
entusiasmen enthusiasm 0.1250000
betalats granted 0.0322581
betalats plain 0.2500000
betalats would 0.0015773
betalats more 0.0030769
betalats been 0.0043764
betalats paid 0.1000000
betalats suffice 0.2500000
kineserna pressed 0.3333333
kineserna peking 0.5000000
kineserna chinese 0.1111111
samhällsekonomiska cost-benefit 0.0666667
samhällsekonomiska concerning 0.0158730
samhällsekonomiska employment 0.0113636
samhällsekonomiska socio-economic 0.3333333
planerad for 0.0005266
planerad supposed 0.1000000
planerad its 0.0030395
planerad scheduled 0.1428571
intogs weakened 0.1666667
intogs by 0.0011274
kommissionsdirektoratet while 0.0161290
kommissionsdirektoratet commission 0.0011737
kommissionsdirektoratet respecting 0.0625000
kommissionsdirektoratet directorate 0.3333333
tyskt , 0.0002800
tyskt opera 0.5000000
tyskt german 0.0555556
tyskt like 0.0022989
tyskt beer 0.3333333
tyskt five 0.0270270
flygplats airport 0.7500000
vägrar refuse 0.1111111
vägrar rejected 0.0625000
vägrar refuses 0.2000000
livsmedelskvalitet food 0.0088496
livsmedelskvalitet quality 0.0454545
extra additional 0.0952381
extra seconds 0.2000000
extra rusting 0.5000000
extra stating 0.1666667
extra sheet 0.3333333
extra extra 0.5000000
extra contain 0.0909091
extra because 0.0042735
bondens farmer 0.2000000
bondens the 0.0001738
aviseras means 0.0126582
aviseras stipulates 0.0909091
bestäms set 0.0125000
bestäms are 0.0007663
bestäms borders 0.0400000
bestäms them 0.0070423
bestäms on 0.0006502
inse understand 0.0961538
inse recognise 0.0588235
inse realise 0.0800000
inse need 0.0034014
marknadens attending 0.3333333
marknadens the 0.0001738
marknadens league 0.3333333
marknadens controversy 0.1666667
marknadens trust 0.0833333
marknadens failure 0.0588235
marknadens market 0.0852713
föredraganden rapporteur 0.6463415
föredraganden the 0.0046055
föredraganden shown 0.0416667
föredraganden report 0.0033223
föredraganden berger 0.1000000
föredraganden arrives 0.1428571
föredraganden your 0.0051020
biltillverkare car 0.0389610
biltillverkare manufacturers 0.0638298
barnens involve 0.0370370
barnens children 0.1666667
barnens protecting 0.0833333
ministerposter posts 0.2500000
ministerposter ministerial 0.4000000
kustvakter supervise 0.1428571
kustvakter who 0.0037594
kustvakter coastguards 0.5000000
kraftigt a 0.0003757
kraftigt on 0.0006502
kraftigt wants 0.0588235
kraftigt considerably 0.1875000
kraftigt strong 0.0952381
kraftigt from 0.0023202
skadar impact 0.0400000
skadar involving 0.0370370
skadar damages 0.5000000
skadar on 0.0006502
skadar insisting 0.1428571
skadar few 0.0102041
skadar greatly 0.1111111
skadar is 0.0006515
skadar offences 0.1250000
palestinsk palestinian 0.0666667
värderingarna values 0.0526316
värderingarna even 0.0067114
påtalats been 0.0043764
påtalats raised 0.0140845
påtalats mentioned 0.0294118
lugn relaxed 0.2500000
lugn quite 0.0106383
lugn calmly 0.2000000
103 103 1.0000000
uppmaningar heed 0.5000000
uppmaningar calls 0.0625000
partisk partisan 0.5000000
levebröd at 0.0031201
levebröd fact 0.0059172
levebröd one 0.0026667
levebröd decent 0.1111111
levebröd that 0.0003663
levebröd present 0.0103093
annorlunda different 0.0769231
annorlunda things 0.0188679
annorlunda rather 0.0113636
annorlunda are 0.0007663
annorlunda really 0.0158730
tryggas concerned 0.0081301
tryggas instruments 0.0833333
slog order 0.0075188
slog its 0.0030395
slog recognised 0.0555556
småningom where 0.0070922
småningom ban 0.0250000
småningom producing 0.1428571
småningom fined 0.1666667
småningom examination 0.0666667
regeringsförhandlingarna a 0.0003757
regeringsförhandlingarna government 0.0097087
regeringsförhandlingarna forming 0.1250000
regeringsförhandlingarna talks 0.0909091
kycklingar chickens 0.3333333
kycklingar used 0.0151515
givande looked 0.0625000
givande such 0.0055866
givande fruitfully 0.5000000
givande fruitful 0.1111111
avsevärt considerably 0.1250000
avsevärt to 0.0005170
avsevärt be 0.0005429
avsevärt amount 0.0344828
avsevärt considerable 0.0416667
socialförsäkringssystem scheme 0.0625000
socialförsäkringssystem social 0.0063291
socialförsäkringssystem security 0.0217391
besvikna disappointed 0.0909091
existensberättigande have 0.0008039
existensberättigande ) 0.0051282
existensberättigande back 0.0196078
existensberättigande ( 0.0058480
existensberättigande even 0.0067114
existensberättigande a 0.0003757
existensberättigande fr 0.0769231
existensberättigande policy 0.0035461
existensberättigande we 0.0004531
dödas killed 0.2500000
konkurrenskraft competitiveness 0.4500000
konkurrenskraft desired 0.1250000
konkurrenskraft unleashed 0.2500000
konkurrenskraft the 0.0009559
konkurrenskraft industry 0.0425532
konkurrenskraft s 0.0020877
konkurrenskraft of 0.0009166
operativ operational 0.0588235
grundligt you 0.0015949
grundligt deep 0.1333333
grundligt enough 0.0147059
grundligt all 0.0019194
grundligt far 0.0099010
grundligt it 0.0005984
grundligt illustrate 0.1428571
grundligt could 0.0064103
påbörjade begun 0.1428571
påbörjade that 0.0003663
innehållsrika comprehensive 0.0454545
förvisso surely 0.0625000
förvisso is 0.0009772
förvisso are 0.0007663
förvisso solely 0.2000000
förvisso same 0.0077519
förvisso all 0.0019194
förvisso clearly 0.0090909
förvisso certainly 0.0289855
inkluderat included 0.0200000
forum agreeing 0.3333333
forum forum 0.1538462
forum internet 0.0769231
forum context 0.0256410
forum currently 0.0158730
emu economic 0.0078740
emu reconsidered 0.2000000
emu monetary 0.0500000
emu union 0.0027027
emu take 0.0043103
emu relation 0.0232558
preciserade specified 0.0833333
lyckat same 0.0077519
konkurrenspolitiska decisions 0.0222222
konkurrenspolitiska competition 0.0184049
konkurrenspolitiska relating 0.0250000
konkurrenspolitiska policy 0.0106383
konkurrenspolitiska aims 0.0555556
producentansvar manufacturer 0.0666667
producentansvar liability 0.0476190
producentansvar &apos; 0.0030211
producentansvar s 0.0041754
mantrat concerning 0.0158730
mantrat mantra 0.2000000
samtliga municipal 0.2000000
samtliga right-wing 0.1428571
samtliga secure 0.0769231
samtliga enables 0.1666667
samtliga each 0.0153846
samtliga cover 0.0384615
samtliga 370 0.2000000
samtliga visiting 0.2500000
samtliga all 0.0326296
mekanismen mechanism 0.2500000
handlade this 0.0004284
handlade point 0.0057471
handlade ladies 0.0156250
handlade take 0.0043103
handlade and 0.0005338
handlade aim 0.0227273
handlade gentlemen 0.0112360
handlade action 0.0085470
handlade was 0.0115274
handlade just 0.0051282
handlade at 0.0015601
handlade quickly 0.0285714
lufttransporterna traffic 0.1111111
lufttransporterna but 0.0019342
lufttransporterna air 0.1000000
lufttransporterna understand 0.0192308
lufttransporterna leaving 0.1250000
lyssningsläge listening 0.1428571
lyssningsläge mode 0.3333333
uranium air-borne 0.3333333
uranium becomes 0.0833333
uranium uranium 0.1428571
kokor pancakes 0.3333333
sköt shot 0.6666667
fusioner massive 0.0909091
fusioner monopoly 0.1250000
fusioner market 0.0077519
fusioner mergers 0.1666667
konkurrensrelaterade disturbances 0.2000000
konkurrensrelaterade competitive 0.0476190
konkurrensrelaterade iron 0.2000000
mindre billions 0.2500000
mindre assistance 0.0322581
mindre fewer 0.1111111
mindre intended 0.0416667
mindre translating 0.3333333
mindre smaller 0.8000000
mindre small 0.0204082
mindre synergy 0.1250000
mindre a 0.0011270
mindre consequent 0.1111111
mindre distribution 0.1000000
mindre alimony 0.2500000
mindre marginalising 0.2500000
mindre less 0.6382979
antieuropeiska which 0.0009116
antieuropeiska anti-european 0.1428571
antieuropeiska are 0.0007663
antieuropeiska also 0.0018248
urbans the 0.0000869
låtit given 0.0084034
tillstånden replacement 0.3333333
tillstånden authorisations 0.2000000
varken allowed 0.0714286
varken not 0.0016667
varken it 0.0011969
varken paragraph 0.0555556
varken neither 0.2727273
varken respected 0.1250000
varken either 0.0645161
varken deal 0.0121951
varken signatories 0.2500000
varken cannot 0.0077519
varken possibly 0.1111111
bygger enshrined 0.1250000
bygger establishing 0.0344828
bygger building 0.0769231
bygger built 0.0769231
bygger upon 0.0188679
bygger is 0.0006515
bygger 1990 0.0909091
bygger build 0.0416667
bygger takes 0.0322581
bygger board 0.0625000
bygger based 0.0425532
arbetstagares improve 0.0322581
arbetstagares position 0.0090090
arbetstagares workers 0.0322581
arbetstagares restricted 0.0666667
nedskärningspolitik cut-backs 1.0000000
nedskärningspolitik of 0.0001833
nedskärningspolitik policy 0.0035461
plantation plantation 1.0000000
plantation have 0.0008039
beslutsamhet forward 0.0140845
beslutsamhet guterres 0.2000000
beslutsamhet drive 0.1428571
beslutsamhet decidedly 0.1666667
beslutsamhet what 0.0025840
beslutsamhet most 0.0062500
beslutsamhet parties 0.0416667
standarden look 0.0120482
standarden standards 0.0222222
mix mix 0.1666667
begås are 0.0007663
begås committed 0.0400000
begås these 0.0022676
kalejdoskop culture 0.0153846
kalejdoskop kaleidoscope 0.3333333
kalejdoskop is 0.0003257
avspeglas are 0.0007663
avspeglas reflected 0.1666667
finanser finances 0.2500000
understrukit cases 0.0285714
understrukit just 0.0051282
understrukit underlined 0.1000000
varade like 0.0022989
varade last 0.0096154
varade me 0.0063291
kulisserna staying 0.3333333
kulisserna protagonists 0.2500000
kulisserna leading 0.1111111
kulisserna off 0.0200000
kulisserna while 0.0161290
kulisserna backstage 0.2500000
presenteras given 0.0084034
finansieringsplan implementation 0.0158730
finansieringsplan indicative 0.2000000
finansieringsplan financial 0.0114943
finansieringsplan plan 0.0312500
framläggandet presentation 0.2500000
framläggandet are 0.0007663
framläggandet regarding 0.0140845
framläggandet the 0.0000869
lejda basque 0.1428571
lejda hiring 0.3333333
lejda contract 0.2000000
brysselteknokraternas brussels 0.0357143
brysselteknokraternas technocrats 0.1666667
linje line 0.0937500
linje complies 0.2000000
linje with 0.0042061
linje vigour 0.2500000
linje accordance 0.1000000
linje policy 0.0035461
linje democratically 0.1666667
linje redefining 0.1428571
linje full 0.0232558
linje same 0.0077519
linje keeping 0.1000000
linje allay 0.1666667
linje xenophobic 0.1250000
ärligt there 0.0013793
ärligt honestly 0.2500000
råvaruproducenter commodity 1.0000000
råvaruproducenter producers 0.1250000
offensiva aggressive 0.5000000
offensiva &apos; 0.0015106
strukturfondsprogrammen programme 0.0112994
strukturfondsprogrammen within 0.0046296
strukturfondsprogrammen structural 0.0222222
strukturfondsprogrammen funds 0.0178571
at to 0.0001723
at require 0.0312500
saluförandet for 0.0005266
saluförandet monopoly 0.1250000
saluförandet a 0.0003757
saluförandet creating 0.0270270
saluförandet marketing 0.0833333
perspektiv 685 0.5000000
perspektiv perspective 0.2631579
perspektiv eminently 0.1111111
perspektiv see 0.0069930
perspektiv reality 0.0833333
perspektiv way 0.0054645
perspektiv such 0.0055866
perspektiv into 0.0077821
perspektiv countryside 0.1428571
beundrat admired 1.0000000
strukturella structural 0.0888889
vecka before 0.0111111
vecka week 0.2857143
endemisk endemic 1.0000000
beklagansvärt regrettable 0.1111111
rapporter make 0.0046083
rapporter these 0.0022676
rapporter relationships 0.2500000
rapporter nonetheless 0.0357143
rapporter like 0.0022989
rapporter reports 0.1034483
avgav gave 0.0526316
bestämde decided 0.0285714
bestämde and 0.0002669
bestämde ahead 0.0555556
bestämde go 0.0136986
bestämde draw 0.0285714
förmår clearly 0.0090909
förmår throughout 0.0322581
förmår quite 0.0106383
förmår trademark 0.1111111
förmår bears 0.0909091
dyrare bill 0.1250000
dyrare higher 0.0666667
dyrare greater 0.0142857
upplevs perceived 0.1428571
upplevs to 0.0001723
upprättar sets 0.1333333
upprättar setting 0.0416667
upprättar up 0.0098522
upprättar are 0.0007663
upprättar out 0.0097561
upprättar should 0.0018315
jämställdhet equality 0.3600000
jämställdhet , 0.0002800
jämställdhet struggles 0.5000000
avfallet from 0.0023202
avfallet cars 0.0149254
avfallet exists 0.0454545
avfallet waste 0.1666667
till 1995-1997 0.3333333
till sympathise 0.2000000
till travelling 0.5000000
till export 0.2857143
till doors 0.2222222
till davies 0.1111111
till allocated 0.0416667
till back 0.0196078
till intended 0.2916667
till far 0.0198020
till 25-30 0.2500000
till supplements 0.1000000
till draft 0.3709677
till suffers 0.1428571
till towards 0.0985915
till make 0.0092166
till subsidies 0.0714286
till call 0.0312500
till washout 0.2000000
till help 0.2142857
till tension 0.1666667
till avail 0.3333333
till comments 0.0294118
till reason 0.0943396
till sending 0.2000000
till establishes 0.2500000
till access 0.3818182
till available 0.0238095
till benefit 0.0869565
till monitor 0.0526316
till add 0.0270270
till pilot 0.1428571
till mudflat 0.3333333
till returning 0.2000000
till become 0.0754717
till means 0.0126582
till contribute 0.3750000
till hence 0.0800000
till nature 0.0857143
till carelessness 0.1666667
till subsidy-dependence 0.2500000
till pre-accession 0.0476190
till 2 0.0512821
till subsidised 0.2500000
till resourced 0.2000000
till informing 0.2222222
till supports 0.0476190
till behind 0.0625000
till restrictions 0.1111111
till accordingly 0.0555556
till openings 0.2000000
till possibilities 0.0909091
till efterløn 0.2500000
till corrected 0.2500000
till producing 0.1428571
till unlike 0.2500000
till existed 0.5000000
till familiar 0.2222222
till granting 0.0666667
till victims 0.1111111
till in 0.0100817
till aimed 0.1666667
till quecedo 0.2000000
till threshold 0.1250000
till weaker 0.1250000
till failing 0.1111111
till wasted 0.2500000
till contents 0.1666667
till compensating 0.1250000
till examine 0.0625000
till observed 0.0909091
till finnish 0.1000000
till 193 0.3333333
till sub-items 0.1428571
till with 0.0126183
till difficulty 0.0714286
till combine 0.1111111
till intent 0.1250000
till mediation 0.5000000
till underpin 0.5000000
till stimulated 0.3333333
till produces 0.1428571
till passed 0.0500000
till mountains 0.5000000
till off 0.0600000
till example 0.0285714
till dawn 0.1666667
till advocate 0.1428571
till unrealistic 0.1428571
till eu-wide 0.1666667
till details 0.0555556
till arrived 0.2352941
till floor 0.2500000
till deliver 0.0625000
till explain 0.0500000
till favouring 0.5000000
till advocates 0.3333333
till downplaying 0.3333333
till considered 0.0625000
till via 0.0833333
till ensure 0.2450331
till cold 0.2000000
till shaken 0.2500000
till making 0.0175439
till dell 0.3333333
till reclassifications 0.5000000
till speakers 0.0588235
till entrepreneurial 0.2000000
till kaufmann 0.2500000
till monopolised 0.2000000
till helped 0.3750000
till depending 0.1428571
till set 0.0125000
till introducing 0.0909091
till varies 0.1428571
till myself 0.0303030
till result 0.0869565
till hearing 0.0909091
till ignoring 0.2222222
till beyond 0.0400000
till knows 0.1250000
till significantly 0.2727273
till draw 0.0285714
till eur 0.2500000
till of 0.0229148
till unpleasant 0.3333333
till reach 0.1612903
till attain 0.1428571
till led 0.2580645
till disposed 0.1000000
till appeal 0.2352941
till satisfaction 0.0909091
till the 0.0043448
till lowered 0.5000000
till favour 0.0535714
till ensuring 0.2500000
till chance 0.1111111
till initiate 0.0833333
till past 0.0307692
till produce 0.1250000
till rose 0.2000000
till tying 0.3333333
till source 0.3157895
till book 0.2500000
till contribution 0.1282051
till as 0.0018100
till on 0.0188557
till clean 0.2307692
till solbes 0.1250000
till newspapers 0.1666667
till code 0.1428571
till reached 0.1388889
till marine 0.3750000
till violations 0.2500000
till refers 0.1333333
till pursued 0.1000000
till at 0.0078003
till degassing 0.2000000
till approximately 0.0588235
till nazi 0.2000000
till agri-foodstuffs 0.2500000
till to 0.1228675
till know-how 0.1666667
till contributed 0.2000000
till specifically 0.0322581
till contradict 0.1428571
till pruned 0.3333333
till timeframe 0.1111111
till ensures 0.5000000
till overheads 0.3333333
till contributing 0.1000000
till disrupters 0.1666667
till ecologist 0.2500000
till relations 0.1000000
till even 0.0872483
till guilty 0.1000000
till wurtz 0.0555556
till troops 0.2000000
till greater 0.0285714
till funds 0.0178571
till firstly 0.0320000
till livestock 0.2500000
till criminal 0.0909091
till foster 0.1111111
till creates 0.0909091
till surprised 0.1250000
till fragile 0.2000000
till confront 0.1000000
till self-seeking 0.3333333
till fantastic 0.3333333
till stands 0.0769231
till counterpart 0.5000000
till misreading 0.1250000
till alternatives 0.1428571
till spent 0.1333333
till martinez 0.1666667
till debacle 0.2000000
till spokespersons 0.5000000
till mr 0.0014881
till remedying 0.1250000
till mixed 0.2500000
till downgraded 0.1428571
till sure 0.1379310
till considering 0.0909091
till classed 0.3333333
till for 0.0779358
till copy 0.1111111
till enough 0.0147059
till account 0.3118280
till rural 0.0185185
till until 0.2857143
till reactions 0.1111111
till dam 0.1111111
till know 0.1000000
till misuse 0.1666667
till gradually 0.1250000
till incomplete 0.1666667
till receipt 0.1666667
till exists 0.0454545
till braking 0.1428571
till sent 0.0909091
till NULL 0.0209192
till largely 0.2222222
till congratulate 0.1000000
till permitted 0.1250000
till open 0.0303030
till stimulate 0.1250000
till close 0.0416667
till generated 0.2000000
till bringing 0.0454545
till extended 0.1785714
till compared 0.3333333
till consideration 0.1555556
till heads 0.1428571
till roofs 0.2500000
till known 0.0714286
till pointed 0.0454545
till up 0.0098522
till why 0.0650407
till disclosure 0.2500000
till table 0.0500000
till wars 0.2857143
till lastly 0.1333333
till contradiction 0.2500000
till reasons 0.0714286
till sea 0.2272727
till contrast 0.1250000
till concerning 0.0158730
till finds 0.3333333
till urged 0.1666667
till liable 0.0625000
till instincts 0.2500000
till lead 0.3134328
till farm-to-table 0.1250000
till entrepreneurship 0.1000000
till reference 0.0588235
till reduced 0.1363636
till enforceable 0.1250000
till into 0.0739300
till loopholes 0.1111111
till causes 0.1666667
till designed 0.0416667
till cause 0.0714286
till re-nationalise 0.2500000
till disregarded 0.1666667
till ins 0.3333333
till refuse 0.3333333
till aware 0.1392405
till attracted 0.1250000
till contacted 0.3333333
till certain 0.0649351
till finally 0.1097561
anspelade reference 0.0294118
anspelade made 0.0054645
anspelade auroi 0.2500000
andra seventh 0.1111111
andra faster 0.0666667
andra the 0.0000869
andra hundreds 0.1000000
andra differentiating 0.1666667
andra version 0.0370370
andra another 0.0348837
andra revenue 0.1666667
andra rendered 0.2500000
andra remote 0.0909091
andra orders 0.1000000
andra anti-european 0.1428571
andra last 0.0096154
andra alternatively 0.2500000
andra nomination 0.5000000
andra else 0.1111111
andra covers 0.1428571
andra of 0.0001833
andra controls 0.0666667
andra visit 0.1250000
andra hears 0.1111111
andra broader 0.1250000
andra forgery 0.1250000
andra speakers 0.0588235
andra receiving 0.0909091
andra second 0.7250000
andra elsewhere 0.1333333
andra industrial 0.1176471
andra secondary 0.1000000
andra buyer 0.5000000
andra everybody 0.0909091
andra concepts 0.1428571
andra resort 0.2500000
andra survey 0.0833333
andra subsequent 0.1666667
andra 34 0.1250000
andra taiwan 0.2000000
andra others 0.5952381
andra secondly 0.3149606
andra other 0.5294118
andra continent 0.0833333
andra repetition 0.1666667
andra pubs 0.1666667
andra teratogenic 0.2500000
andra attributed 0.1666667
andra controversial 0.1000000
integritet syria 0.0526316
integritet means 0.0126582
medlemskap european 0.0012853
medborgarnas criterion 0.1666667
medborgarnas obliged 0.0666667
medborgarnas catering 0.1250000
medborgarnas popular 0.3333333
medborgarnas of 0.0005500
medborgarnas indifference 0.1666667
medborgarnas the 0.0016510
medborgarnas citizens 0.1296296
medborgarnas &apos; 0.0015106
hotade under 0.0071429
hotade unless 0.0344828
hotade threat 0.0434783
hotade populations 0.1666667
120 approximately 0.0588235
120 120 0.5000000
120 us 0.0036765
120 with 0.0010515
välfärdsskillnader continue 0.0147059
välfärdsskillnader disparities 0.0454545
välfärdsskillnader wealth 0.1250000
alltsammans the 0.0000869
alltsammans to 0.0001723
alltsammans all 0.0019194
statsstödens aid 0.0062893
statsstödens such 0.0055866
statsstödens effect 0.0250000
statsstödens detailing 1.0000000
åtal claims 0.1666667
åtal charges 0.2000000
åtal fishermen 0.3333333
åtal brought 0.0384615
skrovkonstruktionens hull 0.1666667
konstaterade point 0.0057471
konstaterade mrs 0.0068966
konstaterade share 0.0250000
konstaterade he 0.0098039
motsatt run 0.0666667
motsatt opposed 0.0800000
motsatt counter 0.1111111
motsatt considerations 0.1250000
lopp played 0.0833333
lopp years 0.0176991
lopp viewed 0.2500000
lopp past 0.0153846
utgå finance 0.0526316
utgå people 0.0050000
utgå resident 0.1428571
utgå being 0.0049020
utgå allows 0.1428571
utgå make 0.0046083
betänker all 0.0019194
betänker a 0.0003757
betänker such 0.0055866
betänker thing 0.0256410
avgång for 0.0005266
avgång resignation 0.2222222
avgång &apos; 0.0015106
avgång s 0.0020877
avgång commission 0.0011737
produkts product 0.0909091
produkts these 0.0022676
gemenskapsinitiativen pruned 0.1666667
gemenskapsinitiativen initiatives 0.1428571
gemenskapsinitiativen community 0.0424242
gemenskapsinitiativen operation 0.0434783
iväg get 0.0175439
iväg rushing 0.5000000
iväg away 0.0333333
iväg to 0.0001723
iväg idea 0.0250000
iväg crust 0.1428571
förbereda proceedings 0.0625000
förbereda necessary 0.0096154
förbereda ready 0.0909091
förbereda make 0.0092166
förbereda prepared 0.0277778
förbereda prepare 0.5000000
förbereda preparations 0.1666667
nogueira mr 0.0014881
nogueira on 0.0006502
inträdesbiljett entrance 1.0000000
inträdesbiljett own 0.0092593
inträdesbiljett ticket 0.5000000
avprickning are 0.0007663
avprickning checks 0.1000000
tiotal dozen 0.3333333
tiotal so 0.0033445
tiotal up 0.0049261
tiotal or 0.0028490
tiotal drawn 0.0526316
tiotal were 0.0055249
50 50 0.5238095
50 50-80 0.2500000
griper refer 0.0384615
griper to 0.0001723
aviserade experts 0.0344828
jordbruksproduktionen in 0.0002725
jordbruksproduktionen way 0.0054645
jordbruksproduktionen agricultural 0.0909091
jordbruksproduktionen consistent 0.0588235
jordbruksproduktionen production 0.0666667
jordbruksproduktionen a 0.0003757
interreg-initiativ initiative 0.0083333
interreg-initiativ european 0.0012853
förhindras serves 0.2000000
förhindras prevent 0.0238095
förhindras whole 0.0153846
förhindras prices 0.1111111
förhindras want 0.0054945
förhindras to 0.0003446
beta have 0.0008039
beta not 0.0008333
beta finished 0.1111111
beta still 0.0078125
beta that 0.0003663
översyn rethink 0.2000000
översyn moments 0.5000000
översyn ago 0.0232558
översyn few 0.0102041
initiativrätt may 0.0066667
initiativrätt itself 0.0166667
initiativrätt dictates 0.2000000
initiativrätt will 0.0010183
initiativrätt right 0.0238095
initiativrätt initiative 0.0333333
initiativrätt impinge 0.2000000
innehållet terms 0.0169492
innehållet straight 0.0666667
innehållet content 0.3043478
innehållet the 0.0003476
innehållet their 0.0036496
innehållet substance 0.0666667
innehållet details 0.0555556
innehållet contents 0.1666667
kammare easier 0.0625000
kammare chamber 0.0526316
kammare hemicycle 0.2000000
kammare house 0.1948052
resursbristen lack 0.0169492
resursbristen resources 0.0208333
resursbristen of 0.0001833
varaktigt does 0.0055866
varaktigt improve 0.0322581
varaktigt nothing 0.0153846
varaktigt situation 0.0090090
varaktigt unemployment 0.0312500
balans manifest 0.1666667
balans balance 0.3703704
handlingen the 0.0000869
handlingen document 0.0250000
kumuleringen effect 0.0250000
kumuleringen have 0.0008039
kumuleringen failed 0.0400000
kumuleringen desired 0.1250000
kumuleringen accumulation 0.1666667
produkterna products 0.0909091
oklara be 0.0005429
oklara somewhat 0.0588235
oklara are 0.0007663
oklara matter 0.0098039
oklara seems 0.0181818
oklara confused 0.2000000
samtalspartner ideal 0.1250000
samtalspartner negotiating 0.1428571
samtalspartner partner 0.2000000
genderutbildningen gender 0.0454545
genderutbildningen training 0.0208333
genderutbildningen participated 0.2500000
genderutbildningen , 0.0001400
genderutbildningen for 0.0005266
genderutbildningen and 0.0002669
eftertryck be 0.0005429
eftertryck establishing 0.0344828
eftertryck emphatic 0.1666667
eftertryck can 0.0024752
eftertryck possibly 0.1111111
eftertryck important 0.0040323
eftertryck as 0.0018100
öst is 0.0003257
öst account 0.0107527
öst east 0.0500000
öst on 0.0006502
protokollen the 0.0001738
protokollen minutes 0.0500000
248 248 0.2000000
hjälpte helped 0.1250000
uppnå us 0.0073529
uppnå pursue 0.1111111
uppnå fulfilled 0.1428571
uppnå divide 0.5000000
uppnå be 0.0021716
uppnå achieved 0.0810811
uppnå wants 0.0588235
uppnå follow 0.0666667
uppnå strictness 0.1666667
uppnå gain 0.0714286
uppnå for 0.0015798
uppnå able 0.0096154
uppnå achieve 0.2205882
uppnå making 0.0175439
uppnå achieving 0.1111111
uppnå uniformity 0.1666667
uppnå reach 0.0967742
uppnå feasible 0.1000000
uppnå workable 0.2500000
uppnå to 0.0012063
uppnå them 0.0070423
uppnå found 0.0588235
flyktingstatus refugee 0.2500000
flyktingstatus status 0.0869565
exilregeringen government 0.0097087
exilregeringen in 0.0002725
exilregeringen exile 0.5000000
höge solana 0.1111111
höge high 0.0400000
höge office 0.0357143
initiativen initiatives 0.0204082
initiativen , 0.0001400
likt for 0.0005266
högerextremismens right-wing 0.1428571
högerextremismens successes 0.1428571
solidaritetsarbetet volunteers 0.1666667
solidaritetsarbetet daily 0.1000000
solidaritetsarbetet their 0.0036496
solidaritetsarbetet organise 0.0909091
solidaritetsarbetet a 0.0003757
solidaritetsarbetet basis 0.0163934
tekniken technology 0.1000000
tekniken innovations 0.3333333
enheter result 0.0144928
enheter a 0.0003757
enheter services 0.0681818
enheter as 0.0009050
enheter should 0.0018315
enheter be 0.0005429
enheter enlarged 0.1111111
enheter , 0.0002800
enheter areas 0.0130719
enheter however 0.0038911
enheter thematic 0.1666667
bombningarna bombings 0.5000000
kaskad torrent 0.5000000
kaskad caused 0.0312500
kaskad has 0.0012821
kaskad considerable 0.0416667
stormar world-wide 0.2000000
stormar storms 0.3125000
stormar wind 0.5000000
stormar occur 0.1111111
bevakar point 0.0057471
bevakar are 0.0007663
bevakar watching 0.3333333
tillverkningsindustri what 0.0025840
tillverkningsindustri industry 0.0106383
tillverkningsindustri thousands 0.0769231
tillverkningsindustri processing 0.0714286
tillverkningsindustri comes 0.0227273
tillverkningsindustri down 0.0140845
blandas mixed 0.2500000
bildandet formation 0.2000000
bildandet mr 0.0014881
bildandet an 0.0016000
ledamöterna members 0.0679612
ledamöterna parliament 0.0044248
ledamöterna floor 0.0250000
ledamöterna radicals 0.2500000
ledamöterna house 0.0129870
ledamöterna meps 0.1666667
ledamöterna delegates 0.1111111
ledamöterna firstly 0.0080000
ledamöterna like 0.0022989
ledamöterna the 0.0002607
ledamöterna president 0.0012887
ledamöterna i 0.0005015
ledamöterna would 0.0015773
ledamöterna of 0.0009166
slutsatser premises 0.3333333
slutsatser decision 0.0200000
slutsatser conclusions 0.5500000
slutsatser findings 0.5000000
slutsatser its 0.0030395
slutsatser with 0.0010515
slutsatser many 0.0065359
slutsatser present 0.0103093
akta let 0.0161290
akta growth 0.0500000
akta an 0.0016000
akta guard 0.2000000
akta against 0.0093458
akta exponential 0.2000000
eller liberties 0.2000000
eller mind 0.0227273
eller or 0.6695157
eller emphatically 0.2500000
eller disappearance 0.1250000
eller mixing 0.3333333
eller stemming 0.2000000
eller cen 0.0833333
eller contravention 0.2500000
eller generate 0.1111111
eller hears 0.1111111
eller tax 0.0476190
eller we 0.0004531
eller comparison 0.1111111
eller hot 0.1111111
eller steadfast 0.2500000
eller cannot 0.0116279
eller corbett 0.0909091
eller nor 0.0789474
eller thinking 0.0384615
eller barely 0.1428571
eller insurmountable 0.1111111
eller federalism 0.1666667
eller seldom 0.2000000
eller disputes 0.1666667
eller euro 0.0588235
eller , 0.0001400
eller preserving 0.2000000
eller believes 0.1250000
eller intolerable 0.0769231
eller introduction 0.0769231
eller and 0.0082733
eller mep 0.0769231
eller vacuums 0.3333333
mottog did 0.0212766
mottog receive 0.0588235
mottog letter 0.0909091
mottog received 0.0294118
nämna ears 0.3333333
nämna mention 0.1666667
nämna state 0.0058824
nämna forgery 0.1250000
nämna special 0.0212766
nämna also 0.0036496
nämna mentioning 0.1000000
nämna am 0.0042017
nämna venture 0.0909091
nämna cite 0.3333333
nämna to 0.0005170
nämna he 0.0098039
nämna deserves 0.0555556
nämna going 0.0092593
nämna just 0.0051282
skall functions 0.2222222
skall will 0.1048880
skall defining 0.2000000
skall whilst 0.0769231
skall proposes 0.1818182
skall championed 0.2500000
skall include 0.0227273
skall vintage 0.0833333
skall promised 0.0588235
skall scheme 0.0625000
skall types 0.0666667
skall fifty-fifty 0.1428571
skall do 0.0098765
skall improving 0.0588235
skall accomplished 0.1000000
skall decided 0.0285714
skall palliative 0.1666667
skall liable 0.0625000
skall goods 0.0333333
skall promotion 0.1111111
skall discussion 0.0238095
skall amsterdam 0.0357143
skall users 0.1666667
skall relevant 0.0588235
skall attention 0.0298507
skall shall 0.2692308
skall extension 0.1333333
skall unveiled 0.2500000
skall protect 0.0625000
skall targeted 0.1111111
skall six-month 0.1428571
skall sabotage 0.3333333
skall february 0.0555556
skall embraced 0.1666667
skall designed 0.0416667
skall retrodisplacement 0.1666667
skall priorities 0.0740741
skall overview 0.2000000
skall country 0.0135135
skall tools 0.1250000
skall pinpointing 0.1666667
skall similarly 0.2000000
skall concentrate 0.0384615
skall ought 0.0434783
skall umbrella 0.3333333
skall legitimise 0.1666667
skall operating 0.0769231
skall initiate 0.0833333
skall inequality 0.1666667
skall , 0.0043405
skall prerequisite 0.1666667
skall apply 0.0444444
skall practice 0.0869565
skall formed 0.1666667
skall facilitate 0.0666667
skall combine 0.1111111
skall spheres 0.1428571
skall spectre 0.1428571
skall ignore 0.1000000
skall regulates 0.1666667
skall possess 0.3333333
skall message 0.0625000
skall 75 0.1666667
skall conclusion 0.0384615
skall pretext 0.1666667
skall incur 0.2000000
skall delete 0.2500000
skall employer 0.1111111
skall supposed 0.1000000
skall explain 0.1000000
skall operation 0.0434783
skall going 0.0092593
skall gain 0.0714286
skall stimulate 0.1250000
skall bringing 0.0454545
skall undoubtedly 0.0714286
skall should 0.2271062
skall based 0.0212766
skall makeup 0.1111111
skall mudflats 0.1428571
skall prosecutes 0.5000000
skall attaining 0.1666667
skall kind 0.0212766
skall us 0.0073529
skall pursues 0.3333333
skall conference 0.0240964
skall would 0.0094637
skall obtain 0.0666667
skall legitimacy 0.1428571
skall polluter 0.1666667
skall provide 0.0285714
skall to 0.0260210
skall resolved 0.0666667
skall classic 0.1428571
skall thinks 0.5000000
skall work 0.0057803
skall come 0.0416667
skall pricing 0.1111111
skall cumulatively 0.2500000
skall hampering 0.5000000
skall is 0.0136808
skall authorising 0.2500000
skall wurtz 0.0555556
skall proclaimed 0.1666667
skall am 0.0336134
skall receives 0.1111111
skall funding 0.0192308
skall reminders 0.1428571
skall unconditional 0.2500000
skall fewer 0.1111111
skall possibilities 0.0909091
skall sole 0.1250000
skall must 0.0434057
skall impatient 0.2000000
skall repatriation 0.3333333
skall give 0.0099010
skall funds 0.0089286
skall conjunction 0.2500000
skall ambulances 0.1666667
skall transposing 0.1428571
skall limit 0.0800000
skall voters 0.2222222
skall finance 0.1052632
skall are 0.0237548
skall can 0.0247525
skall excluded 0.1176471
skall observed 0.0909091
skall tackled 0.1428571
skall transposition 0.1111111
skall enter 0.0833333
skall advisers 0.0833333
skall might 0.0612245
skall justification 0.1428571
skall accused 0.1111111
skall fix 0.1428571
skall directing 0.3333333
skall interpreted 0.1818182
skall supervised 0.2500000
skall consultants 0.4000000
skall afresh 0.2000000
skall principle 0.0071942
skall davies 0.1111111
skall designate 0.2000000
skall golan 0.0833333
skall implement 0.0555556
skall delicate 0.1111111
skall mergers 0.1666667
skall coherence 0.1250000
skall cartels 0.2500000
skall lady 0.2500000
skall be 0.0271444
skall employ 0.1111111
skall assured 0.1666667
skall comprehensible 0.1000000
skall altener 0.0769231
skall providing 0.0384615
skall need 0.0068027
skall expectation 0.1666667
skall succeed 0.0555556
skall inter-institutional 0.2000000
skall frankly 0.2000000
skall one-sided 0.1428571
skall suspend 0.1428571
skall reads 0.2500000
skall synonymous 0.2500000
skall priority 0.0303030
skall attributable 0.1666667
återfinner plates 0.1666667
återfinner reach 0.0322581
återfinner preparing 0.0833333
nyckelproblem problems 0.0106383
nyckelproblem key 0.0227273
får exhibitions 0.1111111
får reality 0.0416667
får lord 0.1428571
får reproduce 0.1666667
får distinct 0.1428571
får ruled 0.2000000
får faces 0.1250000
får having 0.0117647
får none 0.0454545
får get 0.0526316
får forget 0.0625000
får simpson 0.2000000
får gives 0.0526316
får be 0.0043431
får make 0.0046083
får that 0.0007326
får as 0.0009050
får sheep 0.3333333
får bigger 0.1666667
får transpire 0.1666667
får chamber 0.0526316
får technical 0.0263158
får shows 0.0588235
får oblige 0.1428571
får developed 0.0476190
får are 0.0061303
får has 0.0051282
får implications 0.0625000
får in 0.0002725
får along 0.0476190
får french-speaking 0.3333333
får must 0.0550918
får sensible 0.0588235
får needs 0.0136986
får falling-off 0.2000000
får getting 0.1666667
får west 0.1428571
får elaborate 0.1666667
får auspices 0.1666667
får experiencing 0.1111111
får tolerate 0.1666667
får additive 0.3333333
får uphold 0.0909091
får cease 0.1666667
får given 0.0168067
får to 0.0001723
får obtain 0.2000000
får anti-fouling 0.2500000
får again 0.0088496
får bilges 0.1666667
får funded 0.1666667
får handed 0.1428571
får hunt 0.3333333
får receiving 0.1818182
får installation 0.1000000
får vast 0.0769231
får should 0.0347985
får profile 0.2000000
får cannot 0.0193798
får palestinians 0.3333333
får witnessing 0.1428571
får prohibited 0.4000000
får gain 0.1428571
får succeeds 0.2000000
får accredited 0.2500000
får underrepresented 0.2000000
får multinational 0.1428571
får nowadays 0.1666667
får leads 0.2500000
får believing 0.1428571
får leave 0.0526316
får attributed 0.1666667
får fallen 0.1428571
får try 0.0476190
får transitional 0.2000000
får featured 0.1666667
får , 0.0016802
får then 0.0158730
får admit 0.0833333
får expose 0.5000000
får chance 0.0555556
får fingers 0.1428571
får ought 0.0869565
får necessarily 0.0588235
får carrying 0.0476190
får faster 0.0666667
får cycles 0.2000000
får widest 0.1666667
får kosovars 0.2857143
får anticipation 0.2500000
får sometimes 0.0526316
får delay 0.0476190
får may 0.0266667
får giving 0.0357143
får exercise 0.0625000
får value 0.0588235
får course 0.0080000
får together 0.0185185
får receive 0.0588235
får certificate 0.3333333
får heap 1.0000000
får detract 0.2500000
får hears 0.1111111
får will 0.0061100
kvalitet , 0.0001400
kvalitet be 0.0005429
kvalitet report 0.0033223
kvalitet quality 0.2045455
kvalitet water 0.0093458
upplevelse experience 0.0416667
högaktuellt do 0.0024691
högaktuellt highly 0.0666667
högaktuellt as 0.0009050
högaktuellt we 0.0004531
högaktuellt matter 0.0098039
högaktuellt need 0.0034014
högaktuellt priority 0.0303030
högaktuellt topical 0.0400000
delsession them 0.0070423
delsession part-session 0.1666667
delsession telling 0.1428571
kompensera for 0.0005266
kompensera situation 0.0090090
kompensera compensate 0.2500000
transportsäkerhet this 0.0004284
transportsäkerhet but 0.0019342
transportsäkerhet safety 0.0188679
transportsäkerhet transport 0.0333333
bevarats maintained 0.1250000
bevarats been 0.0021882
bevarats far 0.0099010
bevarats so 0.0033445
uppmanar on 0.0032510
uppmanar ask 0.0686275
uppmanar build 0.0416667
uppmanar urge 0.4400000
uppmanar call 0.1250000
uppmanar calling 0.0500000
uppmanar would 0.0126183
uppmanar name 0.1111111
uppmanar request 0.0285714
uppmanar are 0.0007663
sammanträde bureau 0.3333333
sammanträde keenness 0.1666667
sammanträde &apos;s 0.0116279
sammanträde meeting 0.0952381
sammanträde s 0.0041754
sammanträde &apos; 0.0030211
sammanträde session 0.1176471
sammanträde part-session 0.1666667
sammanträde sitting 0.3157895
sammanträde , 0.0002800
generaldirektorat &apos;s 0.0116279
generaldirektorat directorate 0.3333333
generaldirektorat directorates-general 1.0000000
generaldirektorat directorate-general 0.2142857
generaldirektorat its 0.0030395
generaldirektorat dgs 0.3333333
lunchtid mr 0.0014881
lunchtid midday 0.2500000
kvalificerad qualified 0.5000000
faslane faslane 1.0000000
utarbetade drew 0.2000000
utarbetade produced 0.0555556
utarbetade 1995 0.1428571
hotad who 0.0037594
hotad under 0.0071429
hotad a 0.0003757
hotad loss 0.1000000
hotad complete 0.0416667
hotad are 0.0007663
hotad at 0.0015601
hotad for 0.0005266
hotad fear 0.0476190
hotad threat 0.0434783
erkki erkki 0.6666667
finansaktörer can 0.0024752
finansaktörer be 0.0005429
finansaktörer by 0.0011274
finansaktörer longer 0.0250000
finansaktörer no 0.0024938
finansaktörer ignored 0.0909091
rödgröna red-green 1.0000000
avtal that 0.0003663
avtal ignorance 0.1250000
avtal agreement 0.2033898
avtal within 0.0046296
avtal agreements 0.3928571
avtal such 0.0055866
avtal safeguards 0.3333333
schleicher entirety 0.1250000
schleicher overhaul 0.1000000
schleicher schleicher 1.0000000
passion down 0.0140845
passion if 0.0031250
passion each 0.0153846
passion water 0.0093458
passion are 0.0007663
passion passion 0.2500000
passion we 0.0004531
passion not 0.0008333
ogrundad too 0.0052910
ogrundad my 0.0029499
ogrundad initial 0.0714286
ogrundad opinion 0.0087719
sätta implement 0.0555556
sätta this 0.0004284
sätta a 0.0011270
sätta make 0.0092166
sätta impose 0.1666667
sätta introduce 0.0357143
sätta jeopardise 0.1666667
sätta to 0.0018956
sätta it 0.0011969
sätta stop 0.0333333
sätta achieve 0.0147059
sätta bringing 0.0454545
ventileras properly 0.0303030
ventileras debated 0.0833333
6,07 considered 0.0312500
6,07 6.07 0.5000000
6,07 eur 0.0312500
6,07 be 0.0005429
6,07 could 0.0064103
återupptogs resumed 0.2307692
fi adopting 0.0666667
inlämning cars 0.0149254
inlämning in 0.0002725
inlämning no 0.0024938
inlämning cost 0.0392157
inlämning charge 0.1111111
inlämning at 0.0015601
inlämning handed 0.1428571
inlämning of 0.0003666
intresseregister interests 0.0222222
intresseregister register 0.0769231
intresseregister &apos; 0.0015106
intresseregister of 0.0001833
adekvata adequate 0.1052632
adekvata at 0.0015601
adekvata same 0.0077519
adekvata time 0.0042918
skämtsam in 0.0002725
skämtsam jest 1.0000000
skämtsam sounded 0.3333333
skämtsam it 0.0005984
skämtsam for 0.0005266
omfångsrikt my 0.0029499
omfångsrikt extensive 0.1428571
omfångsrikt fear 0.0476190
spörsmålet question 0.0044643
spörsmålet discuss 0.0434783
spörsmålet it 0.0005984
spörsmålet wishes 0.0285714
förvarningssystem warning 0.1000000
förvarningssystem system 0.0106383
förvarningssystem early 0.0555556
förvarningssystem it 0.0005984
förklarade stated 0.0454545
förklarade basis 0.0163934
förklarade declared 0.1666667
förklarade ongoing 0.1250000
förklarade an 0.0016000
förklarade just 0.0051282
förklarade described 0.0769231
europé as 0.0009050
europé europeans 0.1000000
europé being 0.0049020
europé advantage 0.0909091
europé an 0.0016000
europé come 0.0104167
europé see 0.0069930
europé european 0.0012853
havsvärlden maritime 0.0370370
havsvärlden world 0.0175439
havsvärlden the 0.0000869
37.2 the 0.0000869
syftena aims 0.0555556
hävdar affect 0.0454545
hävdar situations 0.0714286
hävdar argue 0.1250000
hävdar would 0.0015773
hävdar contends 0.2500000
hävdar make 0.0046083
hävdar that 0.0007326
hävdar everyone 0.0357143
hävdar me 0.0063291
hävdar will 0.0010183
hävdar maintain 0.2000000
hävdar tell 0.0263158
hävdar alike 0.1666667
samlarfordon vintage 0.0833333
fullständiga say 0.0057143
fullständiga to 0.0001723
fullständiga complete 0.1250000
fullständiga renounces 0.2500000
fullständiga exhaustive 0.1428571
tillkännagivandena messages 0.1428571
tillkännagivandena sent 0.0909091
tillkännagivandena out 0.0048780
jordbruksområden agricultural 0.0454545
jordbruksområden solely 0.2000000
jordbruksområden regions 0.0078740
nationella prosecutors 0.3333333
nationella national 0.6742424
nationella alleanza 0.3333333
nationella salvation 0.1111111
nationella whom 0.0833333
nationella distorting 0.2500000
nationella statutes 0.3333333
nationella nationally 1.0000000
nationella desk 0.2000000
konkurrensfrågor of 0.0001833
konkurrensfrågor matters 0.0263158
konkurrensfrågor competition 0.0061350
konkurrensfrågor law 0.0125000
logik of 0.0003666
logik &apos; 0.0015106
logik terms 0.0169492
logik logic 0.5000000
logik rationale 0.1111111
logik seemed 0.1666667
logik and 0.0002669
utsträckningen extent 0.0344828
utsträckningen if 0.0031250
gränsvärdena exhaust 0.3333333
strandremsa mudflats 0.2857143
strandremsa was 0.0028818
strandremsa at 0.0015601
strandremsa stegrennan 0.2000000
rapkays rapkay 0.0909091
rapkays s 0.0020877
rapkays &apos; 0.0015106
rapkays mr 0.0014881
glömskan forgetfulness 1.0000000
glömskan the 0.0000869
kusterna along 0.0476190
kusterna coastline 0.2500000
kusterna scale 0.0833333
kusterna and 0.0002669
kusterna coast 0.0909091
kusterna almost 0.0588235
kusterna certainly 0.0144928
kusterna could 0.0064103
skrov double-hulled 0.1000000
skrov vessels 0.1176471
poetterings s 0.0020877
poetterings out 0.0048780
poetterings poettering 0.1666667
poetterings mr 0.0014881
bidraget contribution 0.0256410
bidraget most 0.0062500
leader-programmens reasons 0.0357143
leader-programmens aroused 0.1250000
leader-programmens basic 0.0263158
vattenlagstiftningen legislation 0.0102041
vattenlagstiftningen s 0.0020877
vattenlagstiftningen fragmentation 0.3333333
vattenlagstiftningen &apos; 0.0015106
vattenlagstiftningen water 0.0093458
fullständig will 0.0020367
fullständig perfectly 0.1904762
fullständig stagnation 0.3333333
fullständig is 0.0003257
fullständig complete 0.1666667
fullständig and 0.0002669
fullständig disclosure 0.2500000
fullständig at 0.0031201
fullständig full 0.0465116
fullständig absolute 0.0666667
välfärdsvinster terms 0.0084746
välfärdsvinster benefits 0.1000000
välfärdsvinster welfare 0.1250000
helsike province 0.2500000
helsike hell 0.5000000
helsike some 0.0045455
helsike broke 0.2000000
helsike all 0.0019194
helsike fact 0.0059172
helsike loose 0.2500000
thyssen mrs 0.0206897
thyssen thyssen 0.3333333
thyssen raised 0.0140845
thyssen issue 0.0054645
folk gain 0.0714286
folk promised 0.0588235
folk nation 0.1250000
folk nations 0.0370370
folk redundancies 0.2000000
folk people 0.0850000
folk impatient 0.2000000
folk peoples 0.3000000
inleddes was 0.0028818
inleddes action 0.0085470
inleddes on 0.0006502
inleddes nato 0.3333333
inleddes began 0.1538462
inleddes launched 0.0769231
21.55 9.55 1.0000000
21.55 p.m. 0.0357143
avförs taken 0.0097087
avförs off 0.0200000
avförs be 0.0005429
avförs item 0.0172414
när convening 0.1111111
när inspections 0.0555556
när noticed 0.1428571
när three-month 0.1111111
när excellence 0.2500000
när if 0.0312500
när jurisdictions 0.1666667
när saying 0.0256410
när lose 0.1428571
när space 0.2500000
när presents 0.1111111
när zero 0.0588235
när preussag 0.3333333
när regard 0.0625000
när disappointed 0.0909091
när exposing 1.0000000
när discretion 0.2500000
när incident 0.1111111
när ironic 0.3333333
när cleanliness 0.2500000
när europeans 0.1000000
när wary 0.1428571
när upon 0.0188679
när symbolic 0.1250000
när audits 0.2500000
när quota 0.0833333
när formulating 0.5000000
när define 0.0769231
när undertake 0.0769231
när correct 0.1034483
när players 0.2500000
när disagreed 0.1666667
när considering 0.0909091
när amoco 0.1428571
när mind 0.0227273
när roots 0.1666667
när anxiety 0.2500000
när halfway 0.1666667
när passed 0.0500000
när alleviate 0.2500000
när regarding 0.0281690
när tools 0.1250000
när amounts 0.0588235
när vigilant 0.1818182
när expresses 0.2000000
när drafting 0.0714286
när , 0.0002800
när finally 0.0121951
när spot 0.1250000
när byrne 0.0714286
när since 0.0123457
när similar 0.0476190
när behaviour 0.0625000
när leaders 0.0833333
när den 0.5000000
när qualifying 0.3333333
när administration-wise 0.3333333
när assessing 0.1250000
när implementation 0.0158730
när blamed 0.1428571
när justified 0.0769231
när timber 0.0625000
när constitution 0.1250000
när neighbourly 0.1428571
när receive 0.0588235
när once 0.0555556
när introduce 0.0357143
när matches 0.1428571
när incorporating 0.1428571
när gets 0.2000000
när whereas 0.2000000
när one-sided 0.1428571
när evaluation 0.1538462
när cleared 0.2500000
när waffling 0.2000000
när add 0.0270270
när nazi 0.2000000
när remarkable 0.0909091
när joined 0.1428571
när conservatives 0.2500000
när vis-à-vis 0.1428571
när element 0.0370370
när after 0.0853659
när generation 0.2500000
när nearly 0.1000000
när retirement 0.2000000
när from 0.0023202
när looking 0.0277778
när at 0.0093604
när issuing 0.1250000
när management 0.0294118
när as 0.0108597
när milestone 0.1000000
när on 0.0026008
när solbes 0.1250000
när driving 0.1111111
när starts 0.2500000
när ultimately 0.1250000
när embarking 0.3333333
när transposition 0.1111111
när evidence 0.0769231
när whenever 0.1250000
när terms 0.0593220
när where 0.0354610
när acting 0.0666667
när acceptable 0.0526316
när happened 0.1000000
när in 0.0128065
när transposing 0.1428571
när concerned 0.0243902
när judging 0.3333333
när fewer 0.1111111
när tight 0.0714286
när selection 0.0666667
när relation 0.0697674
när producing 0.1428571
när impressed 0.5000000
när released 0.2000000
när closures 0.1428571
när installations 0.2000000
när wallström 0.1666667
när pertaining 0.0909091
när expired 0.0833333
när feedingstuffs 0.0285714
när openness 0.0714286
när relating 0.0500000
när central 0.0909091
när maritime 0.0370370
när transparency 0.0156250
när vague 0.1666667
när regards 0.0909091
när when 0.5763547
säkraste technically 0.2000000
säkraste safest 0.6666667
säkraste surest 0.3333333
socialistgruppen group 0.0214286
socialistgruppen the 0.0002607
socialistgruppen socialist 0.1764706
simma time 0.0042918
simma no 0.0024938
markanta pronounced 0.0909091
schroedters &apos; 0.0030211
schroedters s 0.0041754
schroedters mrs 0.0137931
schroedters report 0.0033223
schroedters schroedter 0.2142857
schroedters marks 0.1428571
klimatiska climatic 0.3333333
arbetslösas unemployed 0.2000000
fyllt nonetheless 0.0357143
fyllt partly 0.0769231
fyllt achieved 0.0270270
förbrukaren polluters 0.2500000
förbrukaren consumers 0.0400000
odelbara indivisible 0.5000000
eu-stater president 0.0012887
eu-stater madam 0.0090909
viktigt vital 0.0740741
viktigt needs 0.0136986
viktigt imperative 0.0833333
viktigt important 0.4072581
viktigt crucial 0.1000000
viktigt successes 0.1428571
viktigt contrary 0.0400000
viktigt compensating 0.1250000
viktigt disadvantaged 0.0909091
viktigt necessary 0.0192308
viktigt geared 0.0909091
viktigt stressed 0.0833333
viktigt ruiz 0.5000000
viktigt essential 0.0945946
viktigt coordination 0.0270270
viktigt importantly 0.1428571
viktigt importance 0.0454545
viktigt farming 0.1000000
viktigt boards 0.5000000
viktigt complex 0.0588235
viktigt carry 0.0277778
viktigt room 0.0714286
viktigt extremely 0.0161290
viktigt goal 0.1000000
viktigt a 0.0003757
omstruktureringar read 0.0476190
omstruktureringar restructure 0.3333333
omstruktureringar restructuring 0.1000000
stödmottagaren forms 0.0909091
stödmottagaren effort 0.0434783
stödmottagaren an 0.0016000
stödmottagaren beneficiary 0.1111111
stödmottagaren are 0.0007663
stödmottagaren from 0.0023202
behandla deal 0.0243902
behandla afternoon 0.0833333
behandla any 0.0043860
behandla linked 0.0476190
behandla with 0.0010515
behandla study 0.0500000
behandla process 0.0088496
beskrivande descriptive 0.2000000
olyckligt unfortunate 0.1666667
inköp purchase 0.2000000
grepp components 0.0454545
grepp hold 0.0476190
grepp excessive 0.0526316
grepp an 0.0016000
grepp over 0.0098039
grepp second-hand 0.2500000
växande growing 0.3333333
byggets construction 0.0322581
försona reconcile 0.2857143
värsta worst 0.4000000
värsta epithet 0.3333333
spelen for 0.0005266
spelen your 0.0051020
spelen efforts 0.0222222
spelen medal 0.1666667
gav message 0.0625000
gav gave 0.2631579
gav clarification 0.0769231
gav itself 0.0166667
gav china 0.1666667
gav approved 0.0250000
gav yield 0.2500000
gav successive 0.0833333
åtta eight 0.6666667
faktum criticising 1.0000000
faktum remoteness 0.1428571
faktum fact 0.2248521
faktum promotes 0.2000000
faktum in 0.0002725
faktum the 0.0000869
faktum fails 0.1250000
faktum liable 0.0625000
faktum precursor 0.3333333
faktum squabbles 0.3333333
faktum penny 0.2000000
medicinsk on 0.0006502
institution copyright 0.1666667
institution dishonour 0.1428571
institution institution 0.6000000
livsmedelskonsumtion consumption 0.3333333
livsmedelskonsumtion for 0.0005266
livsmedelskonsumtion protection 0.0149254
livsmedelskonsumtion health 0.0204082
livsmedelskonsumtion place 0.0108696
livsmedelskonsumtion food 0.0088496
motsvara these 0.0022676
motsvara effort 0.0434783
motsvara make 0.0046083
motsvara every 0.0169492
motsvara respond 0.0769231
lett been 0.0043764
lett depopulation 0.1428571
lett led 0.1290323
lett contributed 0.1000000
lett acted 0.1250000
lett rationalisation 0.1250000
öppenhetens sake 0.0714286
öppenhetens accept 0.0200000
öppenhetens agree 0.0108696
öppenhetens transparency 0.0156250
toxiska present 0.0103093
toxiska chromium 0.1250000
toxiska high 0.0200000
skandaler like 0.0022989
skandaler states 0.0037594
skandaler scandals 0.0909091
skandaler failure 0.0588235
framförhandlad be 0.0005429
framförhandlad negotiated 0.1111111
miljöproblem major 0.0163934
miljöproblem problems 0.0212766
miljöproblem environmental 0.0196078
miljöproblem causing 0.1250000
beloppen amounts 0.1176471
beloppen specifying 0.5000000
beloppen think 0.0050251
beloppen aside 0.1111111
beloppen amount 0.0344828
regionalpolitiska approach 0.0212766
regionalpolitiska her 0.0232558
regionalpolitiska policy 0.0070922
regionalpolitiska regional 0.0208333
föra adopt 0.0303030
föra to 0.0003446
föra be 0.0005429
föra have 0.0016077
föra cover 0.0384615
föra record 0.1111111
föra b 0.1428571
föra having 0.0235294
föra touches 0.1250000
föra reinstated 0.1666667
föra decide 0.0384615
föra conduct 0.1818182
föra part 0.0092593
föra fragmented 0.3333333
föra ingredients 0.1250000
föra communicate 0.2500000
föra interinstitutional 0.0833333
föra maximised 0.1666667
föra emulation 0.2500000
föra orchestrate 1.0000000
föra this 0.0008569
föra holding 0.0714286
föra largest 0.0833333
föra should 0.0018315
bekymrad non-governmental 0.0714286
bekymrad concerned 0.0243902
bekymrad internally 0.1666667
talman souladakis 0.1000000
talman parliament 0.0022124
talman . 0.0002622
talman dilution 0.1250000
talman or 0.0028490
talman dimitrakopoulos 0.1111111
talman treaty 0.0126582
talman leave 0.0526316
talman specialising 0.1666667
talman establishing 0.0344828
talman contacts 0.0769231
talman amsterdam 0.0357143
talman you 0.0015949
talman conclude 0.0625000
talman not 0.0008333
talman imminent 0.1000000
talman foster 0.1111111
talman president 0.5103093
talman something 0.0117647
talman openly 0.0909091
talman this 0.0004284
talman can 0.0024752
talman moment 0.0227273
talman take 0.0043103
talman detail 0.0476190
talman sjöstedt 0.1428571
talman go 0.0136986
reformarbete reform 0.0101010
reformarbete work 0.0057803
anmärkningsvärt union 0.0027027
anmärkningsvärt monetary 0.0500000
anmärkningsvärt taken 0.0097087
anmärkningsvärt by 0.0011274
anmärkningsvärt remarkable 0.1818182
omprövar they 0.0028249
omprövar reconsider 0.1428571
gränskonflikter border 0.0384615
gränskonflikter importing 0.5000000
gränskonflikter conflicts 0.1428571
visuella visual 1.0000000
miljöpolicyavtal policy 0.0035461
miljöpolicyavtal voluntary 0.1000000
miljöpolicyavtal environmental 0.0098039
slippa out 0.0048780
slippa inspections 0.0555556
slippa carrying 0.0476190
slippa relieved 0.0909091
slippa either 0.0322581
slippa task 0.0303030
medgivits council 0.0047170
konstaterat stated 0.0454545
konstaterat said 0.0086207
konstaterat biannual 0.3333333
konstaterat here 0.0068493
konstaterat concluded 0.1111111
näringskedja food 0.0088496
näringskedja feedingstuffs 0.0285714
näringskedja chain 0.0833333
tals did 0.0212766
tals either 0.0322581
tals not 0.0008333
tals me 0.0063291
tals call 0.0312500
förgäves vain 0.2500000
förgäves in 0.0002725
anslagsfördelningen over 0.0098039
anslagsfördelningen funding 0.0192308
uttalar delegates 0.1111111
uttalar put 0.0081301
uttalar declares 0.2000000
uttalar internal 0.0149254
uttalar . 0.0001311
uttalar shocked 0.3333333
uttalar am 0.0042017
uttalar market 0.0077519
uttalar forward 0.0140845
uttalar favour 0.0089286
uttalar rise 0.0555556
dags openly 0.0909091
dags there 0.0013793
dags raised 0.0140845
dags has 0.0025641
dags deciding 0.2000000
dags time 0.0557940
dags comes 0.0227273
dags for 0.0010532
dags action 0.0170940
dags when 0.0049261
dags hands 0.0555556
dags come 0.0208333
oerhört costly 0.1666667
oerhört extremely 0.0806452
oerhört an 0.0016000
oerhört huge 0.0416667
oerhört vitally 0.2857143
oerhört incorporated 0.0833333
99 99 1.0000000
lagstiftar legislation 0.0102041
lagstiftar permit 0.0909091
lagstiftar legislate 0.2500000
utvidgar with 0.0010515
utvidgar tandem 0.3333333
utvidgar extension 0.0666667
utvidgar more 0.0030769
utvidgar into 0.0038911
utvidgar put 0.0081301
utvidgar practice 0.0434783
inbjudan what 0.0025840
inbjudan took 0.0909091
inbjudan themselves 0.0285714
inbjudan be 0.0005429
inbjudan correctly 0.0526316
inbjudan advantage 0.0909091
inbjudan . 0.0001311
inbjudan this 0.0004284
inbjudan should 0.0018315
inbjudan determine 0.0833333
inbjudan invitation 0.3333333
tydliggöra an 0.0016000
tydliggöra make 0.0046083
tydliggöra alternative 0.0909091
tydliggöra view 0.0103093
tydliggöra clear 0.0074074
tydliggöra it 0.0005984
ståndpunkt common 0.0178571
ståndpunkt position 0.2882883
ståndpunkt on 0.0013004
ståndpunkt harder 0.2500000
ståndpunkt &apos; 0.0166163
ståndpunkt opinion 0.0263158
ståndpunkt s 0.0229645
ståndpunkt matter 0.0098039
ståndpunkt views 0.0294118
ståndpunkt alter 0.0909091
ståndpunkt stand 0.0555556
vilar awaits 0.0666667
vilar is 0.0003257
jordbrukarnas on 0.0006502
jordbrukarnas living 0.0526316
enighet your 0.0051020
enighet demonstrated 0.0416667
enighet fact 0.0059172
enighet agreement 0.0338983
enighet with 0.0010515
enighet consensus 0.1764706
enighet reaching 0.1111111
bnp after 0.0121951
bnp gnp 0.3333333
bnp at 0.0015601
bnp all 0.0019194
bnp gdp 0.3000000
överstaten superstate 0.3333333
överstaten standardising 0.5000000
överstaten break 0.1000000
överstaten up 0.0049261
konventioner , 0.0002800
konventioner such 0.0055866
konventioner conventions 0.5000000
visionen into 0.0038911
visionen translate 0.3333333
visionen vision 0.2222222
suveräna sovereignties 0.2500000
irländska irish 0.4500000
irländska on 0.0006502
vidtagna similar 0.0476190
vidtagna taken 0.0097087
förbättrar boosts 0.5000000
förbättrar migratory 0.5000000
förbättrar present 0.0103093
förkromade ! 0.0131579
förkromade grand 0.1666667
utbildningspolitiken educational 0.3333333
utbildningspolitiken policy 0.0035461
långsiktig long-term 0.0500000
planerats namely 0.0400000
planerats mentioned 0.0147059
planerats on 0.0006502
planerats hydro-electric 0.3333333
planerats but 0.0019342
planerats refer 0.0384615
planerats want 0.0054945
planerats agenda 0.0108696
konkurrensstörningar competition-related 0.3333333
konkurrensstörningar disturbances 0.2000000
häftiga with 0.0010515
häftiga particularly 0.0111111
häftiga severe 0.1666667
häftiga so 0.0033445
häftiga regard 0.0104167
häftiga legitimately 0.5000000
häftiga outrage 0.2500000
votering motion 0.0400000
votering parliament 0.0022124
votering are 0.0007663
votering going 0.0092593
votering for 0.0005266
starka serious 0.0192308
starka types 0.0666667
starka full 0.0232558
starka strong 0.2380952
starka strengths 0.2000000
