people befolkningarna 0.2000000
participants befolkningarna 0.2000000
there befolkningarna 0.2000000
must befolkningarna 0.4000000
activity verksamhetsavbrottet 0.1111111
fifg verksamhetsavbrottet 0.1111111
cessation verksamhetsavbrottet 0.1111111
made verksamhetsavbrottet 0.1111111
there verksamhetsavbrottet 0.1111111
that verksamhetsavbrottet 0.2222222
can verksamhetsavbrottet 0.1111111
is verksamhetsavbrottet 0.1111111
exchange utbyte 0.3571429
return utbyte 0.0714286
backing utbyte 0.0714286
including utbyte 0.0714286
conquered utbyte 0.0714286
exchanges utbyte 0.2142857
consider utbyte 0.0714286
axis utbyte 0.0714286
in andel 0.2000000
way andel 0.2000000
tarred andel 0.2000000
consumption andel 0.2000000
rising andel 0.2000000
leinster leinster 0.5000000
of leinster 0.5000000
construction ilisu- 0.5000000
ilisu ilisu- 0.5000000
determination minskas 0.5000000
single-minded minskas 0.5000000
accepts instämmer 0.0555556
shall instämmer 0.0555556
, instämmer 0.2222222
are instämmer 0.0555556
meantime instämmer 0.0555556
fully instämmer 0.0555556
endorse instämmer 0.0555556
agrees instämmer 0.0555556
do instämmer 0.0555556
agree instämmer 0.2222222
with instämmer 0.1111111
expediency ändamålsenligheten 0.2000000
examine ändamålsenligheten 0.2000000
action ändamålsenligheten 0.2000000
a ändamålsenligheten 0.2000000
particular ändamålsenligheten 0.2000000
which samhälleliga 0.2500000
tarred samhälleliga 0.2500000
social samhälleliga 0.5000000
crisis bse-krisen 0.5000000
bse bse-krisen 0.5000000
though måhända 0.3333333
perhaps måhända 0.6666667
unwavering obevekliga 0.3333333
us obevekliga 0.3333333
on obevekliga 0.3333333
god bibeln 0.3333333
&apos; bibeln 0.3333333
bible bibeln 0.3333333
now now-projektet 1.0000000
wales förlitar 0.0909091
relies förlitar 0.0909091
confident förlitar 0.0909091
rely förlitar 0.0909091
trust förlitar 0.0909091
also förlitar 0.0909091
looking förlitar 0.1818182
are förlitar 0.1818182
am förlitar 0.0909091
end israeliska 0.1250000
israeli israeliska 0.8750000
been målats 0.5000000
painted målats 0.5000000
good-tempered humör 0.5000000
round humör 0.5000000
hand återlämna 0.5000000
back återlämna 0.5000000
intended avsett 0.2500000
c avsett 0.2500000
dedicated avsett 0.2500000
pretend avsett 0.2500000
ngo organisationernas 1.0000000
silence omges 0.5000000
deafening omges 0.5000000
country grannland 0.5000000
neighbouring grannland 0.5000000
morning attentat 0.2500000
attack attentat 0.2500000
terrorist attentat 0.2500000
this attentat 0.2500000
force antibedrägerilagstiftning 0.2500000
in antibedrägerilagstiftning 0.2500000
anti-fraud antibedrägerilagstiftning 0.2500000
legislation antibedrägerilagstiftning 0.2500000
impenetrable ansvariga 0.0500000
for ansvariga 0.0500000
services ansvariga 0.0500000
responsible ansvariga 0.4000000
competent ansvariga 0.1500000
accountable ansvariga 0.0500000
this ansvariga 0.0500000
perpetrators ansvariga 0.0500000
liable ansvariga 0.1000000
people ansvariga 0.0500000
adapt hittills 0.0158730
publication hittills 0.0158730
date hittills 0.1269841
have hittills 0.0158730
far hittills 0.1746032
decided hittills 0.0158730
so hittills 0.1587302
lothar hittills 0.0158730
until hittills 0.0476190
been hittills 0.0476190
exactly hittills 0.0158730
to hittills 0.1269841
past hittills 0.0158730
now hittills 0.0158730
watered hittills 0.0158730
has hittills 0.0634921
speaker hittills 0.0158730
achieved hittills 0.0158730
warrants hittills 0.0158730
bogged hittills 0.0158730
comprehension hittills 0.0158730
traced hittills 0.0158730
efterløn hittills 0.0158730
hugely bidrag 0.0270270
our bidrag 0.0270270
towards bidrag 0.0270270
beneficiary bidrag 0.0270270
watered bidrag 0.0270270
subsidies bidrag 0.0810811
contribution bidrag 0.4054054
contributions bidrag 0.1621622
slovene-speaking bidrag 0.0270270
from bidrag 0.0270270
c bidrag 0.0270270
contribute bidrag 0.0540541
funding bidrag 0.0810811
territory förhandlingsprocess 0.2500000
as förhandlingsprocess 0.2500000
over förhandlingsprocess 0.2500000
detail förhandlingsprocess 0.2500000
sets femton 0.1000000
tougher femton 0.1000000
eu femton 0.1000000
just femton 0.1000000
fifteen femton 0.6000000
is binder 0.1428571
that binder 0.1428571
polycentric binder 0.1428571
because binder 0.1428571
unites binder 0.1428571
bind binder 0.1428571
it binder 0.1428571
restoration återställandet 0.2000000
did återställandet 0.2000000
not återställandet 0.2000000
mention återställandet 0.2000000
reforestation återställandet 0.2000000
, tragiskt 0.2857143
tragedy tragiskt 0.1428571
a tragiskt 0.1428571
tragically tragiskt 0.1428571
during tragiskt 0.1428571
monument tragiskt 0.1428571
started gripit 0.5000000
has gripit 0.5000000
usable exploaterbara 1.0000000
not läkarkontroller 0.1250000
checks läkarkontroller 0.1250000
check-ups läkarkontroller 0.1250000
do läkarkontroller 0.2500000
medical läkarkontroller 0.2500000
comes läkarkontroller 0.1250000
subsequently slutit 0.5000000
concluded slutit 0.5000000
are litar 0.3333333
trust litar 0.1111111
that litar 0.1111111
so litar 0.1111111
counting litar 0.3333333
may fruktansvärt 0.5000000
terrible fruktansvärt 0.5000000
safety livsmedelssäkerhetsenheter 0.2500000
scientific livsmedelssäkerhetsenheter 0.1250000
food livsmedelssäkerhetsenheter 0.2500000
agencies livsmedelssäkerhetsenheter 0.3750000
to lättförståeligt 0.2500000
wording lättförståeligt 0.2500000
grasp lättförståeligt 0.2500000
easier lättförståeligt 0.2500000
consensus åsikt 0.0344828
spots åsikt 0.0344828
merit åsikt 0.0344828
immoral åsikt 0.0344828
accord åsikt 0.0344828
it åsikt 0.0344828
bombings åsikt 0.0344828
limiting åsikt 0.0344828
view åsikt 0.2068966
as åsikt 0.0344828
opinion åsikt 0.4482759
bureaucratic åsikt 0.0344828
approach specialbestämmelser 0.1250000
special specialbestämmelser 0.2500000
which specialbestämmelser 0.1250000
allow specialbestämmelser 0.1250000
introduce specialbestämmelser 0.1250000
arrangements specialbestämmelser 0.1250000
provisions specialbestämmelser 0.1250000
social sociala 0.9882353
corporate sociala 0.0117647
funding avsatts 0.2500000
allocated avsatts 0.2500000
level avsatts 0.2500000
2.8 avsatts 0.2500000
awards behålls 1.0000000
handed irriterad 0.1428571
fact irriterad 0.1428571
am irriterad 0.1428571
any irriterad 0.1428571
indignant irriterad 0.1428571
about irriterad 0.1428571
over irriterad 0.1428571
stop stopp 0.1538462
stifle stopp 0.0769231
put stopp 0.2307692
end stopp 0.3076923
an stopp 0.2307692
down samtalen 0.2500000
talks samtalen 0.2500000
when samtalen 0.2500000
attempted samtalen 0.2500000
essex essex 1.0000000
one hundra 0.2000000
hundred hundra 0.4000000
hundreds hundra 0.2000000
a hundra 0.2000000
old-style gammalmodig 1.0000000
what förutsäga 0.5000000
predict förutsäga 0.5000000
once på 0.0005252
hollywood på 0.0005252
goods på 0.0005252
preparing på 0.0005252
drastically på 0.0005252
changing på 0.0010504
stubbornness på 0.0005252
practicality på 0.0005252
applied på 0.0010504
volume på 0.0005252
remedy på 0.0010504
deadly på 0.0005252
about på 0.0042017
concerning på 0.0015756
equipped på 0.0005252
phenomenon på 0.0005252
collect på 0.0010504
penetration på 0.0005252
consider på 0.0005252
swing på 0.0005252
undermined på 0.0005252
investment på 0.0005252
being på 0.0047269
long på 0.0005252
field på 0.0010504
considers på 0.0005252
within på 0.0052521
apex på 0.0005252
intervene på 0.0005252
knell på 0.0005252
continuation på 0.0021008
reconciling på 0.0005252
potent på 0.0005252
entering på 0.0005252
occupying på 0.0005252
attentively på 0.0005252
test på 0.0005252
gauge på 0.0005252
rojo på 0.0005252
environmentally på 0.0005252
thereby på 0.0005252
insisted på 0.0005252
reinstated på 0.0010504
into på 0.0110294
centuries på 0.0005252
correctly på 0.0010504
exchanging på 0.0005252
reacting på 0.0005252
rural på 0.0005252
view på 0.0052521
complied på 0.0005252
specialists på 0.0005252
unanimous på 0.0010504
answered på 0.0010504
well på 0.0010504
vehicle på 0.0005252
meantime på 0.0010504
keeper på 0.0005252
mismanaged på 0.0005252
intervention på 0.0005252
for på 0.0330882
oil på 0.0005252
hypocrisy på 0.0005252
tentative på 0.0005252
consultancy på 0.0005252
sure på 0.0084034
due på 0.0036765
advanced på 0.0005252
seriously på 0.0026261
thorough på 0.0005252
substance på 0.0010504
resultant på 0.0005252
stabilise på 0.0005252
how på 0.0015756
railways på 0.0005252
enlarges på 0.0005252
infrastructures på 0.0005252
extremism på 0.0010504
fresh på 0.0015756
constructively på 0.0010504
put på 0.0005252
just på 0.0047269
NULL på 0.0304622
reaction på 0.0010504
altar på 0.0005252
judged på 0.0010504
still på 0.0005252
thinking på 0.0010504
trouble på 0.0005252
undermines på 0.0005252
compendium på 0.0005252
buck på 0.0005252
pro-nazi på 0.0005252
viability på 0.0005252
successive på 0.0010504
nominal på 0.0005252
respectable på 0.0005252
answers på 0.0005252
finalising på 0.0005252
referring på 0.0015756
reverse på 0.0005252
trees på 0.0005252
carried på 0.0010504
to på 0.1134454
reasonably på 0.0005252
aspe på 0.0005252
suggest på 0.0005252
watered på 0.0005252
are på 0.0015756
strictly på 0.0005252
intending på 0.0005252
stand på 0.0010504
beliefs på 0.0005252
weight på 0.0010504
mean på 0.0015756
doubt på 0.0005252
significant på 0.0005252
calls på 0.0010504
along på 0.0010504
assassinations på 0.0005252
declares på 0.0005252
imposing på 0.0005252
getting på 0.0005252
gaza på 0.0005252
indication på 0.0010504
exposure på 0.0005252
features på 0.0005252
deprivation på 0.0005252
broadest på 0.0005252
sixties på 0.0005252
examples på 0.0031513
as på 0.0005252
on på 0.1454832
dispensing på 0.0005252
overreaching på 0.0005252
properly på 0.0005252
arrives på 0.0005252
shrugging på 0.0005252
mark på 0.0005252
appropriately på 0.0010504
illustration på 0.0010504
outcome på 0.0005252
attributable på 0.0010504
co2 på 0.0005252
needless på 0.0005252
engage på 0.0005252
auroi på 0.0005252
extent på 0.0005252
from på 0.0042017
at på 0.0519958
cow på 0.0005252
grow på 0.0010504
misery på 0.0005252
await på 0.0026261
double på 0.0010504
redistributed på 0.0005252
balkan på 0.0015756
attention på 0.0063025
of på 0.1213235
because på 0.0078782
palestine-israel på 0.0005252
people-focused på 0.0005252
enthusiastically på 0.0005252
listen på 0.0021008
awaiting på 0.0015756
reminiscing på 0.0005252
legislators på 0.0005252
taking på 0.0005252
indications på 0.0015756
ultra-liberal på 0.0005252
hoped på 0.0005252
internet på 0.0010504
reinstate på 0.0010504
investigations på 0.0005252
measured på 0.0005252
inspire på 0.0005252
europeanised på 0.0005252
the på 0.0231092
establish på 0.0005252
horizontally på 0.0005252
intrigued på 0.0005252
chipped på 0.0005252
solidly på 0.0015756
indicated på 0.0010504
wiebenga på 0.0005252
inputs på 0.0005252
vertically på 0.0005252
awaited på 0.0010504
reunion på 0.0005252
anticipation på 0.0005252
condone på 0.0005252
upon på 0.0036765
fixed på 0.0005252
insisting på 0.0005252
dealings på 0.0005252
fed på 0.0005252
concluded på 0.0005252
setting på 0.0005252
rehabilitation på 0.0010504
with på 0.0005252
monocultures på 0.0015756
equally på 0.0005252
suggestions på 0.0005252
confederation på 0.0005252
crown på 0.0005252
revise på 0.0005252
sorted på 0.0005252
trust på 0.0015756
and på 0.0005252
across på 0.0010504
ban på 0.0005252
reconsidering på 0.0005252
fate på 0.0005252
demonstrated på 0.0021008
recovering på 0.0010504
stems på 0.0005252
mainland på 0.0005252
proper på 0.0021008
based på 0.0010504
geographical på 0.0005252
answer på 0.0057773
community-level på 0.0010504
doubted på 0.0005252
medium på 0.0015756
expect på 0.0005252
manages på 0.0005252
added på 0.0005252
by på 0.0052521
signs på 0.0015756
pending på 0.0015756
restating på 0.0005252
ideology på 0.0005252
going på 0.0005252
disappointed på 0.0005252
exceeded på 0.0005252
west på 0.0005252
experimental på 0.0005252
experienced på 0.0005252
recurring på 0.0005252
overload på 0.0005252
abbreviated på 0.0005252
provided på 0.0005252
end på 0.0010504
supports på 0.0005252
collision på 0.0005252
response på 0.0042017
confident på 0.0005252
recently på 0.0015756
backing på 0.0005252
adopts på 0.0005252
beforehand på 0.0005252
diametrically på 0.0005252
spells på 0.0005252
given på 0.0021008
crystal på 0.0005252
ships på 0.0010504
cease på 0.0005252
provide på 0.0005252
filed på 0.0005252
subsidiary på 0.0005252
dumping på 0.0010504
perspective på 0.0010504
stake på 0.0026261
contributors på 0.0005252
successful på 0.0005252
retabled på 0.0005252
oarsmen på 0.0005252
nagorno-karabakh på 0.0010504
in på 0.1664916
lack på 0.0073529
reopen på 0.0005252
earthquakes på 0.0005252
attend på 0.0005252
item på 0.0078782
reviewing på 0.0005252
reminiscent på 0.0005252
transferred på 0.0010504
founded på 0.0005252
towards på 0.0005252
btf på 0.0005252
intergovernmentalisation på 0.0005252
dishing på 0.0005252
decisively på 0.0005252
complies på 0.0005252
allocated på 0.0010504
moves på 0.0005252
short på 0.0015756
indeed på 0.0005252
reinvent på 0.0005252
alter på 0.0010504
plates på 0.0005252
persist på 0.0015756
crust på 0.0005252
responding på 0.0005252
magnificently på 0.0005252
enlarge på 0.0005252
uniformly på 0.0005252
follows på 0.0005252
elsewhere på 0.0010504
recycled på 0.0005252
through på 0.0021008
painted på 0.0005252
assuming på 0.0005252
unilateral på 0.0005252
moderate på 0.0005252
help på 0.0005252
wait på 0.0015756
effectively på 0.0031513
98 på 0.0005252
terrón terrón 0.5000000
mrs terrón 0.5000000
catastrophic något 0.0056818
barrier något 0.0056818
mild något 0.0056818
constitute något 0.0056818
anything något 0.0170455
slightly något 0.0113636
store något 0.0056818
excessive något 0.0056818
embellish något 0.0056818
schulz något 0.0056818
equation något 0.0056818
solve något 0.0056818
far något 0.0056818
possess något 0.0056818
good något 0.0056818
notion något 0.0056818
nothing något 0.0284091
arbitrarily något 0.0056818
a något 0.1590909
naïve något 0.0056818
cost-intensive något 0.0056818
sceptical något 0.0056818
compounded något 0.0056818
tell något 0.0056818
accredited något 0.0056818
protectionism något 0.0056818
foil något 0.0056818
partnerships något 0.0056818
konrad något 0.0056818
and något 0.0056818
an något 0.0056818
disappearing något 0.0056818
add något 0.0056818
prevented något 0.0056818
somewhat något 0.0227273
hidden något 0.0056818
there något 0.0113636
contrary något 0.0056818
something något 0.1988636
hindering något 0.0056818
fundamentally något 0.0056818
disagreement något 0.0056818
succeeded något 0.0056818
types något 0.0056818
importantly något 0.0056818
few något 0.0056818
currency något 0.0056818
received något 0.0113636
any något 0.0852273
compulsory något 0.0056818
act något 0.0056818
cargo något 0.0056818
inglewood något 0.0056818
recurring något 0.0056818
competition-related något 0.0056818
qualities något 0.0056818
accomplished något 0.0056818
end något 0.0056818
mention något 0.0056818
no något 0.0454545
necessity något 0.0056818
lag något 0.0056818
about något 0.0056818
place något 0.0113636
optional något 0.0113636
action något 0.0170455
whatever något 0.0056818
assimilated något 0.0056818
extraordinary något 0.0056818
law-drafting något 0.0056818
transferred något 0.0056818
created något 0.0056818
particulars något 0.0056818
it något 0.0056818
less något 0.0056818
motorbikes något 0.0056818
holds något 0.0056818
connection något 0.0056818
to åberopa 0.4000000
claim åberopa 0.2000000
on åberopa 0.2000000
adhere åberopa 0.2000000
validly grunder 0.3333333
conditions grunder 0.3333333
are grunder 0.3333333
killers mördare 1.0000000
eliminate avskaffa 0.0500000
eliminating avskaffa 0.0500000
independent avskaffa 0.0500000
ex avskaffa 0.0500000
rid avskaffa 0.0500000
does avskaffa 0.0500000
combat avskaffa 0.0500000
control avskaffa 0.0500000
want avskaffa 0.1000000
financial avskaffa 0.0500000
to avskaffa 0.0500000
discontinue avskaffa 0.0500000
alone avskaffa 0.0500000
ending avskaffa 0.0500000
get avskaffa 0.0500000
abolish avskaffa 0.1000000
abolished avskaffa 0.0500000
at avskaffa 0.0500000
this fuf 1.0000000
with utarmade 0.1428571
uranium utarmade 0.4285714
depleted utarmade 0.4285714
food näringskedjan 0.5000000
chain näringskedjan 0.5000000
of elementet 0.3333333
mainstay elementet 0.3333333
element elementet 0.3333333
42 42 1.0000000
be betalningsskyldiges 0.5000000
supposed betalningsskyldiges 0.5000000
a blekaste 0.2500000
slightest blekaste 0.2500000
position blekaste 0.2500000
right blekaste 0.2500000
transparent öppet 0.2857143
exercised öppet 0.0714286
openly öppet 0.1428571
which öppet 0.1428571
effective öppet 0.0714286
is öppet 0.0714286
open öppet 0.0714286
pro-nazi öppet 0.0714286
openness öppet 0.0714286
expiry löper 0.0625000
treaty löper 0.0625000
cause löper 0.0625000
of löper 0.2500000
expires löper 0.0625000
able löper 0.0625000
obscuring löper 0.0625000
they löper 0.0625000
will löper 0.1250000
run löper 0.1875000
power handlingskraft 0.2500000
of handlingskraft 0.2500000
enterprises handlingskraft 0.2500000
act handlingskraft 0.2500000
re-use återanvändning 0.4444444
and återanvändning 0.1111111
recovery återanvändning 0.1111111
recycling återanvändning 0.3333333
a jämställdhetsperspektivet 0.2000000
perspective jämställdhetsperspektivet 0.2000000
respect jämställdhetsperspektivet 0.2000000
with jämställdhetsperspektivet 0.2000000
equality jämställdhetsperspektivet 0.2000000
results samhällelig 0.2000000
stability samhällelig 0.2000000
poor samhällelig 0.2000000
excellent samhällelig 0.2000000
gives samhällelig 0.2000000
beyond saluföringsfrågorna 0.1250000
basis saluföringsfrågorna 0.1250000
questions saluföringsfrågorna 0.1250000
going saluföringsfrågorna 0.1250000
commercial saluföringsfrågorna 0.1250000
working saluföringsfrågorna 0.1250000
mere saluföringsfrågorna 0.1250000
for saluföringsfrågorna 0.1250000
transposed införlivat 0.3333333
this införlivat 0.3333333
into införlivat 0.3333333
normal avståndstagande 0.2500000
disagreement avståndstagande 0.2500000
further avståndstagande 0.2500000
rejection avståndstagande 0.2500000
hitherto jämfört 0.0555556
contrast jämfört 0.0555556
in jämfört 0.1111111
as jämfört 0.0555556
comparison jämfört 0.1666667
on jämfört 0.1666667
one jämfört 0.0555556
allocated jämfört 0.0555556
subject jämfört 0.0555556
by jämfört 0.0555556
improvement jämfört 0.0555556
opposed jämfört 0.0555556
frequency jämfört 0.0555556
sense förnuftigt 0.1818182
searching förnuftigt 0.0909091
then förnuftigt 0.1818182
laudable förnuftigt 0.0909091
reasonable förnuftigt 0.0909091
clear förnuftigt 0.0909091
so förnuftigt 0.0909091
ecologically förnuftigt 0.0909091
rationally förnuftigt 0.0909091
done jaså 0.1111111
act jaså 0.1111111
when jaså 0.2222222
have jaså 0.1111111
because jaså 0.1111111
should jaså 0.1111111
did jaså 0.1111111
it jaså 0.1111111
payments skadeersättning 0.3333333
claims skadeersättning 0.3333333
covering skadeersättning 0.3333333
be hanteras 0.3333333
managed hanteras 0.1666667
dealt hanteras 0.1666667
regulates hanteras 0.0833333
with hanteras 0.1666667
to hanteras 0.0833333
they stabiliteten 0.2000000
stability stabiliteten 0.4000000
europe stabiliteten 0.2000000
within stabiliteten 0.2000000
tailor utvecklingssamarbetet 0.1250000
particular utvecklingssamarbetet 0.1250000
own utvecklingssamarbetet 0.1250000
development utvecklingssamarbetet 0.2500000
with utvecklingssamarbetet 0.1250000
cooperating utvecklingssamarbetet 0.1250000
cooperation utvecklingssamarbetet 0.1250000
tightening åtstramning 0.5000000
up åtstramning 0.5000000
amongst harmoniserar 0.2000000
flying harmoniserar 0.2000000
these harmoniserar 0.2000000
tougher harmoniserar 0.2000000
vessels harmoniserar 0.2000000
state medlemsland 0.3333333
my medlemsland 0.0555556
being medlemsland 0.0555556
states medlemsland 0.0555556
member medlemsland 0.3888889
mep medlemsland 0.0555556
major medlemsland 0.0555556
against negativ 0.2000000
set negativ 0.2000000
negative negativ 0.6000000
we låter 0.1111111
bought låter 0.1111111
does låter 0.1111111
receive låter 0.1111111
allow låter 0.1111111
do låter 0.1111111
put låter 0.1111111
speak låter 0.1111111
compound låter 0.1111111
jurisdiction fullmakt 0.2500000
significant fullmakt 0.2500000
gave fullmakt 0.2500000
texts fullmakt 0.2500000
fully eftertryckligen 0.5000000
emphatically eftertryckligen 0.5000000
grounds skälen 0.2000000
delay skälen 0.2000000
why skälen 0.2000000
reasons skälen 0.2000000
is skälen 0.2000000
water dricksvattnet 0.2500000
our dricksvattnet 0.2500000
drinking dricksvattnet 0.2500000
for dricksvattnet 0.2500000
draft direktivförslag 0.3333333
directive direktivförslag 0.3333333
kind direktivförslag 0.3333333
it slukas 0.3333333
you slukas 0.3333333
devour slukas 0.3333333
indisputable obestridlig 1.0000000
detrimental menligt 1.0000000
believe minimum 0.1250000
absolute minimum 0.1250000
requirement minimum 0.1250000
, minimum 0.2500000
minimum minimum 0.2500000
i minimum 0.1250000
campaign offentlighetskampanj 0.5000000
publicity offentlighetskampanj 0.5000000
speech talet 0.3333333
statements talet 0.3333333
unabridged talet 0.3333333
following förlikningsetappen 0.3333333
conciliation förlikningsetappen 0.3333333
stage förlikningsetappen 0.3333333
a5-0006 a5-0006 1.0000000
i övervakningen 0.1666667
would övervakningen 0.1666667
monitoring övervakningen 0.1666667
relating övervakningen 0.1666667
wholeheartedly övervakningen 0.1666667
something övervakningen 0.1666667
sawmills sågverk 0.2000000
; sågverk 0.2000000
aid sågverk 0.2000000
especially sågverk 0.2000000
shipyards sågverk 0.2000000
currency alibiresolution 0.2222222
future alibiresolution 0.1111111
being alibiresolution 0.1111111
preventing alibiresolution 0.1111111
averted alibiresolution 0.1111111
overvalued alibiresolution 0.1111111
through alibiresolution 0.1111111
crises alibiresolution 0.1111111
collective kollektivavtal 0.3750000
agreements kollektivavtal 0.2500000
agreement kollektivavtal 0.1250000
: kollektivavtal 0.1250000
choice kollektivavtal 0.1250000
needs bemanningsbehovet 0.5000000
staffing bemanningsbehovet 0.5000000
funds fonderna 1.0000000
eur avsattes 0.5000000
was avsattes 0.5000000
countermeasures motåtgärder 0.3333333
worth motåtgärder 0.3333333
taken motåtgärder 0.3333333
upright rejält 0.1250000
they rejält 0.1250000
long rejält 0.1250000
eu rejält 0.1250000
behind rejält 0.1250000
are rejält 0.1250000
way rejält 0.1250000
substantially rejält 0.1250000
advice rådens 1.0000000
tsatsos tsatsos 0.4000000
mr tsatsos 0.4000000
from tsatsos 0.2000000
warlords ersätter 0.3333333
replacing ersätter 0.3333333
on ersätter 0.3333333
few preciseringar 0.2000000
heard preciseringar 0.2000000
a preciseringar 0.2000000
details preciseringar 0.2000000
explanations preciseringar 0.2000000
any hamn 0.2000000
within hamn 0.2000000
into hamn 0.2000000
finishing hamn 0.2000000
harbour hamn 0.2000000
most kontrasterar 0.5000000
contrasts kontrasterar 0.5000000
compound foderblandningar 0.3333333
feed foderblandningar 0.3333333
compounders foderblandningar 0.3333333
6 6 0.8888889
nos 6 0.1111111
increasing arbetsvillkoren 0.2000000
working arbetsvillkoren 0.4000000
conditions arbetsvillkoren 0.4000000
anticipate utvecklingsmöjligheter 0.1111111
it utvecklingsmöjligheter 0.1111111
development utvecklingsmöjligheter 0.1111111
possible utvecklingsmöjligheter 0.1111111
, utvecklingsmöjligheter 0.2222222
options utvecklingsmöjligheter 0.1111111
least utvecklingsmöjligheter 0.1111111
make utvecklingsmöjligheter 0.1111111
broke misslyckats 0.1250000
achieve misslyckats 0.1250000
have misslyckats 0.1250000
shall misslyckats 0.1250000
a misslyckats 0.1250000
failed misslyckats 0.3750000
mind ordvändning 0.1111111
why ordvändning 0.1111111
by ordvändning 0.1111111
what ordvändning 0.1111111
was ordvändning 0.1111111
said ordvändning 0.1111111
should ordvändning 0.1111111
we ordvändning 0.1111111
bear ordvändning 0.1111111
human människornas 0.2000000
an människornas 0.2000000
are människornas 0.4000000
linked människornas 0.2000000
employment sysselsättningsåtgärderna 0.1250000
far sysselsättningsåtgärderna 0.1250000
as sysselsättningsåtgärderna 0.1250000
papayannakis sysselsättningsåtgärderna 0.1250000
mr sysselsättningsåtgärderna 0.1250000
for sysselsättningsåtgärderna 0.1250000
plan sysselsättningsåtgärderna 0.1250000
action sysselsättningsåtgärderna 0.1250000
removed tas 0.0188679
accepted tas 0.0188679
tackle tas 0.0188679
preparatory tas 0.0188679
processed tas 0.0188679
move tas 0.0188679
will tas 0.0188679
be tas 0.3018868
systematic tas 0.0188679
is tas 0.0188679
included tas 0.0377358
taken tas 0.0377358
excess tas 0.0188679
by tas 0.0188679
satellite tas 0.0188679
disposed tas 0.0188679
b1-382 tas 0.0188679
reiterates tas 0.0188679
raised tas 0.0566038
developed tas 0.0188679
beneficiaries tas 0.0188679
can tas 0.0188679
mentioned tas 0.0188679
addressed tas 0.1132075
dealt tas 0.0188679
incorporated tas 0.0188679
separately tas 0.0188679
utilisation tas 0.0188679
brought tas 0.0188679
bottom-up lokala 0.0185185
local lokala 0.9814815
me erinra 0.1111111
achievements erinra 0.0555556
remind erinra 0.3333333
let erinra 0.1111111
reiterate erinra 0.0555556
approximation erinra 0.0555556
you erinra 0.2222222
remember erinra 0.0555556
dreadful förskräckliga 0.3333333
truly förskräckliga 0.3333333
were förskräckliga 0.3333333
usually vanligen 0.3333333
out vanligen 0.3333333
find vanligen 0.3333333
forms bildar 0.2500000
in bildar 0.2500000
coalition bildar 0.2500000
offers bildar 0.2500000
contemplate vara 0.0029155
warning vara 0.0029155
formulate vara 0.0029155
view vara 0.0029155
meet vara 0.0029155
honest vara 0.0029155
equilibrium vara 0.0029155
subject vara 0.0029155
iron vara 0.0029155
leave vara 0.0029155
bolkestein vara 0.0029155
undertake vara 0.0029155
fixture vara 0.0029155
fallen vara 0.0058309
zero-risk vara 0.0029155
facilitate vara 0.0029155
seem vara 0.0058309
ground-breaking vara 0.0029155
state-sanctioned vara 0.0029155
makeup vara 0.0029155
proving vara 0.0029155
happens vara 0.0029155
fruitfully vara 0.0029155
worse vara 0.0058309
remain vara 0.0087464
what vara 0.0029155
tighter vara 0.0029155
join vara 0.0029155
act vara 0.0029155
inexcusable vara 0.0029155
fear vara 0.0029155
else vara 0.0029155
goal vara 0.0029155
dread vara 0.0029155
abuse vara 0.0029155
consequent vara 0.0058309
provides vara 0.0029155
wording vara 0.0029155
foundations vara 0.0029155
incompatible vara 0.0029155
being vara 0.0116618
admit vara 0.0029155
vigilant vara 0.0029155
marseilles vara 0.0029155
considers vara 0.0029155
seems vara 0.0145773
chasing vara 0.0029155
price vara 0.0029155
rationale vara 0.0029155
make vara 0.0029155
be vara 0.6559767
hardly vara 0.0029155
tree vara 0.0029155
oppose vara 0.0029155
showing vara 0.0029155
schools vara 0.0029155
primarily vara 0.0029155
retain vara 0.0029155
desirable vara 0.0029155
prove vara 0.0029155
balanced vara 0.0029155
profound vara 0.0029155
impose vara 0.0029155
become vara 0.0058309
heaton-harris vara 0.0029155
noble vara 0.0029155
exhaustion vara 0.0029155
105 vara 0.0029155
constraints vara 0.0029155
inquiries vara 0.0029155
help vara 0.0029155
automatically vara 0.0058309
benchmark vara 0.0029155
landaburu vara 0.0029155
nationalistic vara 0.0029155
contaminated vara 0.0029155
feel vara 0.0029155
is vara 0.0029155
auspices vara 0.0029155
reply vara 0.0029155
harness vara 0.0029155
income vara 0.0029155
pricing vara 0.0029155
show vara 0.0029155
crux vara 0.0029155
bourlanges vara 0.0029155
rest vara 0.0029155
non-democracy vara 0.0058309
ourselves vara 0.0029155
term vara 0.0029155
2000-2006 vara 0.0029155
provide vara 0.0058309
unapplied vara 0.0029155
product vara 0.0029155
copyright vara 0.0029155
ingredients vara 0.0029155
progressed vara 0.0029155
agree vara 0.0029155
proved vara 0.0058309
beside vara 0.0029155
treasury vara 0.0029155
without konkurrenspolitik 0.0256410
competition konkurrenspolitik 0.4358974
is konkurrenspolitik 0.0256410
designed konkurrenspolitik 0.0256410
achieve konkurrenspolitik 0.0256410
saying konkurrenspolitik 0.0256410
policy konkurrenspolitik 0.4358974
ways avseenden 0.3000000
disappointing avseenden 0.1000000
it avseenden 0.1000000
work avseenden 0.1000000
respects avseenden 0.2000000
, avseenden 0.1000000
of avseenden 0.1000000
receiving uppförande 0.3333333
harbour uppförande 0.3333333
project uppförande 0.3333333
party folkpartiet 0.2500000
&apos; folkpartiet 0.0625000
s folkpartiet 0.0625000
people folkpartiet 0.2500000
övp folkpartiet 0.0625000
&apos;s folkpartiet 0.1875000
sit folkpartiet 0.0625000
continue folkpartiet 0.0625000
rights utsläppsrätter 0.2500000
immoral utsläppsrätter 0.2500000
in utsläppsrätter 0.2500000
emissions utsläppsrätter 0.2500000
dealing tradition 0.1666667
ourselves tradition 0.1666667
find tradition 0.1666667
norm tradition 0.1666667
with tradition 0.1666667
traditionally tradition 0.1666667
consensus starkare 0.1250000
larger starkare 0.1250000
determined starkare 0.1250000
momentum starkare 0.1250000
stronger starkare 0.2500000
so starkare 0.1250000
significance starkare 0.1250000
that relation 0.5000000
given relation 0.5000000
necessity villkor 0.0454545
recognises villkor 0.0454545
arbitrarily villkor 0.0454545
conditions villkor 0.3636364
necessary villkor 0.0454545
sustainability villkor 0.0454545
eight villkor 0.0454545
either villkor 0.0454545
restricted villkor 0.0454545
condition villkor 0.1363636
specific villkor 0.0454545
retirement villkor 0.0454545
conditionality villkor 0.0454545
immune osårbart 1.0000000
demonstration demonstration 0.8000000
illustration demonstration 0.2000000
granting beviljat 0.2000000
granted beviljat 0.2000000
been beviljat 0.2000000
authorised beviljat 0.4000000
affect förändra 0.1250000
interpret förändra 0.1250000
changing förändra 0.1250000
there förändra 0.1250000
able förändra 0.1250000
alter förändra 0.1250000
is förändra 0.1250000
u-turn förändra 0.1250000
put sökanden 0.2500000
applicants sökanden 0.2500000
oblige sökanden 0.2500000
on sökanden 0.2500000
areas vattengränser 0.5000000
maritime vattengränser 0.5000000
a32 a32 1.0000000
coattails rockskört 0.5000000
onto rockskört 0.5000000
debating debatterar 1.0000000
by säkerhetskriser 0.3333333
security säkerhetskriser 0.3333333
crises säkerhetskriser 0.3333333
heroic heroisk 0.5000000
decision heroisk 0.5000000
farmer jordbrukare 0.0769231
are jordbrukare 0.1538462
farmers jordbrukare 0.6923077
part-time jordbrukare 0.0769231
attitude hållningen 1.0000000
double dubbel 0.6666667
allow dubbel 0.3333333
will enhällighet 0.0625000
longer enhällighet 0.0625000
unanimously enhällighet 0.0625000
a enhällighet 0.1875000
unanimous enhällighet 0.0625000
necessary enhällighet 0.0625000
matter enhällighet 0.0625000
consensus enhällighet 0.0625000
unanimity enhällighet 0.3125000
be enhällighet 0.0625000
single valutan 0.1666667
currency valutan 0.8333333
switzerland skapa 0.0114943
can skapa 0.0229885
obscuring skapa 0.0114943
in skapa 0.0344828
non-technical skapa 0.0114943
establishment skapa 0.0229885
creation skapa 0.0344828
blocking skapa 0.0114943
activators skapa 0.0114943
cause skapa 0.0114943
putting skapa 0.0114943
unbalanced skapa 0.0114943
created skapa 0.0344828
greater skapa 0.0114943
shareholders skapa 0.0114943
of skapa 0.0114943
we skapa 0.0114943
credible skapa 0.0114943
busquin skapa 0.0114943
creating skapa 0.0919540
engender skapa 0.0114943
vigorously skapa 0.0114943
to skapa 0.0114943
generate skapa 0.0344828
bring skapa 0.0114943
seem skapa 0.0114943
enable skapa 0.0114943
future-orientated skapa 0.0114943
early skapa 0.0114943
asylum skapa 0.0114943
restricted skapa 0.0114943
unthinkable skapa 0.0114943
instigate skapa 0.0114943
build skapa 0.0114943
qualified skapa 0.0114943
create skapa 0.2643678
implement skapa 0.0114943
a skapa 0.0229885
for skapa 0.0459770
achieving skapa 0.0114943
enacting skapa 0.0229885
closer skapa 0.0114943
voting skapa 0.0114943
regulatory oreglerade 0.3333333
especially oreglerade 0.3333333
vacuums oreglerade 0.3333333
been betraktats 0.5000000
seen betraktats 0.5000000
be olämpligt 0.2500000
inappropriate olämpligt 0.2500000
for olämpligt 0.2500000
view olämpligt 0.2500000
7.1 7.1 1.0000000
described beskriver 0.2500000
would beskriver 0.2500000
describe beskriver 0.2500000
state beskriver 0.2500000
wars revirstrider 0.5000000
turf revirstrider 0.5000000
venture riskkapital 0.2500000
risk riskkapital 0.2500000
capital riskkapital 0.5000000
the israelerna 0.2500000
do israelerna 0.2500000
shepherdstown israelerna 0.2500000
israel israelerna 0.2500000
86 86 1.0000000
deal följas 0.1250000
observed följas 0.1250000
follow följas 0.1250000
them följas 0.1250000
not följas 0.1250000
with följas 0.1250000
only följas 0.1250000
followed följas 0.1250000
mr prodi 0.3018868
prodi prodi 0.6792453
saying prodi 0.0188679
learn lära 0.4444444
learning lära 0.2222222
leaf lära 0.1111111
baptism lära 0.1111111
from lära 0.1111111
make fastslå 0.1250000
set fastslå 0.2500000
determine fastslå 0.1250000
its fastslå 0.1250000
by fastslå 0.1250000
be fastslå 0.1250000
out fastslå 0.1250000
stem härstammar 1.0000000
altogether skogspolitik 0.5000000
forestry skogspolitik 0.5000000
the transport- 0.2000000
transport transport- 0.4000000
transportation transport- 0.2000000
evacuation transport- 0.2000000
of bevisbördan 0.3333333
proof bevisbördan 0.3333333
burden bevisbördan 0.3333333
are återvinns 0.5000000
recycled återvinns 0.5000000
applied tillämpad 0.5000000
wrongly tillämpad 0.5000000
overfishing överfiske 0.3333333
consolidate överfiske 0.3333333
future överfiske 0.3333333
intrigued tänker 0.0227273
principally tänker 0.0227273
do tänker 0.0681818
in tänker 0.0681818
have tänker 0.0227273
am tänker 0.1590909
limitations tänker 0.0227273
are tänker 0.0909091
thinking tänker 0.1136364
aspe tänker 0.0227273
going tänker 0.0454545
envisage tänker 0.0681818
follow-up tänker 0.0227273
indian tänker 0.0227273
will tänker 0.0454545
think tänker 0.0909091
intends tänker 0.0227273
include tänker 0.0227273
talk tänker 0.0227273
mind tänker 0.0227273
planet planeten 0.3333333
blue planeten 0.3333333
yet planeten 0.3333333
unifil unifil 1.0000000
been håvar 0.3333333
making håvar 0.3333333
have håvar 0.3333333
permits utverka 0.3333333
taken utverka 0.3333333
having utverka 0.3333333
in rent 0.1785714
concretely rent 0.0357143
cleanliness rent 0.0357143
a rent 0.0357143
clean rent 0.0714286
even rent 0.1428571
nominees rent 0.0357143
theory rent 0.0357143
to rent 0.1071429
plainly rent 0.0357143
serbs rent 0.0357143
predict rent 0.0357143
nonsensical rent 0.0357143
maintained rent 0.0357143
repressive rent 0.0357143
instil rent 0.0357143
underlined rent 0.0357143
crossing rent 0.0357143
organisations nyetableringar 0.3333333
newly nyetableringar 0.3333333
established nyetableringar 0.3333333
danger hota 0.5000000
obviate hota 0.5000000
interventionism interventionism 1.0000000
uniformly enhetligt 0.2000000
uniform enhetligt 0.4000000
at enhetligt 0.2000000
core enhetligt 0.2000000
programmes urban-program 0.5000000
urban urban-program 0.5000000
added förnekas 0.1666667
offers förnekas 0.1666667
this förnekas 0.1666667
undeniable förnekas 0.1666667
value förnekas 0.1666667
though förnekas 0.1666667
process fredsprocessen 0.4333333
peace fredsprocessen 0.4333333
middle fredsprocessen 0.1333333
soundly fötterna 0.2000000
feet fötterna 0.2000000
placed fötterna 0.2000000
on fötterna 0.2000000
their fötterna 0.2000000
eliminating former 0.0909091
forms former 0.1818182
eliminate former 0.0909091
ways former 0.0909091
survey former 0.0909091
misreading former 0.0909091
form former 0.0909091
cover former 0.0909091
many-sided former 0.0909091
sorts former 0.0909091
polluter förorenaren 0.5000000
the förorenaren 0.3333333
polluters förorenaren 0.1666667
leonardo analysen 0.1250000
return analysen 0.1250000
analysis analysen 0.2500000
his analysen 0.1250000
to analysen 0.1250000
about analysen 0.1250000
going analysen 0.1250000
emotional präglad 1.0000000
beetle utbredning 0.2500000
spread utbredning 0.2500000
unemployment utbredning 0.2500000
trend utbredning 0.2500000
basis valts 0.1000000
this valts 0.1000000
comment valts 0.1000000
election valts 0.1000000
elected valts 0.1000000
address valts 0.1000000
your valts 0.1000000
positive valts 0.1000000
chosen valts 0.1000000
steps valts 0.1000000
hulten kvalificera 0.3333333
van kvalificera 0.3333333
mr kvalificera 0.3333333
elected invald 1.0000000
leader ledaren 0.2857143
forcibly ledaren 0.1428571
made ledaren 0.1428571
point ledaren 0.1428571
by ledaren 0.1428571
very ledaren 0.1428571
duhamel duhamels 0.5000000
olivier duhamels 0.5000000
enter kund 0.2500000
should kund 0.2500000
customer kund 0.2500000
into kund 0.2500000
mankind civiliserat 0.5000000
civilised civiliserat 0.5000000
no tvekat 0.2000000
been tvekat 0.2000000
reluctance tvekat 0.2000000
slow tvekat 0.2000000
showed tvekat 0.2000000
phare phare 1.0000000
fascistic fascistiskt 0.5000000
here fascistiskt 0.5000000
itself marknadsinstrumentet 0.5000000
instrument marknadsinstrumentet 0.5000000
reported läckte 0.2000000
been läckte 0.2000000
has läckte 0.2000000
widely läckte 0.2000000
spillage läckte 0.2000000
same finanserna 0.1111111
had finanserna 0.1111111
said finanserna 0.1111111
financial finanserna 0.1111111
take finanserna 0.1111111
aspect finanserna 0.1111111
simply finanserna 0.1111111
could finanserna 0.1111111
board finanserna 0.1111111
established etablerade 1.0000000
continuation placeringen 0.1666667
has placeringen 0.1666667
been placeringen 0.1666667
which placeringen 0.1666667
accorded placeringen 0.1666667
it placeringen 0.1666667
the eftersträvade 0.4000000
certain eftersträvade 0.2000000
pursued eftersträvade 0.2000000
envisaged eftersträvade 0.2000000
with lagrar 0.3333333
itself lagrar 0.3333333
glory lagrar 0.3333333
eurofederalist eurofederalistiska 1.0000000
latest nyaste 1.0000000
date slutdatum 0.5000000
target slutdatum 0.5000000
is fortskrider 0.5000000
proceeding fortskrider 0.5000000
question diskussion 0.0476190
addressing diskussion 0.0476190
discussion diskussion 0.2380952
debate diskussion 0.0952381
exchange diskussion 0.0952381
when diskussion 0.0952381
industrialised diskussion 0.0476190
in diskussion 0.0476190
discussions diskussion 0.1904762
past diskussion 0.0476190
programming diskussion 0.0476190
ppe-de ppe-de-gruppen 0.4285714
the ppe-de-gruppen 0.1428571
group ppe-de-gruppen 0.4285714
utopian tvivel 0.0333333
occurred tvivel 0.0333333
undoubtedly tvivel 0.1000000
cry tvivel 0.0333333
unquestionably tvivel 0.0333333
no tvivel 0.1666667
enforced tvivel 0.0333333
clearly tvivel 0.0666667
doubtless tvivel 0.0666667
doubt tvivel 0.3666667
involve tvivel 0.0333333
certainly tvivel 0.0333333
secure delaktig 0.2000000
greater delaktig 0.2000000
contends delaktig 0.2000000
participation delaktig 0.2000000
process delaktig 0.2000000
34 34 1.0000000
pse pse-gruppens 0.2500000
fact pse-gruppens 0.2500000
de-pse pse-gruppens 0.2500000
behalf pse-gruppens 0.2500000
twice transportera 0.2000000
people transportera 0.2000000
before transportera 0.2000000
think transportera 0.2000000
transporting transportera 0.2000000
on räkna 0.2500000
count räkna 0.2500000
few räkna 0.0625000
do räkna 0.0625000
accomplished räkna 0.0625000
next räkna 0.0625000
counting räkna 0.0625000
performances räkna 0.0625000
can räkna 0.0625000
2 räkna 0.0625000
orientation kommissionen 0.0008446
reminders kommissionen 0.0008446
hoped kommissionen 0.0008446
regulatory kommissionen 0.0008446
motivated kommissionen 0.0008446
tabled kommissionen 0.0008446
the kommissionen 0.4856419
stockbrokers kommissionen 0.0008446
far kommissionen 0.0008446
commission kommissionen 0.5050676
further kommissionen 0.0008446
moreover kommissionen 0.0008446
discrepancy kommissionen 0.0008446
gravitate annars 0.0625000
omitting annars 0.0625000
pr annars 0.0625000
otherwise annars 0.4375000
as annars 0.0625000
might annars 0.0625000
but annars 0.0625000
well annars 0.0625000
deliberate annars 0.0625000
apart annars 0.0625000
lasting återhämtning 0.1428571
recovery återhämtning 0.4285714
underway återhämtning 0.1428571
now återhämtning 0.1428571
with återhämtning 0.1428571
corrects rätta 0.0357143
work rätta 0.0357143
share rätta 0.0357143
one rätta 0.0357143
available rätta 0.0357143
real rätta 0.0357143
correct rätta 0.0357143
remedying rätta 0.0357143
right rätta 0.1071429
rightly rätta 0.1428571
be rätta 0.0357143
conform rätta 0.0357143
quite rätta 0.0714286
the rätta 0.2500000
so rätta 0.0357143
grudgingly rätta 0.0357143
presidency arbete 0.0106383
turn arbete 0.0106383
employed arbete 0.0106383
seeking arbete 0.0106383
mine arbete 0.0106383
house arbete 0.0106383
diligence arbete 0.0106383
responses arbete 0.0106383
proceedings arbete 0.0106383
job arbete 0.0212766
uniformity arbete 0.0106383
shown arbete 0.0106383
delimitation arbete 0.0106383
process arbete 0.0106383
philosophy arbete 0.0106383
paper arbete 0.0106383
start arbete 0.0106383
trouble arbete 0.0106383
neutral arbete 0.0106383
trying arbete 0.0106383
on arbete 0.0106383
efforts arbete 0.0106383
performance arbete 0.0106383
instructors arbete 0.0106383
labour arbete 0.0106383
work arbete 0.6489362
working arbete 0.0212766
marks arbete 0.0106383
project arbete 0.0106383
outbreaks arbete 0.0106383
magnificent arbete 0.0106383
to arbete 0.0106383
vatanen vatanen 0.5000000
mr vatanen 0.5000000
possible oegentlighet 0.1428571
quickly oegentlighet 0.1428571
up oegentlighet 0.1428571
come oegentlighet 0.1428571
as oegentlighet 0.2857143
irregularity oegentlighet 0.1428571
exchanges lyckade 0.2500000
successful lyckade 0.5000000
between lyckade 0.2500000
football fotbollsbedrägerierna 1.0000000
voluntarily frivilligt 0.2500000
add-on frivilligt 0.2500000
optional frivilligt 0.2500000
turned frivilligt 0.2500000
presidency rådsordförandeskapet 0.2000000
clearly rådsordförandeskapet 0.2000000
improve rådsordförandeskapet 0.2000000
will rådsordförandeskapet 0.2000000
respect rådsordförandeskapet 0.2000000
these olyckorna 0.5000000
risks olyckorna 0.5000000
reconstruction rekonstruktion 0.6666667
is rekonstruktion 0.3333333
standards minimireglerna 0.1428571
been minimireglerna 0.1428571
already minimireglerna 0.1428571
mentioned minimireglerna 0.1428571
it minimireglerna 0.1428571
concerns minimireglerna 0.1428571
minimum minimireglerna 0.1428571
out laboratorium 0.1666667
tests laboratorium 0.1666667
because laboratorium 0.1666667
carried laboratorium 0.1666667
one laboratorium 0.1666667
laboratory laboratorium 0.1666667
for livsmedelsproduktion 0.3333333
production livsmedelsproduktion 0.3333333
food livsmedelsproduktion 0.3333333
question ospar-normen 0.2000000
are ospar-normen 0.2000000
standard ospar-normen 0.2000000
called ospar-normen 0.2000000
into ospar-normen 0.2000000
attached 2006 0.0833333
year 2006 0.0833333
2006 2006 0.7500000
were 2006 0.0833333
regime hitler-regimen 0.5000000
hitler hitler-regimen 0.5000000
unsuccessful misslyckade 0.3333333
have misslyckade 0.3333333
seen misslyckade 0.3333333
french-speaking fransktalande 1.0000000
confrontation konfrontationspolitik 0.2500000
gain konfrontationspolitik 0.2500000
little konfrontationspolitik 0.2500000
policy konfrontationspolitik 0.2500000
turn finansiärer 0.5000000
investors finansiärer 0.5000000
and entusiasmen 0.3333333
or entusiasmen 0.3333333
enthusiasm entusiasmen 0.3333333
granted betalats 0.1111111
plain betalats 0.1111111
would betalats 0.1111111
more betalats 0.1111111
been betalats 0.2222222
paid betalats 0.2222222
suffice betalats 0.1111111
pressed kineserna 0.3333333
peking kineserna 0.3333333
chinese kineserna 0.3333333
cost-benefit samhällsekonomiska 0.2500000
concerning samhällsekonomiska 0.2500000
employment samhällsekonomiska 0.2500000
socio-economic samhällsekonomiska 0.2500000
for planerad 0.2500000
supposed planerad 0.2500000
its planerad 0.2500000
scheduled planerad 0.2500000
weakened intogs 0.5000000
by intogs 0.5000000
while kommissionsdirektoratet 0.2500000
commission kommissionsdirektoratet 0.2500000
respecting kommissionsdirektoratet 0.2500000
directorate kommissionsdirektoratet 0.2500000
, tyskt 0.2857143
opera tyskt 0.1428571
german tyskt 0.1428571
like tyskt 0.1428571
beer tyskt 0.1428571
five tyskt 0.1428571
airport flygplats 1.0000000
refuse vägrar 0.3333333
rejected vägrar 0.3333333
refuses vägrar 0.3333333
food livsmedelskvalitet 0.3333333
quality livsmedelskvalitet 0.6666667
additional extra 0.2000000
seconds extra 0.1000000
rusting extra 0.1000000
stating extra 0.1000000
sheet extra 0.1000000
extra extra 0.2000000
contain extra 0.1000000
because extra 0.1000000
farmer bondens 0.3333333
the bondens 0.6666667
means aviseras 0.5000000
stipulates aviseras 0.5000000
set bestäms 0.2000000
are bestäms 0.2000000
borders bestäms 0.2000000
them bestäms 0.2000000
on bestäms 0.2000000
understand inse 0.5000000
recognise inse 0.2000000
realise inse 0.2000000
need inse 0.1000000
attending marknadens 0.0555556
the marknadens 0.1111111
league marknadens 0.0555556
controversy marknadens 0.0555556
trust marknadens 0.0555556
failure marknadens 0.0555556
market marknadens 0.6111111
rapporteur föredraganden 0.4774775
the föredraganden 0.4774775
shown föredraganden 0.0090090
report föredraganden 0.0090090
berger föredraganden 0.0090090
arrives föredraganden 0.0090090
your föredraganden 0.0090090
car biltillverkare 0.5000000
manufacturers biltillverkare 0.5000000
involve barnens 0.2500000
children barnens 0.5000000
protecting barnens 0.2500000
posts ministerposter 0.5000000
ministerial ministerposter 0.5000000
supervise kustvakter 0.3333333
who kustvakter 0.3333333
coastguards kustvakter 0.3333333
a kraftigt 0.1111111
on kraftigt 0.1111111
wants kraftigt 0.1111111
considerably kraftigt 0.3333333
strong kraftigt 0.2222222
from kraftigt 0.1111111
impact skadar 0.1000000
involving skadar 0.1000000
damages skadar 0.1000000
on skadar 0.1000000
insisting skadar 0.1000000
few skadar 0.1000000
greatly skadar 0.1000000
is skadar 0.2000000
offences skadar 0.1000000
palestinian palestinsk 1.0000000
values värderingarna 0.6666667
even värderingarna 0.3333333
been påtalats 0.4000000
raised påtalats 0.2000000
mentioned påtalats 0.4000000
relaxed lugn 0.3333333
quite lugn 0.3333333
calmly lugn 0.3333333
103 103 1.0000000
heed uppmaningar 0.5000000
calls uppmaningar 0.5000000
partisan partisk 1.0000000
at levebröd 0.2857143
fact levebröd 0.1428571
one levebröd 0.1428571
decent levebröd 0.1428571
that levebröd 0.1428571
present levebröd 0.1428571
different annorlunda 0.5000000
things annorlunda 0.1250000
rather annorlunda 0.1250000
are annorlunda 0.1250000
really annorlunda 0.1250000
concerned tryggas 0.5000000
instruments tryggas 0.5000000
order slog 0.3333333
its slog 0.3333333
recognised slog 0.3333333
where småningom 0.2000000
ban småningom 0.2000000
producing småningom 0.2000000
fined småningom 0.2000000
examination småningom 0.2000000
a regeringsförhandlingarna 0.2500000
government regeringsförhandlingarna 0.2500000
forming regeringsförhandlingarna 0.2500000
talks regeringsförhandlingarna 0.2500000
chickens kycklingar 0.5000000
used kycklingar 0.5000000
looked givande 0.2500000
such givande 0.2500000
fruitfully givande 0.2500000
fruitful givande 0.2500000
considerably avsevärt 0.2500000
to avsevärt 0.3750000
be avsevärt 0.1250000
amount avsevärt 0.1250000
considerable avsevärt 0.1250000
scheme socialförsäkringssystem 0.3333333
social socialförsäkringssystem 0.3333333
security socialförsäkringssystem 0.3333333
disappointed besvikna 1.0000000
have existensberättigande 0.1111111
) existensberättigande 0.1111111
back existensberättigande 0.1111111
( existensberättigande 0.1111111
even existensberättigande 0.1111111
a existensberättigande 0.1111111
fr existensberättigande 0.1111111
policy existensberättigande 0.1111111
we existensberättigande 0.1111111
killed dödas 1.0000000
competitiveness konkurrenskraft 0.2812500
desired konkurrenskraft 0.0312500
unleashed konkurrenskraft 0.0312500
the konkurrenskraft 0.3437500
industry konkurrenskraft 0.1250000
s konkurrenskraft 0.0312500
of konkurrenskraft 0.1562500
operational operativ 1.0000000
you grundligt 0.1111111
deep grundligt 0.2222222
enough grundligt 0.1111111
all grundligt 0.1111111
far grundligt 0.1111111
it grundligt 0.1111111
illustrate grundligt 0.1111111
could grundligt 0.1111111
begun påbörjade 0.5000000
that påbörjade 0.5000000
comprehensive innehållsrika 1.0000000
surely förvisso 0.0909091
is förvisso 0.2727273
are förvisso 0.0909091
solely förvisso 0.0909091
same förvisso 0.0909091
all förvisso 0.0909091
clearly förvisso 0.0909091
certainly förvisso 0.1818182
included inkluderat 1.0000000
agreeing forum 0.1666667
forum forum 0.3333333
internet forum 0.1666667
context forum 0.1666667
currently forum 0.1666667
economic emu 0.1666667
reconsidered emu 0.1666667
monetary emu 0.1666667
union emu 0.1666667
take emu 0.1666667
relation emu 0.1666667
specified preciserade 1.0000000
same lyckat 1.0000000
decisions konkurrenspolitiska 0.1111111
competition konkurrenspolitiska 0.3333333
relating konkurrenspolitiska 0.1111111
policy konkurrenspolitiska 0.3333333
aims konkurrenspolitiska 0.1111111
manufacturer producentansvar 0.2500000
liability producentansvar 0.2500000
&apos; producentansvar 0.2500000
s producentansvar 0.2500000
concerning mantrat 0.5000000
mantra mantrat 0.5000000
municipal samtliga 0.0400000
right-wing samtliga 0.0400000
secure samtliga 0.0400000
enables samtliga 0.0400000
each samtliga 0.0400000
cover samtliga 0.0400000
370 samtliga 0.0400000
visiting samtliga 0.0400000
all samtliga 0.6800000
mechanism mekanismen 1.0000000
this handlade 0.0625000
point handlade 0.0625000
ladies handlade 0.0625000
take handlade 0.0625000
and handlade 0.1250000
aim handlade 0.0625000
gentlemen handlade 0.0625000
action handlade 0.0625000
was handlade 0.2500000
just handlade 0.0625000
at handlade 0.0625000
quickly handlade 0.0625000
traffic lufttransporterna 0.2000000
but lufttransporterna 0.2000000
air lufttransporterna 0.2000000
understand lufttransporterna 0.2000000
leaving lufttransporterna 0.2000000
listening lyssningsläge 0.5000000
mode lyssningsläge 0.5000000
air-borne uranium 0.2500000
becomes uranium 0.2500000
uranium uranium 0.5000000
pancakes kokor 1.0000000
shot sköt 1.0000000
massive fusioner 0.2500000
monopoly fusioner 0.2500000
market fusioner 0.2500000
mergers fusioner 0.2500000
disturbances konkurrensrelaterade 0.3333333
competitive konkurrensrelaterade 0.3333333
iron konkurrensrelaterade 0.3333333
billions mindre 0.0192308
assistance mindre 0.0192308
fewer mindre 0.0192308
intended mindre 0.0192308
translating mindre 0.0192308
smaller mindre 0.1538462
small mindre 0.0192308
synergy mindre 0.0192308
a mindre 0.0576923
consequent mindre 0.0192308
distribution mindre 0.0192308
alimony mindre 0.0192308
marginalising mindre 0.0192308
less mindre 0.5769231
which antieuropeiska 0.2500000
anti-european antieuropeiska 0.2500000
are antieuropeiska 0.2500000
also antieuropeiska 0.2500000
the urbans 1.0000000
given låtit 1.0000000
replacement tillstånden 0.5000000
authorisations tillstånden 0.5000000
allowed varken 0.0588235
not varken 0.1176471
it varken 0.1176471
paragraph varken 0.0588235
neither varken 0.1764706
respected varken 0.0588235
either varken 0.1176471
deal varken 0.0588235
signatories varken 0.0588235
cannot varken 0.1176471
possibly varken 0.0588235
enshrined bygger 0.0769231
establishing bygger 0.0769231
building bygger 0.0769231
built bygger 0.0769231
upon bygger 0.0769231
is bygger 0.1538462
1990 bygger 0.0769231
build bygger 0.0769231
takes bygger 0.0769231
board bygger 0.0769231
based bygger 0.1538462
improve arbetstagares 0.2500000
position arbetstagares 0.2500000
workers arbetstagares 0.2500000
restricted arbetstagares 0.2500000
cut-backs nedskärningspolitik 0.3333333
of nedskärningspolitik 0.3333333
policy nedskärningspolitik 0.3333333
plantation plantation 0.5000000
have plantation 0.5000000
forward beslutsamhet 0.1428571
guterres beslutsamhet 0.1428571
drive beslutsamhet 0.1428571
decidedly beslutsamhet 0.1428571
what beslutsamhet 0.1428571
most beslutsamhet 0.1428571
parties beslutsamhet 0.1428571
look standarden 0.5000000
standards standarden 0.5000000
mix mix 1.0000000
are begås 0.3333333
committed begås 0.3333333
these begås 0.3333333
culture kalejdoskop 0.3333333
kaleidoscope kalejdoskop 0.3333333
is kalejdoskop 0.3333333
are avspeglas 0.5000000
reflected avspeglas 0.5000000
finances finanser 1.0000000
cases understrukit 0.3333333
just understrukit 0.3333333
underlined understrukit 0.3333333
like varade 0.3333333
last varade 0.3333333
me varade 0.3333333
staying kulisserna 0.1666667
protagonists kulisserna 0.1666667
leading kulisserna 0.1666667
off kulisserna 0.1666667
while kulisserna 0.1666667
backstage kulisserna 0.1666667
given presenteras 1.0000000
implementation finansieringsplan 0.2500000
indicative finansieringsplan 0.2500000
financial finansieringsplan 0.2500000
plan finansieringsplan 0.2500000
presentation framläggandet 0.5000000
are framläggandet 0.1666667
regarding framläggandet 0.1666667
the framläggandet 0.1666667
basque lejda 0.3333333
hiring lejda 0.3333333
contract lejda 0.3333333
brussels brysselteknokraternas 0.5000000
technocrats brysselteknokraternas 0.5000000
line linje 0.1578947
complies linje 0.0526316
with linje 0.2105263
vigour linje 0.0526316
accordance linje 0.1052632
policy linje 0.0526316
democratically linje 0.0526316
redefining linje 0.0526316
full linje 0.0526316
same linje 0.0526316
keeping linje 0.0526316
allay linje 0.0526316
xenophobic linje 0.0526316
there ärligt 0.5000000
honestly ärligt 0.5000000
commodity råvaruproducenter 0.5000000
producers råvaruproducenter 0.5000000
aggressive offensiva 0.5000000
&apos; offensiva 0.5000000
programme strukturfondsprogrammen 0.2857143
within strukturfondsprogrammen 0.1428571
structural strukturfondsprogrammen 0.2857143
funds strukturfondsprogrammen 0.2857143
to at 0.5000000
require at 0.5000000
for saluförandet 0.2000000
monopoly saluförandet 0.2000000
a saluförandet 0.2000000
creating saluförandet 0.2000000
marketing saluförandet 0.2000000
685 perspektiv 0.0666667
perspective perspektiv 0.3333333
eminently perspektiv 0.0666667
see perspektiv 0.0666667
reality perspektiv 0.1333333
way perspektiv 0.0666667
such perspektiv 0.0666667
into perspektiv 0.1333333
countryside perspektiv 0.0666667
admired beundrat 1.0000000
structural strukturella 1.0000000
before vecka 0.1428571
week vecka 0.8571429
endemic endemisk 1.0000000
regrettable beklagansvärt 1.0000000
make rapporter 0.1250000
these rapporter 0.1250000
relationships rapporter 0.1250000
nonetheless rapporter 0.1250000
like rapporter 0.1250000
reports rapporter 0.3750000
gave avgav 1.0000000
decided bestämde 0.2000000
and bestämde 0.2000000
ahead bestämde 0.2000000
go bestämde 0.2000000
draw bestämde 0.2000000
clearly förmår 0.2000000
throughout förmår 0.2000000
quite förmår 0.2000000
trademark förmår 0.2000000
bears förmår 0.2000000
bill dyrare 0.3333333
higher dyrare 0.3333333
greater dyrare 0.3333333
perceived upplevs 0.5000000
to upplevs 0.5000000
sets upprättar 0.2222222
setting upprättar 0.1111111
up upprättar 0.2222222
are upprättar 0.1111111
out upprättar 0.2222222
should upprättar 0.1111111
equality jämställdhet 0.7500000
, jämställdhet 0.1666667
struggles jämställdhet 0.0833333
from avfallet 0.1250000
cars avfallet 0.1250000
exists avfallet 0.1250000
waste avfallet 0.6250000
1995-1997 till 0.0005353
sympathise till 0.0005353
travelling till 0.0010707
export till 0.0010707
doors till 0.0010707
davies till 0.0005353
allocated till 0.0010707
back till 0.0005353
intended till 0.0037473
far till 0.0010707
25-30 till 0.0005353
supplements till 0.0005353
draft till 0.0123126
suffers till 0.0005353
towards till 0.0037473
make till 0.0010707
subsidies till 0.0005353
call till 0.0005353
washout till 0.0005353
help till 0.0096360
tension till 0.0005353
avail till 0.0005353
comments till 0.0005353
reason till 0.0026767
sending till 0.0005353
establishes till 0.0005353
access till 0.0112420
available till 0.0005353
benefit till 0.0010707
monitor till 0.0005353
add till 0.0005353
pilot till 0.0005353
mudflat till 0.0005353
returning till 0.0005353
become till 0.0021413
means till 0.0005353
contribute till 0.0064240
hence till 0.0010707
nature till 0.0016060
carelessness till 0.0005353
subsidy-dependence till 0.0005353
pre-accession till 0.0005353
2 till 0.0010707
subsidised till 0.0010707
resourced till 0.0005353
informing till 0.0010707
supports till 0.0005353
behind till 0.0010707
restrictions till 0.0005353
accordingly till 0.0005353
openings till 0.0005353
possibilities till 0.0005353
efterløn till 0.0010707
corrected till 0.0005353
producing till 0.0005353
unlike till 0.0010707
existed till 0.0005353
familiar till 0.0010707
granting till 0.0005353
victims till 0.0010707
in till 0.0198073
aimed till 0.0016060
quecedo till 0.0005353
threshold till 0.0005353
weaker till 0.0005353
failing till 0.0005353
wasted till 0.0010707
contents till 0.0005353
compensating till 0.0005353
examine till 0.0005353
observed till 0.0005353
finnish till 0.0005353
193 till 0.0005353
sub-items till 0.0005353
with till 0.0064240
difficulty till 0.0005353
combine till 0.0005353
intent till 0.0005353
mediation till 0.0005353
underpin till 0.0005353
stimulated till 0.0005353
produces till 0.0005353
passed till 0.0005353
mountains till 0.0005353
off till 0.0016060
example till 0.0016060
dawn till 0.0005353
advocate till 0.0005353
unrealistic till 0.0005353
eu-wide till 0.0005353
details till 0.0005353
arrived till 0.0021413
floor till 0.0053533
deliver till 0.0005353
explain till 0.0005353
favouring till 0.0005353
advocates till 0.0010707
downplaying till 0.0005353
considered till 0.0010707
via till 0.0005353
ensure till 0.0198073
cold till 0.0005353
shaken till 0.0005353
making till 0.0005353
dell till 0.0010707
reclassifications till 0.0010707
speakers till 0.0005353
entrepreneurial till 0.0005353
kaufmann till 0.0005353
monopolised till 0.0005353
helped till 0.0016060
depending till 0.0005353
set till 0.0005353
introducing till 0.0005353
varies till 0.0005353
myself till 0.0005353
result till 0.0032120
hearing till 0.0005353
ignoring till 0.0010707
beyond till 0.0005353
knows till 0.0010707
significantly till 0.0016060
draw till 0.0005353
eur till 0.0042827
of till 0.0669165
unpleasant till 0.0005353
reach till 0.0026767
attain till 0.0005353
led till 0.0042827
disposed till 0.0005353
appeal till 0.0021413
satisfaction till 0.0005353
the till 0.0267666
lowered till 0.0005353
favour till 0.0032120
ensuring till 0.0026767
chance till 0.0010707
initiate till 0.0005353
past till 0.0010707
produce till 0.0026767
rose till 0.0005353
tying till 0.0005353
source till 0.0032120
book till 0.0005353
contribution till 0.0026767
as till 0.0010707
on till 0.0155246
clean till 0.0016060
solbes till 0.0005353
newspapers till 0.0005353
code till 0.0037473
reached till 0.0026767
marine till 0.0016060
violations till 0.0005353
refers till 0.0010707
pursued till 0.0005353
at till 0.0026767
degassing till 0.0005353
approximately till 0.0005353
nazi till 0.0005353
agri-foodstuffs till 0.0005353
to till 0.3816916
know-how till 0.0005353
contributed till 0.0010707
specifically till 0.0005353
contradict till 0.0005353
pruned till 0.0010707
timeframe till 0.0005353
ensures till 0.0016060
overheads till 0.0005353
contributing till 0.0005353
disrupters till 0.0005353
ecologist till 0.0005353
relations till 0.0010707
even till 0.0069593
guilty till 0.0005353
wurtz till 0.0005353
troops till 0.0005353
greater till 0.0010707
funds till 0.0010707
firstly till 0.0021413
livestock till 0.0005353
criminal till 0.0016060
foster till 0.0005353
creates till 0.0005353
surprised till 0.0005353
fragile till 0.0005353
confront till 0.0005353
self-seeking till 0.0005353
fantastic till 0.0005353
stands till 0.0005353
counterpart till 0.0005353
misreading till 0.0005353
alternatives till 0.0005353
spent till 0.0010707
martinez till 0.0005353
debacle till 0.0005353
spokespersons till 0.0005353
mr till 0.0005353
remedying till 0.0005353
mixed till 0.0005353
downgraded till 0.0005353
sure till 0.0042827
considering till 0.0005353
classed till 0.0005353
for till 0.0792291
copy till 0.0005353
enough till 0.0005353
account till 0.0155246
rural till 0.0005353
until till 0.0053533
reactions till 0.0005353
dam till 0.0005353
know till 0.0069593
misuse till 0.0005353
gradually till 0.0005353
incomplete till 0.0005353
receipt till 0.0005353
exists till 0.0005353
braking till 0.0005353
sent till 0.0005353
NULL till 0.0353319
largely till 0.0010707
congratulate till 0.0021413
permitted till 0.0005353
open till 0.0005353
stimulate till 0.0005353
close till 0.0005353
generated till 0.0010707
bringing till 0.0005353
extended till 0.0026767
compared till 0.0010707
consideration till 0.0037473
heads till 0.0005353
roofs till 0.0005353
known till 0.0005353
pointed till 0.0005353
up till 0.0010707
why till 0.0042827
disclosure till 0.0005353
table till 0.0005353
wars till 0.0010707
lastly till 0.0010707
contradiction till 0.0016060
reasons till 0.0010707
sea till 0.0026767
contrast till 0.0005353
concerning till 0.0005353
finds till 0.0005353
urged till 0.0005353
liable till 0.0005353
instincts till 0.0005353
lead till 0.0112420
farm-to-table till 0.0005353
entrepreneurship till 0.0005353
reference till 0.0010707
reduced till 0.0016060
enforceable till 0.0005353
into till 0.0101713
loopholes till 0.0005353
causes till 0.0016060
designed till 0.0005353
cause till 0.0010707
re-nationalise till 0.0005353
disregarded till 0.0005353
ins till 0.0005353
refuse till 0.0016060
aware till 0.0058887
attracted till 0.0005353
contacted till 0.0005353
certain till 0.0026767
finally till 0.0048180
reference anspelade 0.3333333
made anspelade 0.3333333
auroi anspelade 0.3333333
seventh andra 0.0033784
faster andra 0.0033784
the andra 0.0033784
hundreds andra 0.0033784
differentiating andra 0.0033784
version andra 0.0033784
another andra 0.0101351
revenue andra 0.0033784
rendered andra 0.0033784
remote andra 0.0033784
orders andra 0.0033784
anti-european andra 0.0033784
last andra 0.0033784
alternatively andra 0.0033784
nomination andra 0.0033784
else andra 0.0067568
covers andra 0.0033784
of andra 0.0033784
controls andra 0.0033784
visit andra 0.0033784
hears andra 0.0033784
broader andra 0.0033784
forgery andra 0.0033784
speakers andra 0.0033784
receiving andra 0.0033784
second andra 0.1959459
elsewhere andra 0.0067568
industrial andra 0.0067568
secondary andra 0.0033784
buyer andra 0.0033784
everybody andra 0.0033784
concepts andra 0.0033784
resort andra 0.0033784
survey andra 0.0033784
subsequent andra 0.0033784
34 andra 0.0033784
taiwan andra 0.0033784
others andra 0.0844595
secondly andra 0.1351351
other andra 0.4256757
continent andra 0.0033784
repetition andra 0.0033784
pubs andra 0.0033784
teratogenic andra 0.0033784
attributed andra 0.0033784
controversial andra 0.0033784
syria integritet 0.5000000
means integritet 0.5000000
european medlemskap 1.0000000
criterion medborgarnas 0.0238095
obliged medborgarnas 0.0238095
catering medborgarnas 0.0238095
popular medborgarnas 0.0238095
of medborgarnas 0.0714286
indifference medborgarnas 0.0238095
the medborgarnas 0.4523810
citizens medborgarnas 0.3333333
&apos; medborgarnas 0.0238095
under hotade 0.2500000
unless hotade 0.2500000
threat hotade 0.2500000
populations hotade 0.2500000
approximately 120 0.2500000
120 120 0.2500000
us 120 0.2500000
with 120 0.2500000
continue välfärdsskillnader 0.3333333
disparities välfärdsskillnader 0.3333333
wealth välfärdsskillnader 0.3333333
the alltsammans 0.3333333
to alltsammans 0.3333333
all alltsammans 0.3333333
aid statsstödens 0.2500000
such statsstödens 0.2500000
effect statsstödens 0.2500000
detailing statsstödens 0.2500000
claims åtal 0.2500000
charges åtal 0.2500000
fishermen åtal 0.2500000
brought åtal 0.2500000
hull skrovkonstruktionens 1.0000000
point konstaterade 0.2500000
mrs konstaterade 0.2500000
share konstaterade 0.2500000
he konstaterade 0.2500000
run motsatt 0.2000000
opposed motsatt 0.4000000
counter motsatt 0.2000000
considerations motsatt 0.2000000
played lopp 0.2000000
years lopp 0.4000000
viewed lopp 0.2000000
past lopp 0.2000000
finance utgå 0.1666667
people utgå 0.1666667
resident utgå 0.1666667
being utgå 0.1666667
allows utgå 0.1666667
make utgå 0.1666667
all betänker 0.2500000
a betänker 0.2500000
such betänker 0.2500000
thing betänker 0.2500000
for avgång 0.1666667
resignation avgång 0.3333333
&apos; avgång 0.1666667
s avgång 0.1666667
commission avgång 0.1666667
product produkts 0.6666667
these produkts 0.3333333
pruned gemenskapsinitiativen 0.0625000
initiatives gemenskapsinitiativen 0.4375000
community gemenskapsinitiativen 0.4375000
operation gemenskapsinitiativen 0.0625000
get iväg 0.1666667
rushing iväg 0.1666667
away iväg 0.1666667
to iväg 0.1666667
idea iväg 0.1666667
crust iväg 0.1666667
proceedings förbereda 0.1000000
necessary förbereda 0.1000000
ready förbereda 0.1000000
make förbereda 0.2000000
prepared förbereda 0.1000000
prepare förbereda 0.3000000
preparations förbereda 0.1000000
mr nogueira 0.5000000
on nogueira 0.5000000
entrance inträdesbiljett 0.3333333
own inträdesbiljett 0.3333333
ticket inträdesbiljett 0.3333333
are avprickning 0.5000000
checks avprickning 0.5000000
dozen tiotal 0.1666667
so tiotal 0.1666667
up tiotal 0.1666667
or tiotal 0.1666667
drawn tiotal 0.1666667
were tiotal 0.1666667
50 50 0.9166667
50-80 50 0.0833333
refer griper 0.5000000
to griper 0.5000000
experts aviserade 1.0000000
in jordbruksproduktionen 0.1250000
way jordbruksproduktionen 0.1250000
agricultural jordbruksproduktionen 0.2500000
consistent jordbruksproduktionen 0.1250000
production jordbruksproduktionen 0.2500000
a jordbruksproduktionen 0.1250000
initiative interreg-initiativ 0.5000000
european interreg-initiativ 0.5000000
serves förhindras 0.1428571
prevent förhindras 0.1428571
whole förhindras 0.1428571
prices förhindras 0.1428571
want förhindras 0.1428571
to förhindras 0.2857143
have beta 0.2000000
not beta 0.2000000
finished beta 0.2000000
still beta 0.2000000
that beta 0.2000000
rethink översyn 0.2500000
moments översyn 0.2500000
ago översyn 0.2500000
few översyn 0.2500000
may initiativrätt 0.0833333
itself initiativrätt 0.0833333
dictates initiativrätt 0.0833333
will initiativrätt 0.0833333
right initiativrätt 0.2500000
initiative initiativrätt 0.3333333
impinge initiativrätt 0.0833333
terms innehållet 0.1111111
straight innehållet 0.0555556
content innehållet 0.3888889
the innehållet 0.2222222
their innehållet 0.0555556
substance innehållet 0.0555556
details innehållet 0.0555556
contents innehållet 0.0555556
easier kammare 0.0555556
chamber kammare 0.0555556
hemicycle kammare 0.0555556
house kammare 0.8333333
lack resursbristen 0.3333333
resources resursbristen 0.3333333
of resursbristen 0.3333333
does varaktigt 0.2000000
improve varaktigt 0.2000000
nothing varaktigt 0.2000000
situation varaktigt 0.2000000
unemployment varaktigt 0.2000000
manifest balans 0.0909091
balance balans 0.9090909
the handlingen 0.5000000
document handlingen 0.5000000
effect kumuleringen 0.2000000
have kumuleringen 0.2000000
failed kumuleringen 0.2000000
desired kumuleringen 0.2000000
accumulation kumuleringen 0.2000000
products produkterna 1.0000000
be oklara 0.1428571
somewhat oklara 0.1428571
are oklara 0.1428571
matter oklara 0.1428571
seems oklara 0.1428571
confused oklara 0.2857143
ideal samtalspartner 0.3333333
negotiating samtalspartner 0.3333333
partner samtalspartner 0.3333333
gender genderutbildningen 0.1666667
training genderutbildningen 0.1666667
participated genderutbildningen 0.1666667
, genderutbildningen 0.1666667
for genderutbildningen 0.1666667
and genderutbildningen 0.1666667
be eftertryck 0.1250000
establishing eftertryck 0.1250000
emphatic eftertryck 0.1250000
can eftertryck 0.1250000
possibly eftertryck 0.1250000
important eftertryck 0.1250000
as eftertryck 0.2500000
is öst 0.2500000
account öst 0.2500000
east öst 0.2500000
on öst 0.2500000
the protokollen 0.5000000
minutes protokollen 0.5000000
248 248 1.0000000
helped hjälpte 1.0000000
us uppnå 0.0377358
pursue uppnå 0.0188679
fulfilled uppnå 0.0188679
divide uppnå 0.0188679
be uppnå 0.0754717
achieved uppnå 0.0566038
wants uppnå 0.0188679
follow uppnå 0.0188679
strictness uppnå 0.0188679
gain uppnå 0.0188679
for uppnå 0.0566038
able uppnå 0.0188679
achieve uppnå 0.2830189
making uppnå 0.0188679
achieving uppnå 0.0377358
uniformity uppnå 0.0188679
reach uppnå 0.0566038
feasible uppnå 0.0188679
workable uppnå 0.0188679
to uppnå 0.1320755
them uppnå 0.0188679
found uppnå 0.0188679
refugee flyktingstatus 0.5000000
status flyktingstatus 0.5000000
government exilregeringen 0.3333333
in exilregeringen 0.3333333
exile exilregeringen 0.3333333
solana höge 0.2500000
high höge 0.5000000
office höge 0.2500000
initiatives initiativen 0.5000000
, initiativen 0.5000000
for likt 1.0000000
right-wing högerextremismens 0.5000000
successes högerextremismens 0.5000000
volunteers solidaritetsarbetet 0.1666667
daily solidaritetsarbetet 0.1666667
their solidaritetsarbetet 0.1666667
organise solidaritetsarbetet 0.1666667
a solidaritetsarbetet 0.1666667
basis solidaritetsarbetet 0.1666667
technology tekniken 0.5000000
innovations tekniken 0.5000000
result enheter 0.0625000
a enheter 0.0625000
services enheter 0.1875000
as enheter 0.0625000
should enheter 0.0625000
be enheter 0.0625000
enlarged enheter 0.0625000
, enheter 0.1250000
areas enheter 0.1250000
however enheter 0.0625000
thematic enheter 0.1250000
bombings bombningarna 1.0000000
torrent kaskad 0.2500000
caused kaskad 0.2500000
has kaskad 0.2500000
considerable kaskad 0.2500000
world-wide stormar 0.1250000
storms stormar 0.6250000
wind stormar 0.1250000
occur stormar 0.1250000
point bevakar 0.3333333
are bevakar 0.3333333
watching bevakar 0.3333333
what tillverkningsindustri 0.1666667
industry tillverkningsindustri 0.1666667
thousands tillverkningsindustri 0.1666667
processing tillverkningsindustri 0.1666667
comes tillverkningsindustri 0.1666667
down tillverkningsindustri 0.1666667
mixed blandas 1.0000000
formation bildandet 0.5000000
mr bildandet 0.2500000
an bildandet 0.2500000
members ledamöterna 0.2500000
parliament ledamöterna 0.0714286
floor ledamöterna 0.0357143
radicals ledamöterna 0.0357143
house ledamöterna 0.0357143
meps ledamöterna 0.0714286
delegates ledamöterna 0.0357143
firstly ledamöterna 0.0357143
like ledamöterna 0.0357143
the ledamöterna 0.1071429
president ledamöterna 0.0357143
i ledamöterna 0.0357143
would ledamöterna 0.0357143
of ledamöterna 0.1785714
premises slutsatser 0.0555556
decision slutsatser 0.0555556
conclusions slutsatser 0.6111111
findings slutsatser 0.0555556
its slutsatser 0.0555556
with slutsatser 0.0555556
many slutsatser 0.0555556
present slutsatser 0.0555556
let akta 0.1666667
growth akta 0.1666667
an akta 0.1666667
guard akta 0.1666667
against akta 0.1666667
exponential akta 0.1666667
liberties eller 0.0033113
mind eller 0.0033113
or eller 0.7781457
emphatically eller 0.0033113
disappearance eller 0.0033113
mixing eller 0.0033113
stemming eller 0.0033113
cen eller 0.0033113
contravention eller 0.0033113
generate eller 0.0033113
hears eller 0.0033113
tax eller 0.0033113
we eller 0.0033113
comparison eller 0.0033113
hot eller 0.0033113
steadfast eller 0.0033113
cannot eller 0.0099338
corbett eller 0.0033113
nor eller 0.0099338
thinking eller 0.0033113
barely eller 0.0033113
insurmountable eller 0.0033113
federalism eller 0.0033113
seldom eller 0.0033113
disputes eller 0.0033113
euro eller 0.0033113
, eller 0.0033113
preserving eller 0.0033113
believes eller 0.0033113
intolerable eller 0.0033113
introduction eller 0.0033113
and eller 0.1026490
mep eller 0.0033113
vacuums eller 0.0033113
did mottog 0.2500000
receive mottog 0.2500000
letter mottog 0.2500000
received mottog 0.2500000
ears nämna 0.0400000
mention nämna 0.3200000
state nämna 0.0400000
forgery nämna 0.0400000
special nämna 0.0400000
also nämna 0.0800000
mentioning nämna 0.0400000
am nämna 0.0400000
venture nämna 0.0400000
cite nämna 0.0400000
to nämna 0.1200000
he nämna 0.0400000
deserves nämna 0.0400000
going nämna 0.0400000
just nämna 0.0400000
functions skall 0.0025094
will skall 0.1292346
defining skall 0.0012547
whilst skall 0.0012547
proposes skall 0.0025094
championed skall 0.0012547
include skall 0.0012547
vintage skall 0.0012547
promised skall 0.0012547
scheme skall 0.0012547
types skall 0.0012547
fifty-fifty skall 0.0012547
do skall 0.0050188
improving skall 0.0012547
accomplished skall 0.0012547
decided skall 0.0012547
palliative skall 0.0012547
liable skall 0.0012547
goods skall 0.0012547
promotion skall 0.0025094
discussion skall 0.0012547
amsterdam skall 0.0012547
users skall 0.0012547
relevant skall 0.0012547
attention skall 0.0025094
shall skall 0.0351317
extension skall 0.0025094
unveiled skall 0.0012547
protect skall 0.0012547
targeted skall 0.0012547
six-month skall 0.0012547
sabotage skall 0.0012547
february skall 0.0012547
embraced skall 0.0012547
designed skall 0.0012547
retrodisplacement skall 0.0012547
priorities skall 0.0025094
overview skall 0.0012547
country skall 0.0012547
tools skall 0.0012547
pinpointing skall 0.0012547
similarly skall 0.0025094
concentrate skall 0.0012547
ought skall 0.0012547
umbrella skall 0.0012547
legitimise skall 0.0012547
operating skall 0.0012547
initiate skall 0.0012547
inequality skall 0.0012547
, skall 0.0388959
prerequisite skall 0.0025094
apply skall 0.0025094
practice skall 0.0025094
formed skall 0.0012547
facilitate skall 0.0012547
combine skall 0.0012547
spheres skall 0.0012547
spectre skall 0.0012547
ignore skall 0.0012547
regulates skall 0.0012547
possess skall 0.0012547
message skall 0.0012547
75 skall 0.0012547
conclusion skall 0.0012547
pretext skall 0.0012547
incur skall 0.0012547
delete skall 0.0012547
employer skall 0.0012547
supposed skall 0.0012547
explain skall 0.0025094
operation skall 0.0012547
going skall 0.0012547
gain skall 0.0012547
stimulate skall 0.0012547
bringing skall 0.0012547
undoubtedly skall 0.0012547
should skall 0.1555834
based skall 0.0012547
makeup skall 0.0012547
mudflats skall 0.0012547
prosecutes skall 0.0012547
attaining skall 0.0012547
kind skall 0.0012547
us skall 0.0025094
pursues skall 0.0012547
conference skall 0.0025094
would skall 0.0075282
obtain skall 0.0012547
legitimacy skall 0.0012547
polluter skall 0.0050188
provide skall 0.0025094
to skall 0.1894605
resolved skall 0.0012547
classic skall 0.0012547
thinks skall 0.0012547
work skall 0.0012547
come skall 0.0050188
pricing skall 0.0012547
cumulatively skall 0.0012547
hampering skall 0.0012547
is skall 0.0526976
authorising skall 0.0012547
wurtz skall 0.0012547
proclaimed skall 0.0012547
am skall 0.0100376
receives skall 0.0012547
funding skall 0.0012547
reminders skall 0.0012547
unconditional skall 0.0012547
fewer skall 0.0012547
possibilities skall 0.0012547
sole skall 0.0012547
must skall 0.0326223
impatient skall 0.0012547
repatriation skall 0.0012547
give skall 0.0012547
funds skall 0.0012547
conjunction skall 0.0012547
ambulances skall 0.0012547
transposing skall 0.0012547
limit skall 0.0025094
voters skall 0.0025094
finance skall 0.0025094
are skall 0.0388959
can skall 0.0125471
excluded skall 0.0025094
observed skall 0.0012547
tackled skall 0.0012547
transposition skall 0.0012547
enter skall 0.0012547
advisers skall 0.0012547
might skall 0.0037641
justification skall 0.0012547
accused skall 0.0012547
fix skall 0.0012547
directing skall 0.0012547
interpreted skall 0.0025094
supervised skall 0.0012547
consultants skall 0.0025094
afresh skall 0.0012547
principle skall 0.0012547
davies skall 0.0012547
designate skall 0.0012547
golan skall 0.0012547
implement skall 0.0012547
delicate skall 0.0012547
mergers skall 0.0012547
coherence skall 0.0012547
cartels skall 0.0012547
lady skall 0.0012547
be skall 0.0627353
employ skall 0.0012547
assured skall 0.0012547
comprehensible skall 0.0012547
altener skall 0.0012547
providing skall 0.0012547
need skall 0.0025094
expectation skall 0.0012547
succeed skall 0.0012547
inter-institutional skall 0.0012547
frankly skall 0.0012547
one-sided skall 0.0012547
suspend skall 0.0012547
reads skall 0.0012547
synonymous skall 0.0012547
priority skall 0.0012547
attributable skall 0.0012547
plates återfinner 0.3333333
reach återfinner 0.3333333
preparing återfinner 0.3333333
problems nyckelproblem 0.5000000
key nyckelproblem 0.5000000
exhibitions får 0.0047393
reality får 0.0047393
lord får 0.0047393
reproduce får 0.0047393
distinct får 0.0047393
ruled får 0.0047393
faces får 0.0047393
having får 0.0047393
none får 0.0047393
get får 0.0142180
forget får 0.0047393
simpson får 0.0047393
gives får 0.0047393
be får 0.0379147
make får 0.0047393
that får 0.0094787
as får 0.0047393
sheep får 0.0094787
bigger får 0.0047393
transpire får 0.0047393
chamber får 0.0047393
technical får 0.0047393
shows får 0.0047393
oblige får 0.0047393
developed får 0.0047393
are får 0.0379147
has får 0.0189573
implications får 0.0047393
in får 0.0047393
along får 0.0047393
french-speaking får 0.0047393
must får 0.1563981
sensible får 0.0047393
needs får 0.0047393
falling-off får 0.0047393
getting får 0.0142180
west får 0.0047393
elaborate får 0.0047393
auspices får 0.0047393
experiencing får 0.0047393
tolerate får 0.0047393
additive får 0.0047393
uphold får 0.0047393
cease får 0.0047393
given får 0.0094787
to får 0.0047393
obtain får 0.0142180
anti-fouling får 0.0047393
again får 0.0047393
bilges får 0.0047393
funded får 0.0047393
handed får 0.0047393
hunt får 0.0047393
receiving får 0.0094787
installation får 0.0047393
vast får 0.0047393
should får 0.0900474
profile får 0.0047393
cannot får 0.0236967
palestinians får 0.0047393
witnessing får 0.0094787
prohibited får 0.0094787
gain får 0.0094787
succeeds får 0.0047393
accredited får 0.0047393
underrepresented får 0.0047393
multinational får 0.0047393
nowadays får 0.0047393
leads får 0.0047393
believing får 0.0047393
leave får 0.0047393
attributed får 0.0047393
fallen får 0.0047393
try får 0.0047393
transitional får 0.0047393
featured får 0.0047393
, får 0.0568720
then får 0.0094787
admit får 0.0047393
expose får 0.0047393
chance får 0.0047393
fingers får 0.0047393
ought får 0.0094787
necessarily får 0.0047393
carrying får 0.0047393
faster får 0.0047393
cycles får 0.0047393
widest får 0.0047393
kosovars får 0.0094787
anticipation får 0.0047393
sometimes får 0.0047393
delay får 0.0047393
may får 0.0189573
giving får 0.0047393
exercise får 0.0047393
value får 0.0047393
course får 0.0047393
together får 0.0047393
receive får 0.0047393
certificate får 0.0094787
heap får 0.0047393
detract får 0.0047393
hears får 0.0047393
will får 0.0284360
, kvalitet 0.0769231
be kvalitet 0.0769231
report kvalitet 0.0769231
quality kvalitet 0.6923077
water kvalitet 0.0769231
experience upplevelse 1.0000000
do högaktuellt 0.1250000
highly högaktuellt 0.1250000
as högaktuellt 0.1250000
we högaktuellt 0.1250000
matter högaktuellt 0.1250000
need högaktuellt 0.1250000
priority högaktuellt 0.1250000
topical högaktuellt 0.1250000
them delsession 0.3333333
part-session delsession 0.3333333
telling delsession 0.3333333
for kompensera 0.2500000
situation kompensera 0.2500000
compensate kompensera 0.5000000
this transportsäkerhet 0.1666667
but transportsäkerhet 0.1666667
safety transportsäkerhet 0.3333333
transport transportsäkerhet 0.3333333
maintained bevarats 0.2500000
been bevarats 0.2500000
far bevarats 0.2500000
so bevarats 0.2500000
on uppmanar 0.1250000
ask uppmanar 0.1750000
build uppmanar 0.0250000
urge uppmanar 0.2750000
call uppmanar 0.1000000
calling uppmanar 0.0250000
would uppmanar 0.2000000
name uppmanar 0.0250000
request uppmanar 0.0250000
are uppmanar 0.0250000
bureau sammanträde 0.0500000
keenness sammanträde 0.0500000
&apos;s sammanträde 0.0500000
meeting sammanträde 0.1000000
s sammanträde 0.1000000
&apos; sammanträde 0.1000000
session sammanträde 0.1000000
part-session sammanträde 0.0500000
sitting sammanträde 0.3000000
, sammanträde 0.1000000
&apos;s generaldirektorat 0.1250000
directorate generaldirektorat 0.1250000
directorates-general generaldirektorat 0.1250000
directorate-general generaldirektorat 0.3750000
its generaldirektorat 0.1250000
dgs generaldirektorat 0.1250000
mr lunchtid 0.5000000
midday lunchtid 0.5000000
qualified kvalificerad 1.0000000
faslane faslane 1.0000000
drew utarbetade 0.3333333
produced utarbetade 0.3333333
1995 utarbetade 0.3333333
who hotad 0.1000000
under hotad 0.1000000
a hotad 0.1000000
loss hotad 0.1000000
complete hotad 0.1000000
are hotad 0.1000000
at hotad 0.1000000
for hotad 0.1000000
fear hotad 0.1000000
threat hotad 0.1000000
erkki erkki 1.0000000
can finansaktörer 0.1666667
be finansaktörer 0.1666667
by finansaktörer 0.1666667
longer finansaktörer 0.1666667
no finansaktörer 0.1666667
ignored finansaktörer 0.1666667
red-green rödgröna 1.0000000
that avtal 0.0357143
ignorance avtal 0.0357143
agreement avtal 0.4285714
within avtal 0.0357143
agreements avtal 0.3928571
such avtal 0.0357143
safeguards avtal 0.0357143
entirety schleicher 0.3333333
overhaul schleicher 0.3333333
schleicher schleicher 0.3333333
down passion 0.1250000
if passion 0.1250000
each passion 0.1250000
water passion 0.1250000
are passion 0.1250000
passion passion 0.1250000
we passion 0.1250000
not passion 0.1250000
too ogrundad 0.2500000
my ogrundad 0.2500000
initial ogrundad 0.2500000
opinion ogrundad 0.2500000
implement sätta 0.0370370
this sätta 0.0370370
a sätta 0.1111111
make sätta 0.0740741
impose sätta 0.0740741
introduce sätta 0.0370370
jeopardise sätta 0.0370370
to sätta 0.4074074
it sätta 0.0740741
stop sätta 0.0370370
achieve sätta 0.0370370
bringing sätta 0.0370370
properly ventileras 0.5000000
debated ventileras 0.5000000
considered 6,07 0.2000000
6.07 6,07 0.2000000
eur 6,07 0.2000000
be 6,07 0.2000000
could 6,07 0.2000000
resumed återupptogs 1.0000000
adopting fi 1.0000000
cars inlämning 0.1000000
in inlämning 0.1000000
no inlämning 0.1000000
cost inlämning 0.2000000
charge inlämning 0.1000000
at inlämning 0.1000000
handed inlämning 0.1000000
of inlämning 0.2000000
interests intresseregister 0.2500000
register intresseregister 0.2500000
&apos; intresseregister 0.2500000
of intresseregister 0.2500000
adequate adekvata 0.4000000
at adekvata 0.2000000
same adekvata 0.2000000
time adekvata 0.2000000
in skämtsam 0.2000000
jest skämtsam 0.2000000
sounded skämtsam 0.2000000
it skämtsam 0.2000000
for skämtsam 0.2000000
my omfångsrikt 0.3333333
extensive omfångsrikt 0.3333333
fear omfångsrikt 0.3333333
question spörsmålet 0.2500000
discuss spörsmålet 0.2500000
it spörsmålet 0.2500000
wishes spörsmålet 0.2500000
warning förvarningssystem 0.2500000
system förvarningssystem 0.2500000
early förvarningssystem 0.2500000
it förvarningssystem 0.2500000
stated förklarade 0.1428571
basis förklarade 0.1428571
declared förklarade 0.1428571
ongoing förklarade 0.1428571
an förklarade 0.1428571
just förklarade 0.1428571
described förklarade 0.1428571
as europé 0.1250000
europeans europé 0.1250000
being europé 0.1250000
advantage europé 0.1250000
an europé 0.1250000
come europé 0.1250000
see europé 0.1250000
european europé 0.1250000
maritime havsvärlden 0.3333333
world havsvärlden 0.3333333
the havsvärlden 0.3333333
the 37.2 1.0000000
aims syftena 1.0000000
affect hävdar 0.0666667
situations hävdar 0.0666667
argue hävdar 0.0666667
would hävdar 0.0666667
contends hävdar 0.0666667
make hävdar 0.0666667
that hävdar 0.1333333
everyone hävdar 0.0666667
me hävdar 0.0666667
will hävdar 0.0666667
maintain hävdar 0.1333333
tell hävdar 0.0666667
alike hävdar 0.0666667
vintage samlarfordon 1.0000000
say fullständiga 0.1428571
to fullständiga 0.1428571
complete fullständiga 0.4285714
renounces fullständiga 0.1428571
exhaustive fullständiga 0.1428571
messages tillkännagivandena 0.3333333
sent tillkännagivandena 0.3333333
out tillkännagivandena 0.3333333
agricultural jordbruksområden 0.3333333
solely jordbruksområden 0.3333333
regions jordbruksområden 0.3333333
prosecutors nationella 0.0103093
national nationella 0.9175258
alleanza nationella 0.0103093
salvation nationella 0.0103093
whom nationella 0.0103093
distorting nationella 0.0103093
statutes nationella 0.0103093
nationally nationella 0.0103093
desk nationella 0.0103093
of konkurrensfrågor 0.2500000
matters konkurrensfrågor 0.2500000
competition konkurrensfrågor 0.2500000
law konkurrensfrågor 0.2500000
of logik 0.2000000
&apos; logik 0.1000000
terms logik 0.2000000
logic logik 0.2000000
rationale logik 0.1000000
seemed logik 0.1000000
and logik 0.1000000
extent utsträckningen 0.5000000
if utsträckningen 0.5000000
exhaust gränsvärdena 1.0000000
mudflats strandremsa 0.4000000
was strandremsa 0.2000000
at strandremsa 0.2000000
stegrennan strandremsa 0.2000000
rapkay rapkays 0.2500000
s rapkays 0.2500000
&apos; rapkays 0.2500000
mr rapkays 0.2500000
forgetfulness glömskan 0.5000000
the glömskan 0.5000000
along kusterna 0.1250000
coastline kusterna 0.1250000
scale kusterna 0.1250000
and kusterna 0.1250000
coast kusterna 0.1250000
almost kusterna 0.1250000
certainly kusterna 0.1250000
could kusterna 0.1250000
double-hulled skrov 0.3333333
vessels skrov 0.6666667
s poetterings 0.2500000
out poetterings 0.2500000
poettering poetterings 0.2500000
mr poetterings 0.2500000
contribution bidraget 0.5000000
most bidraget 0.5000000
reasons leader-programmens 0.3333333
aroused leader-programmens 0.3333333
basic leader-programmens 0.3333333
legislation vattenlagstiftningen 0.2000000
s vattenlagstiftningen 0.2000000
fragmentation vattenlagstiftningen 0.2000000
&apos; vattenlagstiftningen 0.2000000
water vattenlagstiftningen 0.2000000
will fullständig 0.1052632
perfectly fullständig 0.2105263
stagnation fullständig 0.0526316
is fullständig 0.0526316
complete fullständig 0.2105263
and fullständig 0.0526316
disclosure fullständig 0.0526316
at fullständig 0.1052632
full fullständig 0.1052632
absolute fullständig 0.0526316
terms välfärdsvinster 0.3333333
benefits välfärdsvinster 0.3333333
welfare välfärdsvinster 0.3333333
province helsike 0.1428571
hell helsike 0.1428571
some helsike 0.1428571
broke helsike 0.1428571
all helsike 0.1428571
fact helsike 0.1428571
loose helsike 0.1428571
mrs thyssen 0.3750000
thyssen thyssen 0.3750000
raised thyssen 0.1250000
issue thyssen 0.1250000
gain folk 0.0384615
promised folk 0.0384615
nation folk 0.0384615
nations folk 0.0384615
redundancies folk 0.0384615
people folk 0.6538462
impatient folk 0.0384615
peoples folk 0.1153846
was inleddes 0.1428571
action inleddes 0.1428571
on inleddes 0.1428571
nato inleddes 0.1428571
began inleddes 0.2857143
launched inleddes 0.1428571
9.55 21.55 0.5000000
p.m. 21.55 0.5000000
taken avförs 0.2500000
off avförs 0.2500000
be avförs 0.2500000
item avförs 0.2500000
convening när 0.0027322
inspections när 0.0027322
noticed när 0.0027322
three-month när 0.0027322
excellence när 0.0027322
if när 0.0273224
jurisdictions när 0.0027322
saying när 0.0027322
lose när 0.0027322
space när 0.0027322
presents när 0.0027322
zero när 0.0027322
preussag när 0.0027322
regard när 0.0163934
disappointed när 0.0027322
exposing när 0.0027322
discretion när 0.0027322
incident när 0.0027322
ironic när 0.0027322
cleanliness när 0.0027322
europeans när 0.0027322
wary när 0.0027322
upon när 0.0027322
symbolic när 0.0027322
audits när 0.0027322
quota när 0.0027322
formulating när 0.0027322
define när 0.0027322
undertake när 0.0027322
correct när 0.0081967
players när 0.0027322
disagreed när 0.0027322
considering när 0.0027322
amoco när 0.0027322
mind när 0.0027322
roots när 0.0027322
anxiety när 0.0027322
halfway när 0.0027322
passed när 0.0027322
alleviate när 0.0027322
regarding när 0.0054645
tools när 0.0027322
amounts när 0.0027322
vigilant när 0.0054645
expresses när 0.0027322
drafting när 0.0027322
, när 0.0054645
finally när 0.0027322
spot när 0.0027322
byrne när 0.0027322
since när 0.0027322
similar när 0.0027322
behaviour när 0.0027322
leaders när 0.0027322
den när 0.0027322
qualifying när 0.0027322
administration-wise när 0.0027322
assessing när 0.0027322
implementation när 0.0027322
blamed när 0.0027322
justified när 0.0027322
timber när 0.0027322
constitution när 0.0027322
neighbourly när 0.0027322
receive när 0.0027322
once när 0.0191257
introduce när 0.0027322
matches när 0.0027322
incorporating när 0.0027322
gets när 0.0027322
whereas när 0.0027322
one-sided när 0.0027322
evaluation när 0.0054645
cleared när 0.0027322
waffling när 0.0027322
add när 0.0027322
nazi när 0.0027322
remarkable när 0.0027322
joined när 0.0027322
conservatives när 0.0027322
vis-à-vis när 0.0027322
element när 0.0027322
after när 0.0191257
generation när 0.0027322
nearly när 0.0027322
retirement när 0.0027322
from när 0.0027322
looking när 0.0027322
at när 0.0163934
issuing när 0.0027322
management när 0.0027322
as när 0.0327869
milestone när 0.0027322
on när 0.0109290
solbes när 0.0027322
driving när 0.0027322
starts när 0.0027322
ultimately när 0.0054645
embarking när 0.0027322
transposition när 0.0027322
evidence när 0.0027322
whenever när 0.0027322
terms när 0.0191257
where när 0.0136612
acting när 0.0027322
acceptable när 0.0027322
happened när 0.0054645
in när 0.1284153
transposing när 0.0027322
concerned när 0.0081967
judging när 0.0027322
fewer när 0.0027322
tight när 0.0027322
selection när 0.0027322
relation när 0.0081967
producing när 0.0027322
impressed när 0.0027322
released när 0.0027322
closures när 0.0027322
installations när 0.0027322
wallström när 0.0027322
pertaining när 0.0027322
expired när 0.0027322
feedingstuffs när 0.0027322
openness när 0.0027322
relating när 0.0054645
central när 0.0109290
maritime när 0.0027322
transparency när 0.0027322
vague när 0.0027322
regards när 0.0054645
when när 0.3196721
technically säkraste 0.2500000
safest säkraste 0.5000000
surest säkraste 0.2500000
group socialistgruppen 0.3333333
the socialistgruppen 0.3333333
socialist socialistgruppen 0.3333333
time simma 0.5000000
no simma 0.5000000
pronounced markanta 1.0000000
&apos; schroedters 0.1818182
s schroedters 0.1818182
mrs schroedters 0.1818182
report schroedters 0.0909091
schroedter schroedters 0.2727273
marks schroedters 0.0909091
climatic klimatiska 1.0000000
unemployed arbetslösas 1.0000000
nonetheless fyllt 0.3333333
partly fyllt 0.3333333
achieved fyllt 0.3333333
polluters förbrukaren 0.5000000
consumers förbrukaren 0.5000000
indivisible odelbara 1.0000000
president eu-stater 0.5000000
madam eu-stater 0.5000000
vital viktigt 0.0145985
needs viktigt 0.0072993
imperative viktigt 0.0072993
important viktigt 0.7372263
crucial viktigt 0.0218978
successes viktigt 0.0072993
contrary viktigt 0.0072993
compensating viktigt 0.0072993
disadvantaged viktigt 0.0072993
necessary viktigt 0.0145985
geared viktigt 0.0072993
stressed viktigt 0.0072993
ruiz viktigt 0.0072993
essential viktigt 0.0510949
coordination viktigt 0.0072993
importantly viktigt 0.0072993
importance viktigt 0.0218978
farming viktigt 0.0072993
boards viktigt 0.0072993
complex viktigt 0.0072993
carry viktigt 0.0072993
room viktigt 0.0072993
extremely viktigt 0.0072993
goal viktigt 0.0072993
a viktigt 0.0072993
read omstruktureringar 0.3333333
restructure omstruktureringar 0.3333333
restructuring omstruktureringar 0.3333333
forms stödmottagaren 0.1666667
effort stödmottagaren 0.1666667
an stödmottagaren 0.1666667
beneficiary stödmottagaren 0.1666667
are stödmottagaren 0.1666667
from stödmottagaren 0.1666667
deal behandla 0.2500000
afternoon behandla 0.1250000
any behandla 0.1250000
linked behandla 0.1250000
with behandla 0.1250000
study behandla 0.1250000
process behandla 0.1250000
descriptive beskrivande 1.0000000
unfortunate olyckligt 1.0000000
purchase inköp 1.0000000
components grepp 0.1666667
hold grepp 0.1666667
excessive grepp 0.1666667
an grepp 0.1666667
over grepp 0.1666667
second-hand grepp 0.1666667
growing växande 1.0000000
construction byggets 1.0000000
reconcile försona 1.0000000
worst värsta 0.8000000
epithet värsta 0.2000000
for spelen 0.2500000
your spelen 0.2500000
efforts spelen 0.2500000
medal spelen 0.2500000
message gav 0.0833333
gave gav 0.4166667
clarification gav 0.0833333
itself gav 0.0833333
china gav 0.0833333
approved gav 0.0833333
yield gav 0.0833333
successive gav 0.0833333
eight åtta 1.0000000
criticising faktum 0.0208333
remoteness faktum 0.0208333
fact faktum 0.7916667
promotes faktum 0.0208333
in faktum 0.0208333
the faktum 0.0208333
fails faktum 0.0208333
liable faktum 0.0208333
precursor faktum 0.0208333
squabbles faktum 0.0208333
penny faktum 0.0208333
on medicinsk 1.0000000
copyright institution 0.1250000
dishonour institution 0.1250000
institution institution 0.7500000
consumption livsmedelskonsumtion 0.1666667
for livsmedelskonsumtion 0.1666667
protection livsmedelskonsumtion 0.1666667
health livsmedelskonsumtion 0.1666667
place livsmedelskonsumtion 0.1666667
food livsmedelskonsumtion 0.1666667
these motsvara 0.2000000
effort motsvara 0.2000000
make motsvara 0.2000000
every motsvara 0.2000000
respond motsvara 0.2000000
been lett 0.2000000
depopulation lett 0.1000000
led lett 0.4000000
contributed lett 0.1000000
acted lett 0.1000000
rationalisation lett 0.1000000
sake öppenhetens 0.2500000
accept öppenhetens 0.2500000
agree öppenhetens 0.2500000
transparency öppenhetens 0.2500000
present toxiska 0.3333333
chromium toxiska 0.3333333
high toxiska 0.3333333
like skandaler 0.2500000
states skandaler 0.2500000
scandals skandaler 0.2500000
failure skandaler 0.2500000
be framförhandlad 0.5000000
negotiated framförhandlad 0.5000000
major miljöproblem 0.1666667
problems miljöproblem 0.3333333
environmental miljöproblem 0.3333333
causing miljöproblem 0.1666667
amounts beloppen 0.3333333
specifying beloppen 0.1666667
think beloppen 0.1666667
aside beloppen 0.1666667
amount beloppen 0.1666667
approach regionalpolitiska 0.1666667
her regionalpolitiska 0.1666667
policy regionalpolitiska 0.3333333
regional regionalpolitiska 0.3333333
adopt föra 0.0322581
to föra 0.0645161
be föra 0.0322581
have föra 0.0645161
cover föra 0.0322581
record föra 0.0322581
b föra 0.0322581
having föra 0.0645161
touches föra 0.0322581
reinstated föra 0.0322581
decide föra 0.0322581
conduct föra 0.1290323
part föra 0.0322581
fragmented föra 0.0322581
ingredients föra 0.0322581
communicate föra 0.0322581
interinstitutional föra 0.0322581
maximised föra 0.0322581
emulation föra 0.0322581
orchestrate föra 0.0322581
this föra 0.0645161
holding föra 0.0322581
largest föra 0.0322581
should föra 0.0322581
non-governmental bekymrad 0.2000000
concerned bekymrad 0.6000000
internally bekymrad 0.2000000
souladakis talman 0.0023641
parliament talman 0.0023641
. talman 0.0047281
dilution talman 0.0023641
or talman 0.0023641
dimitrakopoulos talman 0.0023641
treaty talman 0.0023641
leave talman 0.0023641
specialising talman 0.0023641
establishing talman 0.0023641
contacts talman 0.0023641
amsterdam talman 0.0023641
you talman 0.0023641
conclude talman 0.0023641
not talman 0.0023641
imminent talman 0.0023641
foster talman 0.0023641
president talman 0.9361702
something talman 0.0023641
openly talman 0.0023641
this talman 0.0023641
can talman 0.0023641
moment talman 0.0023641
take talman 0.0023641
detail talman 0.0023641
sjöstedt talman 0.0023641
go talman 0.0023641
reform reformarbete 0.5000000
work reformarbete 0.5000000
union anmärkningsvärt 0.1666667
monetary anmärkningsvärt 0.1666667
taken anmärkningsvärt 0.1666667
by anmärkningsvärt 0.1666667
remarkable anmärkningsvärt 0.3333333
they omprövar 0.5000000
reconsider omprövar 0.5000000
border gränskonflikter 0.3333333
importing gränskonflikter 0.3333333
conflicts gränskonflikter 0.3333333
visual visuella 1.0000000
policy miljöpolicyavtal 0.3333333
voluntary miljöpolicyavtal 0.3333333
environmental miljöpolicyavtal 0.3333333
out slippa 0.1666667
inspections slippa 0.1666667
carrying slippa 0.1666667
relieved slippa 0.1666667
either slippa 0.1666667
task slippa 0.1666667
council medgivits 1.0000000
stated konstaterat 0.2000000
said konstaterat 0.2000000
biannual konstaterat 0.2000000
here konstaterat 0.2000000
concluded konstaterat 0.2000000
food näringskedja 0.3333333
feedingstuffs näringskedja 0.3333333
chain näringskedja 0.3333333
did tals 0.2000000
either tals 0.2000000
not tals 0.2000000
me tals 0.2000000
call tals 0.2000000
vain förgäves 0.5000000
in förgäves 0.5000000
over anslagsfördelningen 0.5000000
funding anslagsfördelningen 0.5000000
delegates uttalar 0.0909091
put uttalar 0.0909091
declares uttalar 0.0909091
internal uttalar 0.0909091
. uttalar 0.0909091
shocked uttalar 0.0909091
am uttalar 0.0909091
market uttalar 0.0909091
forward uttalar 0.0909091
favour uttalar 0.0909091
rise uttalar 0.0909091
openly dags 0.0357143
there dags 0.0357143
raised dags 0.0357143
has dags 0.0714286
deciding dags 0.0357143
time dags 0.4642857
comes dags 0.0357143
for dags 0.0714286
action dags 0.0714286
when dags 0.0357143
hands dags 0.0357143
come dags 0.0714286
costly oerhört 0.0909091
extremely oerhört 0.4545455
an oerhört 0.0909091
huge oerhört 0.0909091
vitally oerhört 0.1818182
incorporated oerhört 0.0909091
99 99 1.0000000
legislation lagstiftar 0.3333333
permit lagstiftar 0.3333333
legislate lagstiftar 0.3333333
with utvidgar 0.1428571
tandem utvidgar 0.1428571
extension utvidgar 0.1428571
more utvidgar 0.1428571
into utvidgar 0.1428571
put utvidgar 0.1428571
practice utvidgar 0.1428571
what inbjudan 0.0833333
took inbjudan 0.0833333
themselves inbjudan 0.0833333
be inbjudan 0.0833333
correctly inbjudan 0.0833333
advantage inbjudan 0.0833333
. inbjudan 0.0833333
this inbjudan 0.0833333
should inbjudan 0.0833333
determine inbjudan 0.0833333
invitation inbjudan 0.1666667
an tydliggöra 0.1666667
make tydliggöra 0.1666667
alternative tydliggöra 0.1666667
view tydliggöra 0.1666667
clear tydliggöra 0.1666667
it tydliggöra 0.1666667
common ståndpunkt 0.0298507
position ståndpunkt 0.4776119
on ståndpunkt 0.0298507
harder ståndpunkt 0.0149254
&apos; ståndpunkt 0.1641791
opinion ståndpunkt 0.0447761
s ståndpunkt 0.1641791
matter ståndpunkt 0.0149254
views ståndpunkt 0.0149254
alter ståndpunkt 0.0149254
stand ståndpunkt 0.0298507
awaits vilar 0.5000000
is vilar 0.5000000
on jordbrukarnas 0.5000000
living jordbrukarnas 0.5000000
your enighet 0.1000000
demonstrated enighet 0.1000000
fact enighet 0.1000000
agreement enighet 0.2000000
with enighet 0.1000000
consensus enighet 0.3000000
reaching enighet 0.1000000
after bnp 0.1428571
gnp bnp 0.1428571
at bnp 0.1428571
all bnp 0.1428571
gdp bnp 0.4285714
superstate överstaten 0.2500000
standardising överstaten 0.2500000
break överstaten 0.2500000
up överstaten 0.2500000
, konventioner 0.4000000
such konventioner 0.2000000
conventions konventioner 0.4000000
into visionen 0.2500000
translate visionen 0.2500000
vision visionen 0.5000000
sovereignties suveräna 1.0000000
irish irländska 0.9000000
on irländska 0.1000000
similar vidtagna 0.5000000
taken vidtagna 0.5000000
boosts förbättrar 0.3333333
migratory förbättrar 0.3333333
present förbättrar 0.3333333
! förkromade 0.5000000
grand förkromade 0.5000000
educational utbildningspolitiken 0.5000000
policy utbildningspolitiken 0.5000000
long-term långsiktig 1.0000000
namely planerats 0.1250000
mentioned planerats 0.1250000
on planerats 0.1250000
hydro-electric planerats 0.1250000
but planerats 0.1250000
refer planerats 0.1250000
want planerats 0.1250000
agenda planerats 0.1250000
competition-related konkurrensstörningar 0.5000000
disturbances konkurrensstörningar 0.5000000
with häftiga 0.1428571
particularly häftiga 0.1428571
severe häftiga 0.1428571
so häftiga 0.1428571
regard häftiga 0.1428571
legitimately häftiga 0.1428571
outrage häftiga 0.1428571
motion votering 0.2000000
parliament votering 0.2000000
are votering 0.2000000
going votering 0.2000000
for votering 0.2000000
serious starka 0.0769231
types starka 0.0769231
full starka 0.0769231
strong starka 0.3846154
strengths starka 0.0769231
