
\data\
ngram 1=91
ngram 2=1246
ngram 3=4236

\1-grams:
-4.710526	!	-0.2155253
-5.187648	"	-0.2130906
-5.187648	'	-0.2130906
-3.34255	(	-1.763319
-3.087277	)	-2.015864
-4.886618	*	-0.03944439
-1.898282	,	-3.163458
-4.710526	-	-0.4815948
-2.214058	.	-1.923526
-2.528683	/	-2.571977
-3.355139	0	-1.747646
-2.845225	1	-2.230062
-3.073704	2	-0.77433
-3.142325	3	-0.689411
-3.238258	4	-1.163488
-3.395256	5	-1.005435
-3.154224	6	-0.7109219
-3.402318	7	-0.8037252
-3.355139	8	-0.947854
-3.619446	9	-0.7011042
-2.677103	:	-1.05276
-3.22386	;	-1.880544
-0.736829	</s>
-99	<s>	-2.427574
-3.789708	?	-1.327034
-2.886618	A	-0.4531321
-2.80925	B	-1.132482
-3.279163	C	-0.3646603
-3.002956	D	-1.17887
-2.867501	E	-0.6482962
-2.87378	F	-0.6725687
-3.083844	G	-0.875549
-2.692103	H	-1.404008
-3.336389	I	-0.8847139
-2.970164	J	-1.258629
-2.654893	K	-0.6718073
-2.81658	L	-1.288261
-2.732803	M	-1.056553
-2.925196	N	-0.8406346
-2.897613	O	-0.8796403
-2.706205	P	-1.522946
-4.34255	Q	-0.6575817
-2.803832	R	-1.513146
-2.428736	S	-1.038596
-3.000127	T	-1.182099
-3.52489	U	-0.8703479
-3.228606	V	-0.7778305
-3.807436	W	-0.3324585
-5.187648	X	-0.3008298
-4.409496	Y	-0.5441695
-4.073704	\	-1.058189
-4.886618	]	-0.03944439
-1.162711	a	-2.302159
-1.984071	b	-2.735723
-1.935523	c	-2.203285
-1.412985	d	-1.870845
-1.137655	e	-2.063823
-1.829142	f	-1.478159
-1.606381	g	-1.448309
-1.670716	h	-1.757085
-1.400258	i	-2.055533
-2.360925	j	-1.169007
-1.707928	k	-1.519425
-1.35533	l	-1.656402
-1.594583	m	-1.37513
-1.183283	n	-1.788543
-1.479737	o	-2.474326
-2.091433	p	-0.6076377
-4.886618	q	-0.4710543
-1.225657	r	-1.794359
-1.299693	s	-1.639269
-1.231864	t	-2.523529
-1.867709	u	-1.459272
-1.75548	v	-1.541237
-3.506406	w	-1.590801
-3.273834	x	-0.5184098
-2.406611	y	-0.9899203
-3.409496	z	-0.1327035
-5.187648	|	-0.2130906
-3.258229	§	-1.846266
-4.187648	½	-0.9534534
-3.52489	Ä	-0.3812572
-3.82592	Å	-0.1346029
-3.865428	Ö	-0.3061969
-4.146255	ß	-1.030534
-1.7251	ä	-1.987665
-1.850588	å	-1.95391
-1.871887	ö	-2.214836
-3.983528	—	-1.14251
-4.146255	…	-0.9806967
-4.886618	₥	-0.03944439

\2-grams:
-0.4771213	! !
-0.7708977	! </s>
-0.30103	" </s>
-0.30103	' </s>
-0.006160309	( </s>
-0.003433176	) </s>
-0.5948065	* </s>
-0.0004461166	, </s>
-3.289589	, a
-0.60206	- </s>
-0.60206	- t
-0.60206	- Ä
-3.603598	. .	1.159497
-2.97359	. 1
-3.267366	. 3
-2.97359	. 7
-0.006978637	. </s>
-2.97359	. D
-2.97359	. b
-2.86984	. m	-0.7005481
-2.97359	. r
-0.0009513574	/ </s>
-1.236789	0 0	-0.05235991
-1.838849	0 1
-1.838849	0 2
-1.838849	0 3
-1.838849	0 4
-1.838849	0 :
-0.06799708	0 </s>
-1.140272	1 0	0.1118504
-1.303	1 1	-0.5955562
-1.065639	1 2	-0.7189759
-1.230449	1 3	-0.2589521
-1.230449	1 4	-0.3686733
-1.441302	1 5	-0.1326471
-0.6454223	1 6	-0.2714657
-1.00197	1 7	-0.02472686
-1.303	1 8	0.06612958
-1.566241	1 9	-0.3005372
-2.344392	1 :
-0.663151	1 </s>
-2.344392	1 i
-2.344392	1 ½
-1.210853	2 0	0.2560008
-2.010194	2 1	-0.5944947
-1.511883	2 2	-0.5766062
-1.511883	2 3	0.3559329
-1.113943	2 4	-0.5971527
-1.692339	2 5	-0.07271255
-1.692339	2 6	-0.3967974
-2.010194	2 7	-0.420661
-2.743951	2 8	-1.379394
-2.113943	2 9
-1.113943	2 :	-0.3812711
-0.2878686	2 </s>
-2.113943	2 o
-1.267172	3 0	0.08405358
-1.941574	3 1	-0.5944947
-2.675331	3 2	-0.2042794
-2.675331	3 3	0.03507907
-2.339099	3 4	-0.1281819
-2.339099	3 6	-0.1410582
-2.339099	3 9	-0.1181636
-1.941574	3 :
-0.142233	3 </s>
-2.045323	3 A
-2.045323	3 d
-2.045323	3 ½
-0.64836	4 0	-0.4833702
-1.94939	4 1
-2.243166	4 2	-0.2578192
-2.243166	4 3	-0.01846069
-1.94939	4 5
-1.845641	4 7	-0.01074438
-1.94939	4 :
-0.1935152	4 </s>
-1.94939	4 d
-1.94939	4 ½
-1.688642	5 0	0.1380083
-1.792392	5 1
-1.190332	5 2	-0.08403785
-1.688642	5 3	-0.2900061
-1.792392	5 4
-1.792392	5 5
-2.086168	5 7	-0.2922421
-1.792392	5 8
-1.792392	5 :
-0.148939	5 </s>
-1.792392	5 V
-2.3272	6 0
-1.929674	6 1	-0.1845781
-1.929674	6 2	0.02367854
-2.3272	6 3
-1.431364	6 4	-0.446969
-1.929674	6 5	0.2461949
-1.255273	6 6	-0.2057696
-1.61182	6 7	-0.07250085
-1.431364	6 8
-1.929674	6 9
-2.3272	6 :
-0.2009148	6 </s>
-2.033424	6 t
-1.18327	7 0	-0.05235991
-1.78533	7 1
-1.007179	7 2	0.09244279
-2.079106	7 3
-2.079106	7 4
-1.78533	7 5
-1.78533	7 6
-1.78533	7 7
-0.8822398	7 8	0.4894128
-2.415338	7 9	-0.144533
-1.78533	7 :
-0.3229318	7 </s>
-1.72876	8 0	0.5479249
-1.230449	8 1	-0.3595997
-1.832509	8 3
-2.126285	8 4	-0.1281819
-1.832509	8 5
-2.126285	8 6	-0.1410582
-2.126285	8 7	-0.2922421
-1.832509	8 8
-1.832509	8 9
-1.832509	8 :
-0.1335389	8 </s>
-1.861978	9 0	0.2664272
-1.568202	9 2
-1.568202	9 3
-1.861978	9 4	-0.1281819
-1.861978	9 6	-0.1410582
-1.568202	9 7
-1.568202	9 8
-1.568202	9 9
-1.861978	9 :
-0.1879905	9 </s>
-2.088941	: 1	-0.658999
-3.140553	: 2	-0.6004187
-2.510545	: 3
-2.510545	: 4
-0.4731185	: </s>
-2.510545	: B
-2.510545	: H
-2.510545	: K
-2.510545	: M
-1.607455	: d	0.1557761
-2.804322	: l	-0.5652711
-2.510545	: m
-1.112605	: n	-0.9699692
-1.510545	: o	-1.030188
-0.5237733	: r	-1.817383
-2.406796	: s	-0.592699
-0.8029748	: t	-1.003244
-0.004695121	; </s>
-4.744595	<s> !
-4.450819	<s> "
-4.450819	<s> '
-2.605721	<s> (	0
-2.350448	<s> )	0
-4.744595	<s> *	-0.4450382
-1.161676	<s> ,	-0.300807
-1.532788	<s> .	-0.9102721
-1.791854	<s> /	0
-2.186001	<s> 1	0.1358728
-2.558724	<s> 2	-0.396792
-2.581587	<s> 3	-0.2300874
-2.743248	<s> 4	0.03058788
-2.859754	<s> 5	0.006729828
-2.871035	<s> 6	-0.4236086
-3.172065	<s> 7	-0.3921539
-2.882617	<s> 8	-0.6296884
-3.195546	<s> 9	-0.1270809
-2.468547	<s> :	-1.808665
-2.487031	<s> ;	0
-3.052879	<s> ?	0
-2.158562	<s> A	-0.3016455
-2.079751	<s> B	-0.2587681
-2.542334	<s> C	-0.4776089
-2.3016	<s> D	-0.6554434
-2.141188	<s> E	-0.3191533
-2.139065	<s> F	-0.5849137
-2.347015	<s> G	-0.7418339
-1.96086	<s> H	-0.3898033
-2.605721	<s> I	-0.135228
-2.233335	<s> J	-0.2843628
-1.920619	<s> K	-0.6645058
-2.083463	<s> L	-0.4459763
-1.999032	<s> M	-0.6571997
-2.202845	<s> N	-0.5927231
-2.167517	<s> O	-0.2619959
-1.970812	<s> P	-0.02801021
-4.029215	<s> Q	-0.0848944
-2.081603	<s> R	-0.5151045
-1.701082	<s> S	-0.5762179
-2.271842	<s> T	-0.2133326
-2.797606	<s> U	-0.2531664
-2.511299	<s> V	-0.383104
-3.070607	<s> W	-0.5219686
-4.450819	<s> X
-3.672667	<s> Y	-0.08308994
-3.336875	<s> \	0
-4.744595	<s> ]	-0.4450382
-1.330245	<s> a	-1.976006
-1.426333	<s> b	-1.092032
-5.080826	<s> c	-0.2819905
-1.24184	<s> d	-1.737404
-1.550451	<s> e	-1.737761
-1.329916	<s> f	-2.274948
-1.840158	<s> g	-1.671632
-1.28085	<s> h	-1.587351
-1.404323	<s> i	-1.858041
-2.631275	<s> j	-1.308982
-1.790902	<s> k	-2.231275
-1.86762	<s> l	-2.630153
-1.508314	<s> m	-2.141789
-1.740701	<s> n	-2.215832
-1.265276	<s> o	-0.9500376
-1.861987	<s> p	-1.851456
-1.992937	<s> r	-1.926516
-1.067003	<s> s	-2.202111
-1.502406	<s> t	-2.273442
-1.645998	<s> u	-2.463061
-1.385986	<s> v	-2.057294
-3.496576	<s> w	-0.4608331
-3.035845	<s> y	-0.7515587
-4.450819	<s> z
-4.450819	<s> |
-2.526539	<s> §	-0.2908109
-4.029215	<s> ½	0.2132315
-2.81735	<s> Ä	-0.6359486
-3.089091	<s> Å	-0.4249171
-3.128599	<s> Ö	-0.4487514
-1.86762	<s> ä	-0.6826965
-2.145467	<s> å	-1.110938
-2.417395	<s> ö	-0.4836074
-3.246699	<s> —	0
-3.450819	<s> …	-0.2632414
-4.744595	<s> ₥	-0.4450382
-0.01703334	? </s>
-2.594806	A :	-0.5588066
-2.197281	A </s>
-2.30103	A H
-2.197281	A N	-0.289716
-2.30103	A T
-2.594806	A a	-0.4999384
-2.197281	A b	-0.2478443
-2.30103	A c
-2.594806	A d
-2.197281	A f	-0.6405328
-2.30103	A g
-2.594806	A h	-0.5687078
-2.197281	A k	-0.1755684
-1.022276	A l	-0.4840198
-2.594806	A m
-0.2328441	A n	-1.439798
-2.30103	A o
-1.522879	A p	-0.9090914
-1.259637	A r	-0.9831755
-2.197281	A t	-0.6326742
-2.594806	A u
-1.39794	A v	-0.4622008
-1.69897	A x	-0.80347
-2.672174	B </s>
-1.035975	B a	-0.9185569
-0.6075459	B e	-0.5027323
-0.9981866	B i	-0.6776394
-1.776338	B j	-0.1835505
-1.475308	B l	-0.6416899
-1.035975	B o	-0.2994813
-0.6075459	B r	-1.222374
-1.776338	B u	-0.3834081
-1.424155	B y	-0.9244847
-2.274648	B ä	-0.6247921
-1.956794	B å	-0.256278
-1.174278	B ö	-0.3904078
-2.202261	C </s>
-1.908485	C H
-0.3899711	C a	-0.7688684
-2.202261	C e	-0.4891808
-0.4771213	C h	-1.319392
-1.804736	C i	-0.6827547
-2.538493	C l	-0.4782556
-2.202261	C n	-0.5668399
-1.804736	C o	-0.2140513
-2.202261	C r
-1.908485	C y
-2.184691	D .
-1.281601	D :	-0.7997233
-2.184691	D </s>
-0.7867514	D a	-0.6120625
-0.6406234	D e	-0.9382136
-2.814699	D i	-0.1481262
-1.40654	D j	-0.8374478
-0.8229636	D o	-0.7611671
-1.40654	D r	-0.1742483
-2.184691	D u
-0.7697181	D ä	-1.252569
-1.184691	D å	-0.8847456
-1.40654	D ö	-0.7275477
-2.320146	E </s>
-2.216397	E R
-1.417056	E d	0.01872512
-2.613923	E e	-0.5437011
-1.365904	E f	-0.939692
-2.320146	E h
-2.320146	E j
-1.116026	E k	-0.5608475
-1.116026	E l	-0.4265009
-2.950154	E m	-0.4422209
-1.898542	E n	-0.3773615
-2.320146	E p
-0.2748233	E r	-1.351532
-2.216397	E s
-1.541995	E t	-0.6866289
-2.320146	E u
-1.240965	E v	-0.9746964
-2.320146	E w
-1.718086	E x	-0.1838162
-2.320146	E z
-2.313867	F </s>
-0.7575647	F a	-0.605416
-2.943875	F e	-0.3643243
-2.943875	F i	-0.283275
-2.210118	F j	-0.586768
-2.607644	F l
-0.9916479	F o	-0.8948627
-1.035114	F r	-0.5099794
-2.313867	F u
-1.711807	F y	-0.781345
-1.892263	F ä	-0.2368748
-2.210118	F å	-0.2346704
-0.318232	F ö	-1.556093
-2.103804	G U
-2.733812	G a	-0.6270124
-1.103804	G e	-0.3104023
-1.024622	G i	-0.5521085
-2.000054	G o	-0.2709882
-0.9898604	G r	-0.491638
-0.2976238	G u	-1.298755
-1.501744	G ä	-0.01923402
-2.733812	G å	-0.3020451
-1.103804	G ö	-0.4094578
-2.495544	H .
-0.9770304	H :	-1.363995
-2.495544	H A
-2.391795	H E	-0.2882775
-0.7631506	H a	-0.8136609
-0.5043182	H e	-1.431128
-1.717393	H i	-0.6804762
-2.789321	H j
-1.173325	H o	-0.3777899
-3.125552	H r	-0.3494937
-1.018423	H u	-0.6858335
-2.495544	H y
-1.173325	H ä	-0.5643452
-1.717393	H å	-0.4425686
-1.004183	H ö	-0.7670448
-0.8512583	I </s>
-1.851258	I A
-2.145035	I V	-0.5699887
-2.145035	I c	-0.423074
-1.851258	I e
-1.249198	I f	-0.516896
-1.851258	I g
-0.3071903	I n	-0.7758952
-2.145035	I o
-1.851258	I s
-0.7720771	I t	-1.053416
-2.511261	J </s>
-1.041393	J a	-0.2120435
-2.511261	J d	-0.2920528
-1.439333	J e	-0.7268184
-2.511261	J n	-0.5326943
-0.2584426	J o	-2.101499
-1.314394	J u	-0.2645094
-1.263241	J ä	-0.5324377
-0.7403627	J ö	-0.9905143
-2.532754	K :
-2.111151	K </s>
-0.6635227	K a	-0.7577249
-1.386626	K e	-0.5442934
-2.429005	K g	-0.6915157
-2.532754	K h
-3.162762	K i	-0.2820117
-2.429005	K j	-0.2579921
-1.070356	K l	-1.175472
-1.578512	K n	-0.3406427
-0.8992859	K o	-1.520458
-0.9529708	K r	-1.286996
-1.101391	K u	-1.033112
-2.111151	K v	-0.4893199
-0.7474245	K y	-1.682528
-1.754603	K ä	-0.5179896
-3.162762	K å	-0.3373994
-1.629664	K ö	-0.9431879
-2.371068	L </s>
-2.371068	L L
-0.2811627	L a	-1.050841
-1.291887	L e	-0.4493019
-0.7478186	L i	-0.7225089
-2.267318	L o
-3.001076	L u	-0.3993543
-2.371068	L y
-0.9908566	L ä	-0.7797948
-1.592917	L å	-0.3476833
-1.140619	L ö	-0.9619358
-2.454845	M ,
-3.084853	M :	-1.882248
-2.351095	M </s>
-0.4336556	M a	-0.9682973
-0.8213764	M e	-1.358345
-0.9634832	M i	-0.8911979
-2.454845	M j
-1.112422	M o	-0.5601907
-1.852785	M u	-0.793987
-3.084853	M y	-1.846767
-1.454845	M ä	-0.1426137
-0.7388415	M å	-1.103204
-2.351095	M ö	-0.2612982
-2.262451	N .
-2.262451	N :
-0.8152931	N </s>
-2.556227	N N	-0.5712137
-2.556227	N O	-0.5712882
-2.262451	N S
-1.359361	N a	-0.5532793
-2.892459	N e	-0.6385257
-0.4915991	N i	-1.837813
-1.08636	N o	-0.5634787
-1.4843	N u	-0.6522793
-1.840847	N y	-0.5211189
-0.7183831	N ä	-1.319566
-1.262451	N å	-1.006231
-2.158702	N ö	-0.2727054
-2.583811	O </s>
-2.290035	O N
-2.290035	O a
-2.186285	O b
-0.7585557	O c	-1.082932
-2.290035	O d
-2.290035	O g
-1.335792	O h	-0.995886
-2.583811	O k	-0.5432597
-0.2566109	O l	-1.691697
-1.210853	O m	-0.9807236
-2.583811	O n	-0.5401678
-1.687975	O p	-0.180995
-1.290035	O r	-0.4612138
-2.290035	O s
-2.290035	O t
-2.186285	O x	-0.6131018
-2.775219	P </s>
-2.481443	P E
-0.8793826	P a	-0.7898493
-0.3447221	P e	-1.453655
-2.481443	P g
-2.377693	P h	-0.2882745
-1.250994	P i	-0.8524687
-1.703291	P l	-0.1815334
-1.5272	P o	-0.7689191
-0.7654393	P r	-1.932351
-1.879383	P s	-0.8575603
-1.879383	P u	-0.1961533
-1.277323	P ä	-1.025326
-1.44005	P å	-0.1749647
-1.138875	Q u
-0.845098	Q v
-0.243038	Q w	-0.7324919
-2.677592	R </s>
-1.429573	R D	-0.9309191
-2.383815	R R
-2.383815	R S
-1.179695	R a	-0.4769582
-1.480725	R d	-0.8715056
-0.8653014	R e	-1.040613
-0.5145836	R i	-2.980088
-1.041393	R o	-0.7975811
-2.383815	R r
-2.280066	R u	-0.2572177
-1.429573	R y	-0.9015594
-0.7403627	R ä	-1.736179
-1.128543	R å	-1.465999
-2.383815	R ö
-2.758912	S .
-2.758912	S :
-1.644969	S </s>
-2.758912	S O
-1.003037	S a	-1.123044
-1.068716	S e	-0.8150424
-1.240398	S i	-0.5593994
-3.38892	S j	-0.4180025
-1.115459	S k	-0.4240839
-2.337308	S l	-0.2942115
-2.337308	S m	-0.4555719
-3.052688	S n
-0.8095219	S o	-1.326071
-1.758912	S p	-0.1401141
-0.6982141	S t	-1.39105
-1.612784	S u	-0.5275478
-1.19071	S v	-0.9152316
-1.758912	S w	-0.3139862
-1.436693	S y	-1.355649
-1.717519	S ä	-0.3377259
-1.240398	S å	-0.481733
-1.612784	S ö	-0.4418614
-2.187521	T .
-2.481297	T </s>
-2.187521	T T
-1.187521	T a	-0.1789668
-1.187521	T e	-0.3656664
-1.146128	T h	-1.046834
-0.6312182	T i	-0.7352216
-1.409369	T j	-0.2637361
-0.9322482	T o	-0.5320006
-0.756157	T r	-1.331787
-1.284431	T u	-0.2790942
-2.187521	T v
-0.9087671	T y	-0.8559173
-2.481297	T ä	-0.5067707
-2.481297	T å
-1.956534	U d
-1.559008	U g	-0.6909335
-1.956534	U l
-0.8846066	U n	-0.8688068
-0.4074853	U p	-0.8729683
-0.4866666	U t	-0.7545831
-2.252818	V 2	-0.2578192
-1.959041	V </s>
-0.3679768	V a	-0.991464
-1.18089	V e	-0.09282312
-0.6580114	V i	-0.391055
-1.959041	V p
-2.252818	V r
-1.959041	V s
-0.8798602	V ä	-0.5602846
-1.537437	V å	-0.553578
-0.4259687	W a	-0.4428891
-0.7781513	W e	-0.4286564
-1.380211	W g
-1.673988	W i
-1.276462	W r	-0.2542461
-2.010219	W ä	0.02825223
-0.30103	X I
-0.7781513	Y c
-0.7781513	Y f
-0.7781513	Y l
-1.071928	Y t
-0.7781513	Y x
-0.03218468	\ </s>
-0.5948065	] </s>
-4.318714	a :	-0.4980396
-0.6076314	a </s>
-4.024937	a R
-3.603333	a a	-0.5187362
-2.702718	a b	-0.2251594
-2.682514	a c	-0.6361716
-1.24534	a d	-1.181136
-4.024937	a e
-2.186088	a f	-0.8769279
-1.441738	a g	-0.9665669
-2.878809	a h	-0.47522
-2.983544	a i	-1.038692
-2.820817	a j	-0.2661858
-1.784388	a k	-0.7849987
-1.196922	a l	-1.176098
-1.408987	a m	-0.9612395
-0.7230393	a n	-0.9999056
-2.003748	a p	-1.162294
-0.8132825	a r	-0.9827677
-1.364071	a s	-1.925303
-1.053197	a t	-1.134745
-2.910994	a u	-0.2586296
-1.417482	a v	-0.9057038
-2.848846	a x	-0.6047001
-4.318714	a y	-0.5720562
-4.024937	a ß
-3.203848	b .
-2.425697	b :	-0.1997024
-2.203848	b </s>
-1.28477	b a	-0.8847825
-2.249606	b b	-0.1989652
-0.3963134	b e	-1.520874
-3.203848	b h
-1.788875	b i	-0.4068877
-1.550636	b j	-1.625397
-0.9437771	b l	-1.631612
-0.9733995	b o	-1.125783
-1.024871	b r	-1.588812
-2.300758	b s	-0.5561597
-1.823637	b u	-1.140826
-1.432997	b y	-1.331588
-1.496278	b ä	-0.7324243
-1.591065	b å	-0.9701323
-1.254458	b ö	-0.7419665
-1.871913	c .	0.3995584
-2.172943	c </s>
-3.252125	c a
-3.545901	c c	-0.5721132
-1.951095	c e	-0.02468469
-0.18431	c h	-2.275234
-2.252125	c i	-0.1451949
-0.5361212	c k	-1.294684
-2.252125	c o	-0.4820534
-2.105997	c s	-0.8418254
-3.545901	c t
-3.148375	c u	-0.6671343
-3.774663	d .
-2.194879	d :	-1.425264
-0.7865501	d </s>
-3.774663	d R
-0.9836745	d a	-1.131903
-2.695482	d b	-0.05079465
-1.877036	d d	-0.7252929
-0.3227231	d e	-1.723435
-2.412935	d f	-0.6454581
-2.376723	d g	-0.7625651
-2.21836	d h	-0.596568
-1.495909	d i	-1.113655
-2.359689	d j	-0.9809477
-2.871573	d k	-0.4934598
-2.084467	d l	-1.177968
-2.996512	d m	-0.3765879
-1.91134	d n	-1.790283
-1.713965	d o	-0.8627924
-1.420555	d r	-1.307773
-1.52915	d s	-0.3471147
-2.628535	d t	-0.4414665
-2.412935	d u	-0.5761484
-3.172603	d v	-0.4060156
-4.068439	d w	-0.5354384
-3.353059	d y	-0.3919674
-2.598572	d z	-0.3489184
-1.387273	d ä	-1.966194
-1.866178	d å	-0.9696601
-2.026475	d ö	-0.8002941
-4.34377	e -
-2.727774	e :	-1.06083
-0.7129331	e </s>
-4.049993	e L
-4.049993	e P
-3.628389	e a	0.01330767
-2.250652	e b	-0.6042094
-2.652053	e c	0.2892458
-1.193868	e d	-0.7375756
-2.688265	e e	-0.9105674
-1.623482	e f	-1.333845
-1.851336	e g	-0.8188815
-1.963633	e h	-1.338501
-3.447933	e i
-2.294118	e j	-1.232348
-2.028804	e k	-0.6570985
-1.293357	e l	-0.5956606
-1.441467	e m	-0.6982126
-0.6587048	e n	-1.096277
-4.049993	e o
-2.79472	e p	-0.4255867
-0.758402	e r	-0.9428782
-1.204895	e s	-0.4459976
-0.9877871	e t	-1.113612
-3.447933	e u	-0.3649341
-1.873902	e v	-0.5311543
-4.34377	e w
-2.416524	e x	-0.2807995
-4.049993	e y
-4.049993	e Ä
-4.049993	e ß
-4.049993	e å
-4.049993	e ö
-2.756446	f :	-0.7366899
-1.573176	f </s>
-3.358506	f S
-1.042536	f a	-1.214018
-2.079752	f e	-0.4794387
-1.489274	f f	-0.9609836
-3.652282	f g	-0.5516596
-3.652282	f h	-0.5400747
-1.618143	f i	-0.7771751
-2.936902	f j	-0.4957589
-1.659536	f l	-1.128408
-1.602631	f o	-1.221136
-3.358506	f q
-1.057476	f r	-1.788628
-1.756446	f s	-0.7216748
-0.8872142	f t	-2.121428
-1.659536	f u	-1.230819
-3.652282	f v
-2.404263	f w	-0.3751131
-2.936902	f y	-0.9322805
-3.988514	f z	-0.2605393
-1.507248	f ä	-1.017474
-1.677265	f å	-1.420564
-0.3520399	f ö	-2.134669
-3.875043	g .	1.225076
-2.979207	g :	-0.0435092
-0.7185393	g </s>
-0.6987423	g a	-1.052248
-2.467324	g b	-0.3366674
-1.958017	g d	-0.7447082
-0.7227296	g e	-1.128999
-2.627024	g f	-0.2511247
-1.646768	g g	-0.6151358
-1.636784	g h	-0.7683629
-1.325994	g i	-1.359864
-1.958017	g j	-1.277252
-2.539874	g k	-0.3588293
-1.672782	g l	-1.139926
-2.350818	g m	-0.4386061
-1.608139	g n	-1.234278
-1.333294	g o	-1.296286
-3.477517	g p	-0.6720691
-1.56843	g r	-0.8566887
-1.405176	g s	-0.7216964
-1.450933	g t	-1.253039
-2.405175	g u	-0.3352157
-3.159663	g v	-0.5724663
-2.581267	g y	-0.6297403
-3.875043	g z
-1.641748	g ä	-1.597545
-1.330847	g å	-1.304421
-1.781926	g ö	-0.8748097
-3.516932	h :
-0.4345055	h </s>
-0.6248372	h a	-0.8361945
-0.9582232	h e	-1.172521
-3.516932	h f
-3.516932	h g
-2.215902	h i	-0.3621501
-2.02557	h j	-1.607001
-3.516932	h k
-2.069774	h l	-0.7529597
-2.914872	h m	-0.06480858
-4.14694	h n	-0.09411102
-1.14402	h o	-1.510628
-1.753504	h r	-1.20301
-2.02557	h s	-0.8852656
-3.810708	h t
-1.352579	h u	-1.497963
-3.413182	h y	-0.6664381
-3.413182	h z	-0.3206296
-1.355564	h ä	-0.820618
-1.504095	h å	-1.907247
-1.44505	h ö	-1.411259
-0.8365381	i </s>
-3.78739	i V
-2.174606	i a	-0.4357019
-2.532117	i b	-0.2617482
-1.356026	i c	-0.2417213
-1.271516	i d	-0.876868
-2.106148	i e	-0.2518155
-1.774552	i f	-1.287091
-0.7961636	i g	-1.445779
-2.708208	i h	-0.5143152
-2.745997	i i	-1.010791
-2.207606	i j	-0.7230183
-1.441037	i k	-1.117556
-0.8033126	i l	-1.546763
-2.407178	i m	-0.4475371
-0.7053227	i n	-0.9856677
-1.961315	i o	-1.468385
-2.833147	i p	-0.1811029
-3.78739	i q
-2.255911	i r	-0.6946458
-1.38945	i s	-1.268361
-1.238386	i t	-1.034396
-2.268876	i u	-0.9959841
-1.508636	i v	-1.383674
-3.78739	i z
-3.365786	i ä	-0.3406088
-2.444967	i ö	-0.2208984
-1.87248	j :	-0.9256176
-0.9942136	j </s>
-0.7195125	j a	-0.7013714
-2.826723	j b
-1.923633	j d	-0.137674
-1.136526	j e	-1.081042
-2.826723	j g
-2.826723	j i
-1.87248	j k	-0.5957881
-3.45673	j l	-1.90261
-3.120499	j n
-1.007179	j o	-1.316254
-3.45673	j s	-0.2482204
-1.446511	j t	-0.4203241
-0.7548405	j u	-0.8056445
-0.6363908	j ä	-1.456986
-1.4843	j ö	-0.3777728
-2.479719	k :	-0.8868735
-1.092329	k </s>
-3.479719	k T
-0.6321466	k a	-1.859883
-4.109727	k b
-2.701568	k d	-0.7463223
-0.709604	k e	-1.299243
-3.058115	k f	-0.5185124
-2.438327	k h	-0.9086938
-1.826507	k i	-0.5044124
-2.365776	k j	-1.062131
-1.616396	k l	-1.139659
-2.479719	k m	-0.9868335
-1.593228	k n	-1.813145
-0.9294909	k o	-1.225883
-3.479719	k p
-1.407837	k r	-1.301244
-1.634621	k s	-0.4161944
-1.187463	k t	-1.034023
-1.114231	k u	-1.633198
-1.923417	k v	-1.166317
-3.479719	k w
-1.64087	k y	-1.15151
-1.492947	k ä	-1.126715
-3.773496	k å
-1.816961	k ö	-0.7501121
-2.434377	l .	0.382525
-2.753136	l :	-0.2169042
-0.8727989	l </s>
-3.832317	l B
-1.049129	l a	-1.426584
-2.026137	l b	-0.5771839
-3.832317	l c
-1.510098	l d	-1.042637
-0.9947288	l e	-0.9978157
-2.108041	l f	-0.2827234
-2.198849	l g	-0.3098529
-2.531287	l h	-0.4421093
-0.9319502	l i	-0.6031035
-1.873276	l j	-1.472414
-1.579464	l k	-1.18349
-0.6034039	l l	-1.903039
-1.878075	l m	-0.8042049
-1.93469	l n	-1.391731
-1.560476	l o	-1.027698
-2.510098	l p	-0.5130262
-4.462325	l r	-0.236516
-1.302118	l s	-0.9522871
-1.786994	l t	-0.904133
-1.918503	l u	-0.9291022
-1.836682	l v	-0.6710898
-3.832317	l w
-2.219533	l y	-0.9552785
-3.728568	l z	-0.6915508
-4.126094	l ß	0.2057293
-1.529121	l ä	-1.085413
-1.892798	l å	-1.267187
-2.091954	l ö	-0.8411776
-3.17146	m .	1.036643
-2.446936	m :	-1.071746
-0.5781241	m </s>
-3.593065	m K
-0.901983	m a	-1.486117
-1.959596	m b	-0.4855251
-2.250642	m d	-0.4775303
-0.7909752	m e	-1.529773
-3.886841	m f
-4.223073	m g	-0.3496221
-2.689975	m h	-0.7319662
-1.472491	m i	-1.300173
-2.551672	m j	-0.7768363
-2.195124	m k	-0.4797444
-1.330613	m l	-1.527698
-1.047757	m m	-2.235807
-1.593064	m n	-0.9852468
-1.576031	m o	-1.619836
-2.292034	m p	-0.2955064
-2.161701	m r	-0.585754
-1.735732	m s	-0.6449389
-1.524879	m t	-1.046631
-2.145906	m u	-0.6989229
-2.551672	m v	-0.4829995
-3.593065	m w
-1.814913	m y	-1.712195
-3.593065	m z
-1.264685	m ä	-1.558804
-1.340211	m å	-0.7749021
-2.270845	m ö	-0.3471982
-4.298141	n :
-0.4499964	n </s>
-4.004364	n A
-3.402304	n S	-0.3015414
-1.072906	n a	-1.089108
-2.48585	n b	-0.4576653
-4.298141	n c
-0.942535	n d	-1.207953
-1.310637	n e	-0.4671703
-2.642637	n f	-0.5380418
-1.058404	n g	-0.9042609
-2.370896	n h	-0.6658079
-1.484536	n i	-1.111993
-2.703334	n j	-0.9160026
-2.129303	n k	-0.5781884
-2.264002	n l	-0.8710666
-2.682145	n m	-0.8422936
-1.199544	n n	-1.707663
-1.71433	n o	-1.53617
-4.634372	n p	-0.2405222
-2.962972	n r	-0.2771227
-1.145226	n s	-0.07724818
-1.45659	n t	-1.301148
-1.893775	n u	-1.206915
-2.499214	n v	-0.6695876
-2.557206	n y	-0.6343071
-4.004364	n z
-4.298141	n ß	0.2057293
-1.709898	n ä	-1.352959
-1.753944	n å	-1.647374
-2.513003	n ö	-0.9969596
-1.593967	o </s>
-3.707911	o H
-3.707911	o R
-3.707911	o S
-2.804821	o a	-0.1526843
-2.163843	o b	-0.4218679
-0.6065073	o c	-1.506104
-1.577577	o d	-0.5011946
-2.753668	o e	-0.363814
-1.686721	o f	-0.8151378
-1.721139	o g	-0.532311
-1.944483	o h	-1.146969
-3.707911	o i
-3.105851	o j	-0.1650962
-2.202761	o k	-0.07579481
-1.455058	o l	-0.04703448
-0.674085	o m	-0.9005526
-0.7898803	o n	-1.090013
-2.452638	o o	-0.8101448
-1.937059	o p	-0.7706931
-0.9535623	o r	-0.7180367
-1.528934	o s	-1.038264
-1.348075	o t	-0.4216437
-3.105851	o u	-0.1008064
-1.716685	o v	-0.3178674
-2.92976	o x	-0.3581673
-3.707911	o Ä
-4.001687	o ä
-2.318063	p .	0.8760532
-3.096215	p 5
-2.992465	p :	-0.5227343
-1.062791	p </s>
-1.017033	p a	-1.229287
-1.716003	p b	-0.6746278
-2.992465	p d	-0.2741127
-1.009855	p e	-1.026789
-3.726223	p f	-0.1265765
-2.141972	p g	-0.507356
-1.982271	p h	-0.4337983
-1.494155	p i	-0.717496
-3.096215	p j
-2.992465	p k	-0.2365762
-1.325363	p l	-1.307433
-2.494155	p m	-0.1737521
-3.726223	p n	-0.2758739
-1.552147	p o	-0.9514228
-0.767835	p p	-0.7435597
-1.193125	p r	-1.265022
-1.414973	p s	-0.2387309
-1.452762	p t	-0.8146635
-1.950087	p u	-0.8603622
-2.674611	p v	-0.4930049
-3.096215	p y
-3.389991	p ä
-0.658464	p å	-1.443411
-2.494155	p ö	0.04090202
-0.4771213	q u
-0.4771213	q w
-2.619568	r :	-1.123609
-0.4908453	r </s>
-3.96199	r B
-3.96199	r E
-3.96199	r S
-0.9810783	r a	-0.627914
-1.988862	r b	-0.4717026
-4.591998	r c	-0.1350797
-1.340814	r d	-0.3728937
-1.091586	r e	-0.5043964
-1.928567	r f	-0.4165867
-1.879205	r g	-0.3148178
-2.328522	r h	-0.6233913
-1.26302	r i	-1.137557
-2.514832	r j	-0.7864603
-1.592774	r k	-0.3201492
-1.704312	r l	-0.8678227
-1.970764	r m	-1.223617
-1.46368	r n	-1.17162
-1.569293	r o	0.1344182
-2.169599	r p	-0.9429339
-1.741882	r r	-0.7808105
-1.141789	r s	-0.5152673
-1.493643	r t	-0.7228171
-1.674189	r u	-0.3914192
-1.970764	r v	-0.4295305
-3.858241	r w	-0.2341966
-2.417922	r y	-1.004826
-3.96199	r z
-4.255767	r ß	0.2057293
-1.435651	r ä	-1.513799
-1.797637	r å	-1.208369
-2.0126	r ö	-0.09107123
-3.887955	s .
-3.784205	s :
-0.6567401	s </s>
-3.887955	s B
-4.181731	s D
-3.887955	s F
-3.887955	s R
-3.784205	s S	-0.2747375
-1.127532	s a	-0.9816138
-2.124527	s b	-0.7668814
-3.784205	s c	-0.2397048
-2.234742	s d	-1.021855
-1.37741	s e	-0.5474618
-2.846562	s f	-0.1104504
-2.586925	s g	-1.033036
-2.440797	s h	-0.7716914
-1.185524	s i	-1.666864
-2.042857	s j	-1.736857
-1.060585	s k	-1.190758
-1.801595	s l	-1.499892
-1.870921	s m	-0.9412534
-2.356476	s n	-1.467581
-0.959047	s o	-1.619699
-2.075041	s p	-0.8571415
-2.774011	s r	-0.4270605
-1.096966	s s	-1.0152
-0.7817638	s t	-0.6613047
-2.472981	s u	-0.8109156
-1.870921	s v	-1.196458
-4.181731	s w
-2.206713	s y	-1.571377
-1.914827	s ä	-0.5344237
-1.415198	s å	-1.156048
-2.215857	s ö	-0.846998
-2.399482	t .	0.2292967
-3.955784	t :
-0.4932362	t </s>
-1.019773	t a	-0.3132831
-2.955784	t b	-0.3419338
-2.557844	t c	-1.392068
-3.001541	t d	-0.1646461
-0.8857461	t e	-0.7915848
-2.594056	t f	-0.4327711
-2.274543	t g	-0.9341788
-2.22339	t h	-0.3733829
-0.9004056	t i	-1.13403
-2.283686	t j	-0.9384171
-3.001541	t k	-0.9456519
-1.951463	t l	-1.038306
-2.613361	t m	-0.717521
-2.058157	t n	-1.383138
-1.609431	t o	-1.194177
-4.24956	t p	-0.5285165
-1.521215	t r	-2.041185
-1.765452	t s	-0.3375288
-0.8378501	t t	-1.493157
-1.910461	t u	-0.4105584
-2.265588	t v	-0.8927345
-2.142871	t y	-1.072179
-2.540811	t z	-0.2826827
-1.77394	t ä	-1.06094
-1.955784	t å	-0.6782295
-2.540811	t ö	-0.448706
-3.955784	t …
-1.121281	u </s>
-2.17381	u a	-0.5990363
-2.365696	u b	-0.5919856
-2.205995	u c	-0.9967801
-1.209349	u d	-0.5838887
-2.143847	u e	-0.2352666
-1.977516	u f	-0.8731669
-1.493864	u g	-0.6543964
-3.949946	u h	-1.952917
-3.216189	u i	-0.6769541
-1.456616	u k	-0.999661
-1.006071	u l	-0.7540765
-1.520598	u m	-1.205953
-0.6977244	u n	-1.329078
-1.105095	u p	-1.345065
-1.462606	u r	-0.7917113
-1.126814	u s	-1.055629
-0.6359913	u t	-0.5340313
-3.613715	u u
-2.240757	u v	-0.2764269
-3.613715	u w	-0.4137048
-3.613715	u ß	0.2057293
-0.7647143	v </s>
-0.5617633	v a	-1.502221
-3.432167	v b
-2.051956	v d	-0.722783
-0.9270173	v e	-1.070839
-3.328418	v f
-2.477925	v g	-0.320824
-2.654016	v h	-0.1474562
-0.6273466	v i	-1.219566
-3.725944	v k	-0.5180739
-1.852384	v l	-0.755124
-2.432167	v m	-0.8230785
-2.000803	v n	-1.666319
-1.985009	v o	-1.187225
-3.725944	v p	-0.5285165
-2.131137	v r	-0.9663844
-1.798699	v s	-0.3631744
-3.725944	v t	-0.4041694
-2.286039	v u	-0.7842248
-2.830107	v v	-0.3612751
-2.830107	v y	-0.781345
-1.083862	v ä	-1.027241
-1.551354	v å	-1.277386
-2.830107	v ö	-0.4516664
-0.5141048	w a	-0.4291068
-0.4597472	w e	-0.2783049
-0.9120448	w i	-0.219459
-1.088136	w j	-0.3927761
-0.9120448	w ä	-0.2937348
-0.7096938	x </s>
-1.913814	x M
-1.311754	x a	-0.2755433
-2.20759	x c
-0.7377226	x e	-0.5439042
-2.20759	x h
-1.913814	x i
-0.4666558	x m	-1.361139
-2.20759	x o	-0.5569175
-1.810064	x p	-0.2462481
-1.913814	x s
-1.49221	x t	-0.1612141
-3.074813	y :	-0.4980396
-1.032849	y </s>
-3.411045	y a	-1.833533
-2.677288	y b	-0.6483622
-0.9359389	y c	-1.70191
-1.525764	y d	-0.3560279
-2.178977	y e	-0.1045401
-2.178977	y f	-0.830901
-1.178977	y g	-1.309088
-2.781037	y h
-1.667094	y k	-0.4113887
-1.262523	y l	-1.063502
-1.826794	y m	-0.3729693
-0.8316469	y n	-0.7659188
-3.411045	y p	-0.4376079
-0.6507032	y r	-1.458525
-1.118279	y s	-1.069364
-0.9421878	y t	-1.074956
-2.781037	y u
-2.781037	y x
-0.2340832	z </s>
-1.778151	z a
-1.674402	z b	-0.06798772
-1.674402	z d	-0.6980593
-1.778151	z e
-2.408159	z f	-1.94565
-1.778151	z i
-1.778151	z l
-1.778151	z m
-1.778151	z n
-1.778151	z o
-2.408159	z s	-0.4683265
-1.778151	z t
-1.778151	z x
-0.30103	| </s>
-0.01021917	§ </s>
-1.934498	§ §
-0.04139268	½ </s>
-1.559008	Ä d	-0.0105551
-0.7596679	Ä k	-0.9250803
-2.292766	Ä l	-0.1477859
-0.7085153	Ä m	-0.9952073
-0.5835766	Ä n	-0.6404032
-2.292766	Ä r	-0.2757621
-1.662758	Ä s
-1.559008	Ä v	-0.646162
-1.361728	Å f
-1.655504	Å h
-1.361728	Å k
-1.655504	Å l	-0.5317953
-0.9401239	Å r	-0.4404432
-1.991736	Å s	-0.2507122
-0.7596679	Å t	-0.1298617
-1.361728	Å å
-1.615996	Ö h	-0.572391
-1.615996	Ö l	-0.5502027
-1.615996	Ö n	-0.5440865
-1.615996	Ö r	-0.5679432
-0.3222193	Ö s	-0.365334
-1.21847	Ö v	-0.646162
-1.079181	ß e
-0.07918125	ß o	-0.9645197
-3.756324	ä </s>
-3.756324	ä b
-1.944034	ä c	-1.382131
-1.49876	ä d	-0.6679542
-3.040944	ä f	-0.4567268
-1.245064	ä g	-0.799692
-3.756324	ä h	-0.5687078
-1.656368	ä k	-1.907057
-0.8529533	ä l	-1.102025
-1.179247	ä m	-1.345269
-0.7941618	ä n	-1.063015
-2.508305	ä p	-0.6341584
-0.471765	ä r	-1.307989
-1.172513	ä s	-1.325458
-1.064608	ä t	-1.097988
-1.931069	ä v	-0.6857384
-3.756324	ä x	-0.5582098
-3.33706	å -
-0.5188338	å </s>
-2.295667	å b	-0.6915464
-3.967068	å c	-1.807283
-1.109173	å d	-0.8238927
-1.922086	å e	-1.323776
-2.257879	å f	0.0464185
-1.058306	å g	-1.207739
-2.295667	å h	-0.5845985
-2.01484	å k	-0.2329694
-1.025306	å l	-1.026384
-2.33706	å m	-0.9851162
-0.917104	å n	-1.02313
-3.630836	å p
-0.9154558	å r	-1.404243
-1.31587	å s	-0.9239362
-1.023193	å t	-0.9379271
-2.43397	å v	-0.5560524
-3.33706	å x
-3.33706	å ß
-2.735	å å	-0.1765192
-1.900787	ö </s>
-3.31576	ö b
-3.212011	ö c	-0.5514929
-1.386342	ö d	-0.2591605
-3.31576	ö e
-2.412671	ö f	-0.4083788
-1.530431	ö g	-0.6434711
-3.609537	ö h
-1.954033	ö j	-1.356901
-1.784282	ö k	-0.6727087
-1.537609	ö l	-0.9429578
-1.724696	ö m	-0.4405685
-1.320125	ö n	-0.9078357
-1.599757	ö p	-1.071381
-0.1961747	ö r	-1.202716
-1.559886	ö s	-0.62678
-1.50958	ö t	-0.7896021
-1.229401	ö v	-1.300933
-3.31576	ö x
-2.169632	ö ö	-0.7092334
-0.02632894	— </s>
-0.07918125	… </s>
-1.079181	… k
-0.5948065	₥ </s>

\3-grams:
-0.006160309	<s> ( </s>
-0.003433176	<s> ) </s>
-0.1352853	<s> * </s>
-0.0002231156	<s> , </s>
-0.5332252	. . .
-0.3182923	. . </s>
-2.537353	<s> . .
-0.002103125	<s> . </s>
-0.01772877	c . </s>
-0.1352853	g . </s>
-0.01703334	l . </s>
-0.3027541	m . </s>
-0.4644203	m . m
-0.05543197	p . </s>
-0.01189922	t . </s>
-0.0009513574	<s> / </s>
-0.05971608	0 0 </s>
-0.09017663	1 0 </s>
-0.7373453	2 0 0
-0.1803707	2 0 </s>
-0.08400699	3 0 </s>
-0.0211893	4 0 </s>
-0.09644356	5 0 </s>
-0.05971608	7 0 </s>
-0.3113765	8 0 </s>
-0.1352853	9 0 </s>
-0.4990488	1 1 6
-0.2661296	1 1 </s>
-0.09644356	2 1 </s>
-0.09644356	3 1 </s>
-0.3113765	6 1 </s>
-0.2213823	8 1 2
-0.3027541	: 1 1
-0.4644203	: 1 6
-1.060698	<s> 1 0
-1.489555	<s> 1 1
-1.060698	<s> 1 2
-1.150874	<s> 1 3
-1.150874	<s> 1 4
-1.361728	<s> 1 5
-0.6313494	<s> 1 6
-0.9223952	<s> 1 7
-1.223425	<s> 1 8
-1.722474	<s> 1 9
-0.8176598	<s> 1 </s>
-1.113009	1 2 0
-0.07463362	1 2 </s>
-0.05971608	2 2 </s>
-0.1566261	3 2 </s>
-0.1352853	4 2 </s>
-0.2213823	5 2 </s>
-0.3113765	6 2 </s>
-0.3974735	7 2 </s>
-0.3182923	: 2 4
-0.5332252	: 2 6
-1.19795	<s> 2 0
-1.511417	<s> 2 1
-1.349751	<s> 2 2
-1.349751	<s> 2 3
-1.169375	<s> 2 4
-1.19795	<s> 2 5
-1.19795	<s> 2 6
-1.72635	<s> 2 7
-1.349751	<s> 2 8
-0.8920946	<s> 2 :
-0.4296966	<s> 2 </s>
-0.1352853	V 2 </s>
-0.07255067	1 3 </s>
-0.4363152	2 3 </s>
-0.1566261	3 3 </s>
-0.1352853	4 3 </s>
-0.3113765	5 3 3
-1.175087	<s> 3 0
-1.703487	<s> 3 1
-1.488554	<s> 3 2
-1.703487	<s> 3 :
-0.128869	<s> 3 </s>
-0.07255067	1 4 </s>
-0.04139268	2 4 </s>
-0.1352853	3 4 </s>
-0.05971608	6 4 </s>
-0.1352853	8 4 </s>
-0.1352853	9 4 </s>
-0.4288166	<s> 4 0
-1.326892	<s> 4 7
-0.3458423	<s> 4 </s>
-0.7373453	1 5 3
-0.2089457	1 5 </s>
-0.1223788	2 5 </s>
-0.3113765	6 5 </s>
-1.42532	<s> 5 0
-1.210387	<s> 5 2
-0.1597008	<s> 5 </s>
-1.533225	1 6 0
-1.533225	1 6 1
-0.9762507	1 6 6
-0.9237069	1 6 7
-1.318292	1 6 8
-1.318292	1 6 9
-0.30103	1 6 </s>
-0.06983494	2 6 </s>
-0.1352853	3 6 </s>
-0.3974735	6 6 4
-0.1352853	8 6 </s>
-0.1352853	9 6 </s>
-1.414039	<s> 6 2
-1.414039	<s> 6 :
-0.1026623	<s> 6 </s>
-0.961745	1 7 2
-1.176678	1 7 3
-0.6197034	1 7 8
-0.8000787	1 7 9
-0.8000787	1 7 </s>
-0.09644356	2 7 </s>
-0.3113765	4 7 </s>
-0.1352853	5 7 </s>
-0.6793533	6 7 0
-0.1352853	8 7 </s>
-1.113009	<s> 7 0
-0.1326256	<s> 7 </s>
-0.660715	1 8 1
-0.2661296	1 8 </s>
-0.004825742	2 8 </s>
-0.7373453	7 8 </s>
-1.402457	<s> 8 0
-1.402457	<s> 8 4
-0.06305175	<s> 8 </s>
-0.08400699	1 9 </s>
-0.1352853	3 9 </s>
-0.5332252	7 9 0
-1.089528	<s> 9 :
-0.1760913	<s> 9 </s>
-0.6193223	2 : 2
-0.8342553	2 : d
-0.6193223	2 : n
-0.004500501	<s> : </s>
-0.1352853	A : o
-0.05115252	D : r
-0.01336396	H : r
-0.004825742	M : t
-0.1352853	a : t
-0.2358073	b : </s>
-0.01158187	d : r
-1.156475	e : l
-0.06694679	e : t
-0.05971608	f : r
-0.4363152	g : r
-0.04575749	j : t
-0.04139268	k : r
-0.385037	l : </s>
-0.6985036	l : d
-0.03218468	m : t
-0.09644356	p : </s>
-0.8000787	r : 1
-0.1119738	r : n
-0.1352853	y : t
-0.004695121	<s> ; </s>
-0.01703334	<s> ? </s>
-2.126511	<s> A :
-2.126511	<s> A </s>
-2.126511	<s> A N
-2.126511	<s> A a
-1.911578	<s> A b
-2.126511	<s> A d
-1.911578	<s> A f
-2.126511	<s> A h
-1.911578	<s> A k
-1.013502	<s> A l
-2.126511	<s> A m
-0.2277981	<s> A n
-1.569537	<s> A p
-1.250863	<s> A r
-1.911578	<s> A t
-2.126511	<s> A u
-1.389166	<s> A v
-1.749912	<s> A x
-1.028645	<s> B a
-0.6002159	<s> B e
-0.9908566	<s> B i
-1.828724	<s> B j
-1.467978	<s> B l
-1.028645	<s> B o
-0.6002159	<s> B r
-1.828724	<s> B u
-1.648349	<s> B y
-1.99039	<s> B ä
-1.595805	<s> B å
-1.166948	<s> B ö
-1.74274	<s> C </s>
-0.3899711	<s> C a
-1.74274	<s> C e
-0.4771213	<s> C h
-1.527807	<s> C i
-1.214341	<s> C l
-1.74274	<s> C n
-1.527807	<s> C o
-1.74274	<s> C r
-0.7690079	<s> D a
-0.6051511	<s> D e
-1.455075	<s> D i
-1.4265	<s> D j
-0.8067964	<s> D o
-1.4265	<s> D r
-0.7342458	<s> D ä
-1.149219	<s> D å
-1.4265	<s> D ö
-0.05115252	R D :
-1.40654	<s> E d
-2.143885	<s> E e
-1.355388	<s> E f
-1.133539	<s> E k
-1.10551	<s> E l
-1.615486	<s> E m
-1.534367	<s> E n
-0.2682375	<s> E r
-1.928952	<s> E s
-1.586911	<s> E t
-1.230449	<s> E v
-1.767286	<s> E x
-0.3113765	H E R
-0.7554514	<s> F a
-1.61761	<s> F e
-1.61761	<s> F i
-1.931076	<s> F j
-2.146009	<s> F l
-1.010724	<s> F o
-1.033	<s> F r
-1.76941	<s> F y
-1.536491	<s> F ä
-1.931076	<s> F å
-0.3161187	<s> F ö
-1.40966	<s> G a
-1.103804	<s> G e
-1.024622	<s> G i
-1.723126	<s> G o
-0.9898604	<s> G r
-0.2976238	<s> G u
-1.56146	<s> G ä
-1.40966	<s> G å
-1.103804	<s> G ö
-0.9714445	<s> H :
-2.109281	<s> H E
-0.7575647	<s> H a
-0.4987324	<s> H e
-1.767239	<s> H i
-2.324214	<s> H j
-1.167739	<s> H o
-1.947615	<s> H r
-1.02756	<s> H u
-1.167739	<s> H ä
-1.795814	<s> H å
-0.9985968	<s> H ö
-0.8908556	<s> I </s>
-1.679353	<s> I V
-1.679353	<s> I c
-1.302754	<s> I f
-0.30103	<s> I n
-1.679353	<s> I o
-0.7659168	<s> I t
-2.051739	<s> J </s>
-1.041393	<s> J a
-2.051739	<s> J d
-1.494765	<s> J e
-2.051739	<s> J n
-0.2584426	<s> J o
-1.314394	<s> J u
-1.263241	<s> J ä
-0.7403627	<s> J ö
-1.754937	<s> K </s>
-0.6668769	<s> K a
-1.384072	<s> K e
-2.149522	<s> K g
-1.836055	<s> K i
-2.149522	<s> K j
-1.067802	<s> K l
-1.575957	<s> K n
-0.8967313	<s> K o
-0.9504161	<s> K r
-1.098836	<s> K u
-1.754937	<s> K v
-0.7448699	<s> K y
-1.80748	<s> K ä
-1.836055	<s> K å
-1.62711	<s> K ö
-0.2809961	<s> L a
-1.288175	<s> L e
-0.7441067	<s> L i
-1.986678	<s> L o
-1.673212	<s> L u
-0.9871447	<s> L ä
-1.644637	<s> L å
-1.136907	<s> L ö
-1.909443	<s> M :
-2.071109	<s> M </s>
-0.4305971	<s> M a
-0.818318	<s> M e
-0.9604247	<s> M i
-1.109364	<s> M o
-1.909443	<s> M u
-1.757642	<s> M y
-1.451786	<s> M ä
-0.7357831	<s> M å
-2.071109	<s> M ö
-0.8166095	<s> N </s>
-1.344883	<s> N a
-1.553829	<s> N e
-0.4771213	<s> N i
-1.071882	<s> N o
-1.525254	<s> N u
-1.47271	<s> N y
-0.7039052	<s> N ä
-1.247973	<s> N å
-1.867296	<s> N ö
-0.3113765	A N N
-0.1352853	N N O
-1.902624	<s> O b
-0.7518223	<s> O c
-1.329059	<s> O h
-2.117557	<s> O k
-0.2498775	<s> O l
-1.20412	<s> O m
-2.117557	<s> O n
-1.740957	<s> O p
-1.283301	<s> O r
-1.902624	<s> O x
-0.1352853	N O </s>
-2.314262	<s> P </s>
-0.877947	<s> P a
-0.3432864	<s> P e
-2.099329	<s> P h
-1.249558	<s> P i
-1.757288	<s> P l
-1.525764	<s> P o
-0.7724367	<s> P r
-1.937663	<s> P s
-1.937663	<s> P u
-1.275887	<s> P ä
-1.438614	<s> P å
-0.6793533	<s> Q u
-0.3027541	<s> Q w
-2.203471	<s> R </s>
-1.414973	<s> R D
-1.165096	<s> R a
-1.466126	<s> R d
-0.8640659	<s> R e
-0.4999841	<s> R i
-1.046997	<s> R o
-1.988538	<s> R u
-1.414973	<s> R y
-0.756432	<s> R ä
-1.113943	<s> R å
-1.670555	<s> S </s>
-0.9938614	<s> S a
-1.05954	<s> S e
-1.231222	<s> S i
-2.055592	<s> S j
-1.116268	<s> S k
-1.974473	<s> S l
-1.974473	<s> S m
-2.583992	<s> S n
-0.8203174	<s> S o
-1.749736	<s> S p
-0.7005183	<s> S t
-1.603608	<s> S u
-1.181535	<s> S v
-1.749736	<s> S w
-1.470983	<s> S y
-1.708344	<s> S ä
-1.231222	<s> S å
-1.603608	<s> S ö
-0.2213823	n S t
-0.3113765	s S y
-1.178977	<s> T a
-1.178977	<s> T e
-1.137584	<s> T h
-0.6226745	<s> T i
-1.456258	<s> T j
-0.9485281	<s> T o
-0.7476132	<s> T r
-1.275887	<s> T u
-0.9002234	<s> T y
-2.013232	<s> T ä
-2.013232	<s> T å
-1.272535	<s> U g
-1.487468	<s> U l
-0.9304932	<s> U n
-0.39794	<s> U p
-0.4771213	<s> U t
-0.3597357	<s> V a
-1.2168	<s> V e
-0.6384892	<s> V i
-1.773775	<s> V r
-0.860338	<s> V ä
-1.164256	<s> V å
-0.1352853	I V 2
-0.4259687	<s> W a
-0.8378673	<s> W e
-1.214466	<s> W i
-0.9995335	<s> W r
-0.686067	<s> W ä
-0.6124065	<s> Y t
-0.03218468	<s> \ </s>
-0.1352853	<s> ] </s>
-2.954829	<s> a c
-2.57823	<s> a k
-0.8046036	<s> a l
-0.7314078	<s> a n
-2.954829	<s> a p
-1.60206	<s> a r
-0.4242176	<s> a t
-2.57823	<s> a u
-0.612718	<s> a v
-0.1352853	A a r
-1.176678	B a l
-0.5671596	B a n
-0.2284793	B a r
-1.137836	C a n
-0.1205739	C a r
-1.137836	C a t
-1.232195	D a g
-1.017262	D a h
-0.6752207	D a l
-0.7037957	D a n
-1.017262	D a t
-1.232195	D a u
-0.8555961	D a v
-1.390558	F a a
-0.4423591	F a d
-1.175625	F a n
-1.390558	F a r
-1.013959	F a s
-0.5563025	F a t
-0.5332252	G a b
-0.3182923	G a v
-1.19005	H a a
-1.19005	H a l
-1.038249	H a m
-0.2009148	H a n
-1.19005	H a r
-1.010347	J a </s>
-0.4008282	J a c
-0.7954136	J a n
-1.146512	K a k
-1.175087	K a m
-1.488554	K a n
-0.4068337	K a p
-0.5904781	K a r
-1.093969	K a s
-1.703487	K a t
-1.709227	L a b
-1.547561	L a d
-0.8594562	L a g
-0.5985434	L a n
-0.3739018	L a r
-1.089905	L a s
-1.709227	L a t
-1.855445	M a :
-1.478845	M a d
-1.245926	M a g
-1.021189	M a i
-0.9072459	M a j
-0.69897	M a l
-0.9420081	M a n
-0.845098	M a r
-0.7907404	M a t
-1.855445	M a y
-0.1278269	N a t
-1.221382	P a r
-0.1706962	P a s
-0.8267969	P a t
-0.6617761	R a f
-0.5099757	R a m
-0.6617761	R a n
-0.3756636	S a k
-0.8527849	S a l
-0.5517549	S a m
-1.061731	S a n
-1.59013	S a t
-0.4576561	T a k
-0.6879746	V a d
-0.4771213	V a l
-0.4449366	V a r
-1.42532	V a t
-0.1789794	W a l
-0.1223788	a a n
-1.753333	b a </s>
-1.753333	b a c
-1.143815	b a d
-0.9190781	b a k
-1.376734	b a n
-0.1632032	b a r
-0.5238168	d a </s>
-2.410311	d a b
-1.790988	d a d
-0.9217567	d a g
-2.068269	d a h
-2.248645	d a k
-1.234686	d a l
-2.096844	d a m
-0.5285374	d a n
-0.9848085	d a r
-1.535716	d a s
-1.328591	d a t
-0.6793533	e a </s>
-0.6793533	e a n
-1.085521	f a </s>
-1.274578	f a d
-0.4964264	f a l
-1.060698	f a n
-1.037217	f a r
-1.060698	f a s
-0.5677823	f a t
-0.3359819	g a </s>
-1.377375	g a d
-2.340181	g a g
-2.340181	g a l
-1.652076	g a m
-0.9960338	g a n
-0.6296715	g a r
-1.201283	g a s
-1.484585	g a t
-1.520797	g a v
-1.128667	h a </s>
-0.9890046	h a d
-1.636822	h a f
-1.812913	h a g
-1.530367	h a l
-2.72635	h a m
-0.297702	h a n
-0.6515453	h a r
-2.169375	h a s
-2.19795	h a t
-2.116832	h a v
-0.3575113	i a </s>
-1.447039	i a d
-1.232106	i a l
-0.7096938	i a n
-1.447039	i a r
-0.8375208	i a s
-0.2942966	j a </s>
-1.726532	j a d
-0.7849907	j a g
-1.941465	j a k
-0.7269987	j a n
-1.726532	j a r
-1.331947	j a s
-1.941465	j a t
-0.585738	k a </s>
-1.304121	k a d
-1.592917	k a f
-0.7375994	k a l
-1.945099	k a m
-0.7547674	k a n
-1.123913	k a p
-1.077337	k a r
-1.235405	k a s
-1.115795	k a t
-0.4507502	l a </s>
-1.139736	l a d
-0.7004033	l a g
-1.669245	l a k
-0.8100609	l a n
-2.089044	l a p
-1.050795	l a r
-1.320791	l a s
-1.351825	l a t
-2.617444	l a u
-0.5705076	m a </s>
-2.310404	m a d
-2.525337	m a g
-2.525337	m a j
-1.348659	m a k
-1.544953	m a l
-0.2914078	m a n
-1.057613	m a r
-1.544953	m a s
-1.787992	m a t
-0.2969806	n a </s>
-2.389114	n a b
-0.9724165	n a d
-2.765713	n a f
-2.765713	n a g
-2.55078	n a l
-1.931458	n a m
-0.9314579	n a n
-1.033831	n a r
-1.062226	n a s
-1.191095	n a t
-0.7373453	o a k
-0.7373453	o a n
-0.7373453	o a r
-0.6320232	p a </s>
-1.536837	p a d
-0.8487324	p a n
-0.3716111	p a r
-0.9330532	p a s
-1.385037	p a t
-0.3576626	r a </s>
-0.9597226	r a d
-1.725639	r a f
-1.600701	r a g
-2.077822	r a k
-2.600234	r a l
-1.273342	r a m
-0.9278335	r a n
-1.273342	r a r
-1.056633	r a s
-1.368128	r a t
-1.600701	r a v
-1.939519	r a x
-0.8627954	s a </s>
-1.20412	s a d
-1.418	s a g
-1.004548	s a k
-1.584331	s a l
-0.3258536	s a m
-1.147639	s a n
-1.481669	s a r
-1.646479	s a s
-1.50515	s a t
-0.3994524	t a </s>
-2.160748	t a c
-1.116467	t a d
-2.032921	t a f
-1.143619	t a g
-2.160748	t a k
-0.9964916	t a l
-2.032921	t a m
-0.8461057	t a n
-2.160748	t a p
-1.123097	t a r
-1.613791	t a s
-1.344946	t a t
-1.680738	t a v
-0.3708649	u a l
-0.4234087	u a r
-1.025306	v a </s>
-1.236935	v a d
-1.967314	v a g
-2.147685	v a k
-1.967314	v a l
-1.078012	v a n
-2.32806	v a p
-0.161983	v a r
-1.756461	v a s
-1.666284	v a t
-1.010347	w a b
-1.010347	w a l
-0.6337473	w a n
-0.453372	w a r
-0.2213823	x a </s>
-0.004825742	y a </s>
-2.858741	<s> b :
-2.858741	<s> b </s>
-1.308482	<s> b a
-0.3272563	<s> b e
-1.820366	<s> b i
-1.910542	<s> b j
-0.8601328	<s> b l
-1.198411	<s> b o
-1.015885	<s> b r
-2.070243	<s> b u
-1.820366	<s> b y
-1.468183	<s> b ä
-1.444702	<s> b å
-1.239156	<s> b ö
-0.3113765	A b r
-0.9415416	a b b
-0.628075	a b e
-1.156475	a b o
-0.5995	a b r
-0.9415416	a b ä
-0.4118986	b b a
-0.5735648	b b e
-0.9134365	d b e
-0.356462	d b o
-1.418663	e b e
-1.256997	e b l
-0.4771213	e b o
-0.6232493	e b r
-1.418663	e b u
-0.7579479	e b y
-1.105196	e b ö
-0.4197991	g b a
-0.5715994	g b e
-0.9481986	g b j
-1.089528	i b e
-0.4800094	i b i
-0.4800094	i b l
-1.263836	l b :
-1.112036	l b a
-0.80618	l b e
-1.425502	l b j
-0.287666	l b o
-1.640435	l b r
-1.640435	l b y
-1.263836	l b ö
-0.1421068	m b e
-1.252791	m b s
-1.467724	m b u
-0.4771213	n b a
-0.7957947	n b e
-1.137836	n b l
-0.615424	n b y
-1.137836	n b ö
-0.8213488	o b </s>
-0.39794	o b e
-0.768805	o b l
-1.001724	o b s
-0.30103	p b j
-0.6049482	p b u
-1.214466	p b ö
-1.807383	r b a
-0.4416489	r b e
-1.59245	r b i
-0.8939466	r b j
-1.430784	r b l
-0.9731278	r b r
-1.807383	r b u
-0.9731278	r b y
-1.250409	r b ä
-1.018885	r b ö
-0.4412087	s b e
-0.4846744	s b o
-0.860338	s b r
-1.221084	s b y
-1.221084	s b ö
-0.3058558	t b e
-0.8342553	t b r
-0.8342553	t b y
-0.4118986	u b b
-0.4118986	u b l
-0.09644356	y b l
-0.3113765	z b e
-0.08715018	å b o
-0.3182923	<s> c i
-0.1352853	I c k
-0.01258913	O c h
-1.176678	a c c
-0.30103	a c k
-0.5671596	a c o
-0.1352853	c c u
-0.6752207	e c e
-1.017262	e c h
-1.232195	e c i
-0.251812	e c k
-1.431364	i c </s>
-1.656101	i c e
-0.5925147	i c h
-2.050686	i c i
-0.2138798	i c k
-1.285236	i c s
-2.378684	o c e
-0.07773943	o c h
-0.8003734	o c k
-0.3182923	r c k
-0.09644356	s c h
-0.01772877	t c .
-0.03218468	u c k
-0.006160309	y c k
-0.01296498	ä c k
-0.004825742	å c k
-0.09644356	ö c k
-0.7373453	: d </s>
-0.5224123	: d e
-1.886759	<s> d :
-2.486259	<s> d </s>
-1.382904	<s> d a
-0.1865501	<s> d e
-1.97853	<s> d i
-1.606919	<s> d o
-1.468616	<s> d r
-2.129797	<s> d u
-2.433715	<s> d y
-0.8416226	<s> d ä
-1.396065	<s> d å
-1.596195	<s> d ö
-0.5224123	E d e
-0.7373453	E d s
-0.1352853	J d e
-0.3607461	R d :
-0.3607461	R d r
-0.74217	a d </s>
-1.738204	a d a
-2.398919	a d d
-0.154284	a d e
-2.613852	a d f
-1.603505	a d g
-2.398919	a d h
-2.398919	a d i
-2.613852	a d r
-1.381657	a d s
-2.613852	a d u
-2.237252	a d z
-0.9945371	d d </s>
-0.5965971	d d a
-0.2348693	d d e
-1.731882	d d o
-0.3246455	e d </s>
-0.8108014	e d a
-2.69038	e d b
-1.533905	e d d
-0.7879386	e d e
-2.69038	e d f
-2.313781	e d g
-2.080861	e d h
-1.312056	e d i
-1.513702	e d j
-1.625676	e d l
-2.313781	e d n
-2.313781	e d o
-1.742181	e d r
-2.133405	e d s
-2.16198	e d t
-2.313781	e d å
-0.90053	g d </s>
-0.447158	g d a
-0.447158	g d e
-1.080905	g d o
-1.457505	g d u
-0.351521	i d </s>
-0.8926246	i d a
-1.40193	i d d
-0.7834801	i d e
-2.350129	i d f
-2.350129	i d g
-1.793155	i d h
-1.612784	i d i
-1.82173	i d k
-1.97353	i d l
-1.117934	i d n
-2.350129	i d o
-1.339783	i d s
-2.350129	i d t
-0.2089457	j d e
-0.08400699	k d o
-1	l d </s>
-0.5740313	l d a
-0.4031412	l d e
-1.176091	l d i
-1.118099	l d r
-1.09177	l d s
-0.2632414	m d </s>
-0.5671596	m d e
-1.176678	m d ö
-1.036523	n d </s>
-1.036523	n d a
-2.158739	n d b
-0.2312406	n d e
-1.982648	n d f
-2.158739	n d h
-1.646856	n d i
-1.83138	n d l
-1.83138	n d o
-1.020437	n d r
-1.43858	n d s
-2.896085	n d t
-2.896085	n d w
-2.286566	n d z
-2.158739	n d å
-0.5862657	o d </s>
-0.69897	o d a
-0.8998848	o d d
-0.5740313	o d e
-1.964589	o d o
-1.227244	o d s
-1.749656	o d u
-0.3113765	p d r
-1.845913	r d :
-0.7235492	r d </s>
-0.9877079	r d a
-0.4063324	r d e
-2.078832	r d h
-1.116026	r d i
-2.455431	r d l
-1.102662	r d n
-1.927032	r d o
-1.342423	r d r
-1.621176	r d s
-2.240499	r d z
-1.666934	r d ä
-2.455431	r d å
-2.240499	r d ö
-1.272535	s d :
-0.6532125	s d a
-0.2382392	s d o
-1.487468	s d u
-1.487468	s d ö
-0.7884977	t d a
-0.2600982	t d e
-0.6054397	u d </s>
-1.069197	u d a
-0.6956164	u d e
-1.944845	u d f
-1.944845	u d g
-1.729912	u d h
-1.729912	u d i
-1.416445	u d n
-1.38787	u d o
-0.542388	u d s
-0.9995335	v d e
-0.1497623	v d i
-0.9995335	v d ö
-0.4800094	y d a
-1.089528	y d h
-1.089528	y d i
-0.8745948	y d n
-0.09644356	z d :
-0.3113765	Ä d e
-0.9637879	ä d </s>
-0.8176598	ä d a
-0.8498445	ä d d
-0.2825466	ä d e
-1.798043	ä d l
-1.798043	ä d s
-0.7654887	å d </s>
-0.4083428	å d a
-1.847209	å d d
-0.659685	å d e
-0.885464	å d i
-2.062142	å d l
-2.062142	å d m
-1.505167	å d s
-0.4670209	ö d </s>
-1.154156	ö d a
-1.387075	ö d d
-0.6506653	ö d e
-1.763674	ö d f
-1.026329	ö d i
-1.387075	ö d m
-1.235275	ö d s
-1.763674	ö d t
-1.900367	<s> e d
-0.6355493	<s> e f
-1.437969	<s> e g
-2.734622	<s> e h
-1.201397	<s> e j
-0.7931572	<s> e l
-1.013876	<s> e m
-0.601514	<s> e n
-1.381853	<s> e r
-1.055269	<s> e t
-2.358023	<s> e v
-2.125104	<s> e x
-1.605107	B e :
-0.7294593	B e f
-1.228508	B e g
-1.605107	B e h
-1.390174	B e k
-0.5404031	B e n
-1.048133	B e r
-1.048133	B e s
-1.390174	B e t
-1.390174	B e v
-0.1352853	C e r
-0.5898255	D e </s>
-1.16339	D e c
-0.5026754	D e n
-0.8499238	D e s
-0.768805	D e t
-0.1352853	E e d
-0.5332252	F e b
-0.5332252	F e m
-0.2247369	G e r
-1.610548	H e d
-0.9498334	H e l
-0.9120448	H e m
-1.297082	H e n
-0.1716821	H e r
-0.08400699	J e s
-0.6037841	K e e
-0.9803833	K e l
-0.3708649	K e r
-0.385037	L e g
-0.9134365	L e j
-0.9134365	L e v
-0.9107492	M e d
-1.467724	M e l
-0.08940041	M e n
-0.5332252	N e j
-0.3182923	N e k
-1.095328	P e d
-1.442576	P e e
-0.5926525	P e h
-0.9326006	P e n
-0.3963579	P e r
-1.022777	P e t
-0.615424	R e g
-0.97617	R e l
-0.615424	R e m
-0.4771213	R e s
-1.524451	S e </s>
-0.6901961	S e d
-0.9960518	S e g
-1.524451	S e r
-0.2588323	S e x
-0.2247369	T e s
-0.6124065	V e d
-0.4363152	W e n
-0.4363152	W e s
-1.552263	b e :
-2.265191	b e b
-1.603415	b e d
-1.154323	b e f
-1.059347	b e g
-1.117339	b e h
-1.067172	b e k
-1.603415	b e l
-0.962437	b e m
-1.528781	b e n
-2.64179	b e p
-0.8781161	b e r
-0.89905	b e s
-0.8252638	b e t
-1.376171	b e v
-1.135285	c e </s>
-0.9203523	c e d
-0.5783107	c e m
-1.135285	c e n
-0.7586861	c e r
-0.4420642	d e </s>
-2.196667	d e b
-3.071262	d e c
-3.286195	d e i
-1.372759	d e l
-1.469669	d e m
-0.7688928	d e n
-0.794884	d e r
-1.003234	d e s
-0.9141208	d e t
-0.8193839	e e l
-0.2477845	e e n
-0.6675836	e e r
-0.3245111	f e m
-1.113009	f e n
-0.5846093	f e r
-0.9834759	g e </s>
-1.955447	g e b
-2.692792	g e g
-1.267473	g e l
-1.628088	g e m
-0.1845952	g e n
-1.126143	g e r
-1.557507	g e s
-1.411379	g e t
-2.392964	h e </s>
-2.178031	h e b
-2.392964	h e d
-0.7074502	h e l
-0.8427052	h e m
-0.666614	h e n
-0.8511384	h e r
-2.392964	h e s
-0.5543872	h e t
-0.7269987	i e </s>
-1.300564	i e d
-0.9059781	i e l
-0.6812412	i e n
-0.5672979	i e r
-1.300564	i e t
-0.3477734	j e </s>
-1.524451	j e k
-1.524451	j e l
-0.7871061	j e r
-0.544068	j e s
-0.596929	k e </s>
-1.994852	k e b
-1.292994	k e d
-1.539666	k e l
-2.604371	k e m
-0.4890819	k e n
-2.075971	k e p
-1.045839	k e r
-1.770115	k e s
-0.6766936	k e t
-0.6557449	l e </s>
-1.07416	l e d
-2.143444	l e g
-2.295244	l e k
-1.883346	l e l
-2.671844	l e m
-0.9625272	l e n
-0.477753	l e r
-1.37519	l e s
-1.20412	l e t
-0.9399614	l e v
-2.07937	m e </s>
-0.217758	m e d
-1.339691	m e l
-0.6590745	m e n
-1.002749	m e r
-2.026826	m e s
-2.07937	m e t
-0.4684177	n e </s>
-2.313049	n e b
-1.652334	n e d
-1.790637	n e f
-1.517636	n e h
-2.527982	n e j
-1.489607	n e k
-1.579784	n e l
-1.693727	n e m
-0.7394844	n e n
-0.874183	n e r
-1.050274	n e s
-1.070478	n e t
-2.313049	n e v
-0.1789794	o e n
-1.920615	p e </s>
-1.920615	p e b
-1.920615	p e c
-1.311097	p e h
-1.08636	p e k
-1.132117	p e l
-0.3787897	p e n
-0.8559109	p e r
-0.7439371	p e t
-0.4759522	r e </s>
-2.17626	r e b
-1.037895	r e d
-2.489726	r e e
-1.791223	r e f
-1.423246	r e g
-2.17626	r e k
-1.756461	r e l
-1.967314	r e m
-0.7001422	r e n
-2.147685	r e p
-1.59165	r e r
-0.8618037	r e s
-1.279339	r e t
-2.489726	r e u
-1.379042	r e v
-0.6240543	s e </s>
-0.7112045	s e d
-1.607455	s e e
-1.787826	s e h
-1.469152	s e l
-2.3448	s e m
-0.6532125	s e n
-1.168122	s e r
-1.168122	s e s
-1.048147	s e t
-1.735282	s e x
-0.7416583	t e </s>
-2.294775	t e b
-2.347319	t e c
-2.347319	t e d
-2.904293	t e e
-2.68936	t e f
-1.956095	t e g
-2.527694	t e h
-1.60764	t e l
-1.814765	t e m
-0.7256456	t e n
-0.398865	t e r
-1.436569	t e s
-0.9301588	t e t
-1.010347	u e </s>
-0.6337473	u e n
-0.481947	u e r
-0.7954136	u e t
-1.550907	v e </s>
-1.729887	v e c
-1.090177	v e d
-1.274701	v e l
-1.50515	v e m
-0.741722	v e n
-0.326173	v e r
-1.962806	v e s
-0.9369482	v e t
-0.5077296	w e l
-0.5077296	w e n
-1.064704	w e r
-0.453372	x e l
-1.010347	x e m
-0.453372	x e n
-0.4363152	y e </s>
-0.01639042	å e n
-1.138632	<s> f a
-2.120903	<s> f e
-1.5646	<s> f i
-2.34564	<s> f j
-1.576835	<s> f l
-1.658505	<s> f o
-1.056445	<s> f r
-1.529838	<s> f u
-2.578559	<s> f y
-1.916783	<s> f ä
-1.518843	<s> f å
-0.1700514	<s> f ö
-0.09644356	A f t
-0.04575749	E f t
-0.4363152	I f f
-0.4363152	I f r
-1.458171	a f :
-1.673104	a f </s>
-0.2367891	a f f
-1.673104	a f s
-0.6084002	a f t
-1.296505	a f ö
-0.6675836	d f a
-1.195983	d f i
-1.195983	d f l
-0.6675836	d f ä
-0.5864648	d f å
-0.8244513	e f a
-1.703792	e f i
-1.884167	e f o
-1.385119	e f r
-0.132045	e f t
-2.260767	e f u
-2.260767	e f ä
-0.6931404	f f </s>
-0.3640817	f f a
-1.146512	f f e
-0.9149892	f f s
-1.093969	f f u
-0.7884977	g f h
-0.7884977	g f r
-0.5735648	g f ä
-0.7884977	g f ö
-1.318693	i f a
-1.632159	i f i
-0.2494092	i f r
-0.4687692	i f t
-1.847093	i f ö
-0.1509538	k f ä
-1.181932	l f a
-1.343598	l f o
-1.558531	l f r
-0.8211859	l f t
-1.558531	l f w
-0.6828832	l f ä
-0.4232459	l f ö
-0.6675836	n f a
-0.9810501	n f i
-0.8193839	n f l
-0.9810501	n f o
-0.9810501	n f ä
-0.6675836	n f ö
-0.4191293	o f </s>
-0.845098	o f f
-1.855445	o f o
-0.6232493	o f s
-1.066947	o f t
-1.640512	o f z
-1.855445	o f ä
-1.245926	o f ö
-0.5332252	p f y
-0.5332252	p f ö
-0.8872957	r f a
-1.867679	r f i
-1.33928	r f l
-1.652746	r f o
-1.652746	r f r
-1.49108	r f t
-1.310704	r f ä
-0.2009148	r f ö
-0.875648	s f a
-0.875648	s f o
-0.875648	s f r
-0.875648	s f ä
-0.660715	s f ö
-0.9810501	t f a
-1.195983	t f i
-1.195983	t f o
-0.2825466	t f ä
-0.9810501	t f ö
-0.961745	u f </s>
-0.30103	u f f
-0.961745	u f s
-0.8000787	u f w
-0.05971608	y f t
-0.004825742	z f o
-0.6793533	ä f f
-0.3027541	ä f t
-0.9134365	å f o
-0.9134365	å f ä
-0.6985036	å f ö
-0.1803707	ö f t
-0.9385623	<s> g a
-1.030877	<s> g e
-0.8253303	<s> g i
-1.148262	<s> g j
-2.229982	<s> g l
-1.054358	<s> g o
-1.21272	<s> g r
-1.835397	<s> g u
-2.444916	<s> g y
-1.148262	<s> g ä
-0.6812412	<s> g å
-0.9574476	<s> g ö
-0.09644356	K g l
-0.09644356	U g g
-0.6589195	a g </s>
-0.5745986	a g a
-2.202521	a g b
-1.327926	a g d
-0.9921342	a g e
-1.889055	a g h
-1.064685	a g i
-1.304445	a g l
-1.807936	a g m
-1.504017	a g n
-1.889055	a g o
-1.185259	a g s
-1.168225	a g t
-0.1674911	d g a
-1.232195	d g i
-0.8555961	d g å
-1.423394	e g </s>
-1.475938	e g a
-0.4996871	e g e
-0.9682082	e g i
-1.504513	e g n
-1.656313	e g o
-1.656313	e g r
-1.295567	e g y
-0.5651886	e g ä
-1.119476	e g å
-0.1352853	f g å
-1.211779	g g </s>
-0.3547148	g g a
-0.6557449	g g e
-1.768754	g g h
-1.768754	g g i
-1.768754	g g l
-0.8205551	g g n
-0.4727121	i g </s>
-0.593286	i g a
-2.215963	i g d
-0.69897	i g e
-2.825481	i g f
-1.735954	i g g
-1.185046	i g h
-2.297082	i g i
-2.088136	i g k
-2.036983	i g n
-2.610548	i g o
-2.610548	i g r
-2.088136	i g s
-1.116165	i g t
-0.5920758	l g a
-0.9393242	l g d
-1.252791	l g e
-1.467724	l g f
-1.467724	l g h
-1.252791	l g i
-1.467724	l g j
-1.467724	l g s
-0.9107492	l g å
-1.252791	l g ö
-0.5332252	m g r
-0.5332252	m g å
-0.5957127	n g </s>
-0.75844	n g a
-2.403617	n g d
-0.4972544	n g e
-2.565283	n g f
-2.223241	n g h
-1.690688	n g i
-2.403617	n g j
-1.468839	n g l
-2.780216	n g m
-1.866779	n g n
-2.780216	n g o
-1.690688	n g r
-1.076729	n g s
-1.623741	n g t
-1.584233	n g å
-2.403617	n g ö
-0.4954101	o g </s>
-0.9867718	o g a
-1.444428	o g d
-0.6857417	o g e
-1.211509	o g i
-1.821027	o g l
-1.264053	o g n
-1.083682	o g s
-1.264053	o g å
-0.7884977	p g i
-0.2600982	p g r
-0.6848454	r g </s>
-0.8786654	r g a
-0.9366573	r g e
-1.179695	r g h
-1.702108	r g i
-1.917041	r g l
-1.917041	r g m
-1.307522	r g o
-0.7210575	r g s
-1.082785	r g å
-1.540442	r g ö
-0.9203523	s g i
-0.30103	s g ä
-0.5257669	s g å
-1.515496	t g a
-0.3388186	t g i
-1.515496	t g j
-0.5351132	t g å
-0.958522	t g ö
-0.4458636	u g a
-1.283731	u g b
-1.103356	u g e
-0.8260748	u g g
-1.103356	u g l
-0.9229848	u g n
-1.66033	u g o
-1.66033	u g u
-1.66033	u g å
-0.7884977	v g i
-0.4118986	v g j
-0.5228788	y g a
-1.221382	y g d
-1.436315	y g e
-0.2403322	y g g
-2.051739	ä g </s>
-0.6047001	ä g a
-0.5942346	ä g e
-0.7861202	ä g g
-1.836806	ä g l
-0.7861202	ä g n
-1.442221	ä g o
-1.263241	ä g r
-1.836806	ä g s
-2.051739	ä g t
-1.048305	å g </s>
-0.8985423	å g a
-1.556034	å g e
-2.113009	å g k
-2.113009	å g l
-0.2575643	å g o
-0.7736036	å g r
-0.8310874	ö g a
-1.242986	ö g b
-1.091186	ö g e
-1.404652	ö g g
-0.8822398	ö g l
-1.404652	ö g m
-1.404652	ö g o
-1.404652	ö g p
-1.091186	ö g s
-0.8310874	ö g t
-1.010067	ö g v
-1.526515	<s> h </s>
-0.331749	<s> h a
-0.9369721	<s> h e
-2.475824	<s> h i
-1.891215	<s> h j
-0.8912145	<s> h o
-1.11689	<s> h u
-3.004223	<s> h y
-1.087183	<s> h ä
-1.453965	<s> h å
-1.312636	<s> h ö
-0.1352853	A h l
-0.544068	C h a
-0.1684044	C h r
-0.04575749	O h s
-0.3113765	P h i
-0.03778856	T h o
-0.9803833	a h a
-0.1918855	a h l
-0.0170482	c h </s>
-2.90207	c h a
-1.988633	c h e
-2.113572	c h i
-1.837366	c h s
-2.90207	c h t
-2.687137	c h z
-0.2340832	d h </s>
-1.175625	d h a
-0.5563025	d h e
-0.9724165	e h a
-1.311097	e h e
-1.705682	e h j
-0.9724165	e h o
-0.5422918	e h r
-1.920615	e h u
-1.392216	e h ä
-0.5812098	e h å
-1.007179	e h ö
-0.1352853	f h o
-0.90309	g h </s>
-1.250338	g h a
-0.20412	g h e
-1.778738	g h m
-0.8653014	g h u
-0.356462	i h e
-0.5368373	i h j
-0.3472484	k h e
-0.3472484	k h o
-0.9203523	l h a
-1.135285	l h e
-0.9203523	l h j
-0.5783107	l h o
-0.9203523	l h å
-0.9203523	l h ö
-0.1803707	m h e
-0.7373453	m h ä
-1.252791	n h a
-0.5920758	n h e
-1.467724	n h o
-0.9107492	n h u
-0.7303784	n h ä
-0.9393242	n h å
-0.8582054	n h ö
-0.3320642	o h a
-0.4210053	o h e
-1.069284	o h l
-1.597683	o h r
-0.3912241	p h a
-0.7332656	p h e
-0.7332656	p h ä
-0.8582054	r h a
-0.4030195	r h e
-1.467724	r h i
-0.9393242	r h o
-1.467724	r h u
-0.8582054	r h å
-1.467724	r h ö
-1.06648	s h a
-1.281413	s h j
-0.7530138	s h u
-0.243038	s h ö
-0.8293038	t h </s>
-1.009674	t h a
-0.2138798	t h e
-1.566649	t h ä
-1.566649	t h å
-0.004825742	u h l
-0.6124065	v h a
-0.6124065	v h ä
-0.1352853	Ö h n
-0.1352853	ä h l
-0.660715	å h l
-0.660715	å h s
-0.4990488	å h ö
-0.2555067	<s> i </s>
-1.932552	<s> i b
-1.025306	<s> i c
-1.330492	<s> i f
-1.569374	<s> i g
-2.323776	<s> i h
-2.504151	<s> i l
-0.5962461	<s> i n
-0.9995335	B i e
-1.214466	B i r
-0.4259687	B i s
-1.214466	B i u
-0.686067	B i ö
-0.09644356	C i s
-0.5332252	D i r
-0.5332252	F i e
-0.5332252	F i n
-0.9134365	G i e
-0.5368373	G i r
-0.9134365	G i s
-0.6985036	G i ä
-0.08400699	H i l
-0.3182923	K i r
-0.8479862	L i d
-1.457505	L i j
-0.929105	L i k
-0.2615215	L i n
-1.457505	L i t
-0.1691424	M i c
-1.325617	M i d
-1.110684	M i n
-0.9490178	M i s
-1.390174	N i </s>
-0.02266398	N i l
-0.08432089	P i g
-1.064704	P i n
-0.7900504	R i d
-0.1133569	R i k
-1.175087	R i n
-0.7432508	S i g
-0.97617	S i l
-0.615424	S i m
-1.352769	S i s
-0.7432508	S i u
-1.137836	S i ö
-0.8621582	T i d
-0.3258536	T i l
-1.390558	T i m
-0.8335832	T i n
-1.013959	T i o
-1.135285	V i </s>
-1.135285	V i c
-0.9203523	V i d
-0.39794	V i l
-0.9203523	V i n
-1.135285	V i t
-0.04139268	a i j
-0.6397102	b i d
-0.6922541	b i f
-1.249229	b i l
-0.8726294	b i n
-1.249229	b i s
-0.8726294	b i t
-0.8342553	c i a
-0.8342553	c i r
-0.2875275	d i g
-0.7602397	d i k
-2.113009	d i l
-0.7105519	d i n
-1.898076	d i s
-1.16481	d i t
-0.5362427	f i c
-1.359685	f i d
-1.359685	f i k
-1.574618	f i l
-0.3253894	f i n
-1.359685	f i s
-1.079181	g i c
-1.874595	g i e
-1.21388	g i f
-1.480009	g i i
-1.561128	g i l
-1.561128	g i o
-2.089528	g i p
-1.712929	g i s
-0.7237936	g i t
-1.874595	g i u
-0.320774	g i v
-1.712929	g i ä
-0.39794	h i l
-0.5783107	h i n
-1.135285	h i s
-0.03778856	i i </s>
-0.7501225	k i c
-1.487468	k i e
-1.487468	k i f
-0.3107898	k i l
-1.487468	k i n
-1.487468	k i s
-1.272535	k i t
-1.277118	l i </s>
-2.358023	l i a
-1.997277	l i c
-1.247155	l i d
-2.206223	l i e
-0.3380743	l i g
-2.734622	l i j
-1.00274	l i k
-2.358023	l i l
-0.7797932	l i n
-2.734622	l i o
-2.519689	l i p
-1.621614	l i r
-2.177648	l i s
-1.469003	l i t
-1.900367	l i u
-1.309303	l i v
-1.739896	m i d
-1.739896	m i e
-0.9744459	m i g
-0.3212334	m i n
-0.8418204	m i s
-0.6734159	m i t
-1.405885	n i </s>
-2.354083	n i a
-1.977484	n i c
-1.797109	n i e
-1.07267	n i g
-2.354083	n i k
-1.977484	n i m
-0.1342217	n i n
-2.13915	n i o
-1.565585	n i s
-1.565585	n i t
-1.977484	n i u
-2.354083	n i v
-1.436315	p i a
-0.69897	p i g
-0.9079157	p i k
-0.8793407	p i n
-1.436315	p i s
-0.4259687	p i t
-1.522879	r i </s>
-1.356547	r i a
-2.533225	r i b
-0.7594507	r i c
-1.468521	r i d
-1.49485	r i e
-1.283997	r i f
-0.9665762	r i g
-1.976251	r i h
-2.318292	r i i
-1.744727	r i j
-1.318759	r i k
-2.533225	r i m
-0.935542	r i n
-2.533225	r i p
-0.9430951	r i s
-1.026872	r i t
-2.318292	r i u
-1.026872	r i v
-1.799341	s i d
-0.3600079	s i g
-2.536686	s i k
-1.588487	s i l
-0.4643844	s i n
-2.536686	s i o
-1.322219	s i s
-1.012234	s i t
-1.661038	s i ö
-0.8970158	t i </s>
-2.674701	t i a
-1.168888	t i d
-2.513034	t i f
-0.938107	t i g
-2.361234	t i j
-2.674701	t i k
-0.2912022	t i l
-2.513034	t i m
-1.096337	t i n
-1.374137	t i o
-2.280115	t i s
-1.59298	t i t
-2.280115	t i v
-0.09644356	u i d
-1.202761	v i </s>
-2.639076	v i a
-0.6777159	v i d
-1.850578	v i g
-2.639076	v i j
-2.029557	v i k
-0.4487948	v i l
-1.260753	v i n
-0.8703222	v i s
-0.860338	v i t
-2.029557	v i v
-0.3974735	w i j
-0.4458636	<s> j a
-0.7121314	<s> j o
-0.9229848	<s> j u
-0.5038555	<s> j ä
-0.4363152	B j ö
-0.05543197	D j u
-0.09644356	F j ä
-0.3113765	K j e
-0.5332252	S j u
-0.3182923	S j ä
-0.2358073	T j ä
-0.8234423	a j :
-0.4814007	a j </s>
-1.038375	a j a
-1.038375	a j e
-0.1217336	b j u
-1.272535	b j ä
-0.7501225	b j ö
-0.3735807	d j a
-0.30103	d j e
-0.0234811	e j </s>
-0.1223788	f j ä
-0.0211893	g j o
-0.9490178	h j o
-0.05999793	h j ä
-0.8570643	i j :
-0.8045205	i j </s>
-1.414039	i j d
-1.414039	i j e
-0.8856393	i j k
-1.03744	i j s
-0.5797836	i j t
-0.03218468	k j u
-0.1528614	l j a
-1.416698	l j d
-0.6802878	l j e
-1.578364	l j t
-0.875648	m j a
-0.4990488	m j u
-0.3472484	m j ö
-0.04575749	n j u
-0.4363152	o j e
-0.30103	r j a
-0.7244387	r j e
-1.281413	r j n
-0.7530138	r j ä
-0.447158	s j u
-0.2540334	s j ä
-1.122379	s j ö
-1.129754	t j a
-1.506353	t j o
-1.29142	t j u
-0.09231426	t j ä
-0.2213823	w j k
-0.6675836	ö j a
-0.9810501	ö j e
-0.6675836	ö j l
-0.3617278	ö j t
-0.7906845	<s> k a
-2.117572	<s> k i
-1.317494	<s> k l
-1.705674	<s> k m
-2.117572	<s> k n
-0.6145932	<s> k o
-1.298188	<s> k r
-0.651316	<s> k u
-1.404644	<s> k v
-1.068852	<s> k y
-1.279705	<s> k ä
-1.228552	<s> k ö
-0.3113765	A k a
-0.6617761	E k a
-0.20412	E k e
-0.1352853	O k t
-1.101109	S k a
-1.262775	S k e
-1.262775	S k j
-0.9207334	S k o
-0.4130037	S k r
-0.9493084	S k u
-1.101109	S k ä
-0.8255759	a k </s>
-0.7090703	a k a
-0.6384892	a k e
-1.51783	a k f
-1.51783	a k n
-1.546405	a k r
-0.559308	a k t
-1.859872	a k u
-0.5698753	c k </s>
-1.147802	c k a
-0.2993628	c k e
-2.021859	c k h
-1.716003	c k l
-1.30103	c k n
-2.021859	c k o
-1.60206	c k s
-1.485554	c k t
-0.7373453	d k a
-0.7373453	d k o
-0.3607461	d k ä
-0.7659168	e k a
-1.855445	e k e
-1.29847	e k l
-0.6594614	e k o
-1.640512	e k r
-0.7201593	e k t
-1.640512	e k v
-1.855445	e k y
-0.6232493	e k ä
-0.2661296	g k a
-0.875648	g k l
-1.115904	i k </s>
-0.4771213	i k a
-0.827839	i k e
-1.652209	i k l
-1.623634	i k n
-0.7029003	i k s
-0.883955	i k t
-1.39211	i k v
-0.5735648	j k </s>
-0.2600982	j k e
-1.21146	l k </s>
-0.5452828	l k a
-0.2797252	l k e
-1.21146	l k o
-1.349763	l k ä
-0.49485	m k :
-0.6752207	m k o
-1.232195	m k r
-0.8555961	m k y
-1.332717	n k </s>
-0.4279032	n k a
-1.332717	n k e
-1.494384	n k l
-0.6446123	n k o
-0.69897	n k t
-0.8110057	o k </s>
-0.962806	o k a
-1.124472	o k e
-0.50515	o k o
-0.962806	o k t
-1.339405	o k u
-0.3113765	p k o
-1.646497	r k </s>
-0.5563025	r k a
-0.7160034	r k e
-1.988538	r k i
-1.223088	r k l
-2.203471	r k n
-0.5496719	r k o
-2.203471	r k r
-1.675072	r k s
-1.675072	r k t
-1.646497	r k u
-2.203471	r k v
-1.369216	r k ä
-2.661624	s k :
-1.681241	s k </s>
-0.441763	s k a
-1.034978	s k e
-1.322219	s k i
-1.827369	s k j
-2.661624	s k l
-0.9242793	s k o
-1.063941	s k r
-0.7939455	s k u
-1.465641	s k y
-1.50515	s k ä
-1.748188	s k ö
-0.04575749	t k o
-0.8633229	u k </s>
-0.4009249	u k a
-1.169179	u k d
-1.697578	u k e
-1.697578	u k h
-0.9602329	u k l
-1.482645	u k s
-0.7493795	u k t
-0.1352853	v k o
-0.3386803	y k t
-0.7332656	y k ö
-0.05115252	Ä k t
-0.80618	ä k e
-0.3590219	ä k n
-1.640435	ä k r
-0.4259687	ä k t
-0.4191293	å k a
-0.5469562	å k e
-1.156475	å k o
-0.8087596	ö k </s>
-0.3273589	ö k a
-0.7562158	ö k e
-1.365734	ö k n
-1.150801	ö k t
-0.1352853	: l t
-0.7908071	<s> l a
-1.078049	<s> l e
-0.6855717	<s> l i
-1.05172	<s> l o
-2.417454	<s> l u
-1.541806	<s> l y
-0.5919727	<s> l ä
-0.9111009	<s> l å
-1.327926	<s> l ö
-0.1995724	A l l
-0.8980759	A l m
-0.2089457	B l e
-0.7373453	B l o
-0.1566261	C l a
-0.6617761	E l g
-0.4288569	E l i
-1.038375	E l o
-0.7682537	K l a
-0.161368	K l o
-1.08172	K l ä
-0.1760913	O l o
-0.8029748	O l s
-0.8029748	O l u
-0.3974735	P l a
-0.6793533	S l a
-0.4644203	S l ä
-1.380857	a l </s>
-1.165257	a l a
-1.873773	a l b
-1.651924	a l d
-1.064587	a l e
-2.66227	a l f
-1.651924	a l i
-1.873773	a l k
-0.22056	a l l
-1.466287	a l m
-1.786622	a l n
-1.597566	a l s
-1.786622	a l t
-2.105296	a l u
-1.681887	a l v
-0.9813178	b l a
-0.4819201	b l e
-0.2915884	b l i
-1.717727	b l o
-2.094327	b l ä
-1.879394	b l å
-0.3891661	d l a
-0.9674768	d l e
-0.4349236	d l i
-1.147852	d l y
-0.9504561	e l </s>
-1.200334	e l a
-2.033917	e l b
-2.375958	e l d
-1.376425	e l e
-1.477883	e l g
-0.9784849	e l i
-1.802394	e l j
-0.5086628	e l l
-1.677455	e l n
-2.375958	e l o
-0.6847541	e l s
-2.214292	e l t
-1.981373	e l u
-2.590891	e l v
-2.375958	e l z
-1.610508	e l ä
-2.590891	e l å
-2.214292	e l ö
-0.4685211	f l e
-0.6197888	f l i
-1.318292	f l o
-1.156626	f l u
-0.69897	f l y
-1.318292	f l ö
-0.5862657	g l .
-1.366141	g l :
-0.8293038	g l a
-1.214341	g l e
-0.446087	g l i
-1.185766	g l o
-1.74274	g l ö
-0.2710668	h l </s>
-1.281413	h l e
-0.544068	h l s
-2.029835	i l </s>
-2.261358	i l a
-2.029835	i l d
-2.818332	i l e
-2.441733	i l i
-1.371293	i l j
-0.8941719	i l k
-0.131597	i l l
-1.350609	i l s
-1.904896	i l v
-0.004825742	j l i
-0.2612629	k l a
-0.4831116	k l i
-1.169179	k l o
-3.063169	l l :
-0.4261397	l l </s>
-0.9784934	l l a
-1.998464	l l b
-1.585461	l l d
-0.6268534	l l e
-1.660712	l l f
-2.11497	l l g
-1.973641	l l h
-1.556816	l l i
-1.95016	l l k
-1.529943	l l m
-1.51291	l l n
-2.848236	l l o
-2.686569	l l r
-1.279523	l l s
-1.429573	l l t
-2.187521	l l v
-2.534769	l l ä
-2.848236	l l å
-2.096706	m l .
-1.116323	m l </s>
-1.032002	m l a
-1.539732	m l e
-0.1163231	m l i
-1.881773	m l ä
-0.7861202	n l a
-1.017643	n l e
-0.3601514	n l i
-1.198019	n l y
-1.198019	n l ä
-1.046218	n l ö
-1.349763	o l </s>
-0.6094003	o l a
-1.252853	o l d
-1.47759	o l e
-1.558709	o l f
-1.47759	o l i
-1.710509	o l j
-0.8726418	o l k
-1.076762	o l l
-1.252853	o l m
-1.298611	o l o
-2.087108	o l s
-1.872175	o l t
-1.530134	o l u
-1.022404	o l v
-2.087108	o l ä
-2.087108	o l ö
-1.076708	p l a
-0.624724	p l i
-1.390174	p l y
-0.265702	p l ä
-1.228508	p l å
-0.9354593	r l </s>
-1.111551	r l a
-1.303436	r l d
-1.715335	r l e
-0.3491935	r l i
-1.715335	r l l
-1.482415	r l o
-1.715335	r l u
-1.053559	r l ä
-1.143735	r l å
-1.482415	r l ö
-0.5181581	s l a
-1.920615	s l e
-0.5678459	s l i
-1.08636	s l o
-0.6092386	s l u
-1.920615	s l ä
-1.920615	s l å
-1.363641	s l ö
-0.7738724	t l a
-1.623644	t l e
-0.2561333	t l i
-1.461977	t l o
-1.838577	t l y
-1.310177	t l ä
-1.004321	t l å
-1.410777	u l </s>
-1.93319	u l a
-1.167739	u l d
-1.591148	u l e
-1.591148	u l i
-0.1465499	u l l
-1.619723	u l s
-1.272475	u l t
-2.148123	u l ä
-0.6255411	v l a
-0.30103	v l i
-1.03744	v l ä
-1.414039	v l ö
-0.5185139	y l d
-0.7957947	y l i
-0.314394	y l l
-0.5332252	Ä l g
-0.1352853	Å l a
-0.1352853	Ö l s
-0.7583361	ä l </s>
-1.834331	ä l a
-1.132473	ä l b
-0.7231037	ä l d
-1.91545	ä l e
-1.706504	ä l f
-2.228917	ä l g
-1.609594	ä l i
-1.568202	ä l j
-2.06725	ä l k
-0.6602044	ä l l
-2.44385	ä l m
-1.354322	ä l p
-1.229383	ä l s
-1.91545	ä l t
-0.9863451	ä l v
-0.8967805	å l </s>
-1.589035	å l a
-1.056481	å l d
-0.8493559	å l e
-0.3249821	å l l
-1.270361	å l s
-1.357511	å l t
-1.76941	å l y
-1.002888	ö l </s>
-1.055432	ö l e
-0.3802112	ö l j
-0.5228788	ö l l
-1.397474	ö l n
-0.09644356	. m .
-2.561826	<s> m .
-2.776759	<s> m :
-0.9834627	<s> m a
-0.2970818	<s> m e
-1.109995	<s> m i
-2.24836	<s> m j
-1.988262	<s> m k
-1.738384	<s> m o
-1.738384	<s> m r
-1.942504	<s> m u
-1.386202	<s> m y
-1.527531	<s> m ä
-0.793285	<s> m å
-1.988262	<s> m ö
-0.1566261	E m e
-0.03476211	O m </s>
-0.1509538	S m e
-1.502007	a m </s>
-2.450205	a m a
-1.921806	a m b
-1.502007	a m e
-1.840687	a m h
-1.893231	a m k
-0.466731	a m l
-0.5785236	a m m
-1.840687	a m n
-2.235272	a m p
-2.073606	a m r
-1.41183	a m s
-0.7586176	a m t
-1.921806	a m u
-2.235272	a m v
-2.073606	a m ö
-0.2358073	d m j
-1.833263	e m :
-0.5873367	e m </s>
-1.353253	e m a
-1.378077	e m b
-0.8091855	e m e
-2.442781	e m g
-2.066182	e m i
-0.8681633	e m m
-1.006466	e m o
-2.227848	e m p
-2.442781	e m r
-2.066182	e m s
-1.885807	e m t
-2.442781	e m u
-0.763428	e m ä
-2.066182	e m å
-0.4551858	g m a
-0.4551858	g m ä
-0.4363152	h m </s>
-1.214466	i m l
-0.6049482	i m m
-0.4771213	i m o
-1.214466	i m r
-0.04575749	k m t
-1.051152	l m </s>
-1.260098	l m a
-1.788498	l m b
-1.231523	l m e
-1.788498	l m g
-0.7237936	l m o
-0.6118198	l m s
-1.231523	l m y
-0.6532125	l m ä
-0.1456334	m m a
-0.837737	m m e
-0.9432471	m m i
-1.822588	m m o
-2.164629	m m u
-0.5469562	n m o
-0.3222193	n m ä
-0.9415416	n m å
-0.1038961	o m </s>
-1.857734	o m a
-2.339681	o m b
-2.868081	o m d
-1.887698	o m e
-2.653148	o m i
-2.130736	o m k
-1.887698	o m l
-0.9582787	o m m
-2.491482	o m n
-2.339681	o m p
-1.732796	o m s
-2.868081	o m t
-2.491482	o m v
-2.868081	o m y
-2.258563	o m ä
-2.653148	o m å
-0.4363152	p m ä
-0.5762527	r m a
-0.593286	r m e
-1.825481	r m i
-1.297082	r m o
-1.448882	r m u
-0.9120448	r m y
-0.9498334	r m ä
-0.9498334	r m å
-1.636356	s m :
-0.3542755	s m a
-1.851289	s m e
-1.851289	s m o
-1.851289	s m t
-1.636356	s m y
-0.5698753	s m ä
-0.90309	s m å
-1.851289	s m ö
-0.8000787	t m a
-1.176678	t m i
-1.176678	t m o
-0.3424227	t m ä
-0.961745	t m ö
-0.243038	u m </s>
-0.4771213	u m m
-1.256997	u m p
-0.4576561	v m a
-0.2772807	v m ä
-0.30103	x m a
-0.3332147	x m ä
-0.5735648	y m d
-0.7884977	y m n
-0.7884977	y m r
-0.04575749	Ä m b
-1.740957	ä m b
-1.20412	ä m d
-2.117557	ä m j
-0.90309	ä m l
-0.7518223	ä m m
-0.3538823	ä m n
-1.740957	ä m p
-2.117557	ä m s
-1.052852	ä m t
-1.740957	ä m v
-0.04575749	å m i
-1.048721	ö m </s>
-1.210387	ö m a
-0.8969203	ö m d
-0.8969203	ö m e
-0.8969203	ö m m
-0.8158015	ö m s
-0.6879746	ö m t
-1.017262	: n </s>
-0.07572071	: n e
-2.544373	<s> n :
-1.987398	<s> n </s>
-1.807027	<s> n a
-1.329906	<s> n e
-1.755875	<s> n i
-1.596174	<s> n j
-1.505997	<s> n o
-0.8180228	<s> n u
-1.278754	<s> n y
-0.5671026	<s> n ä
-0.4796684	<s> n å
-1.387898	<s> n ö
-0.1091445	A n d
-1.902441	A n g
-0.7671559	A n n
-1.902441	A n u
-0.1352853	C n u
-0.4644203	E n </s>
-0.6793533	E n l
-0.6793533	E n s
-0.2887955	I n g
-0.8499238	I n s
-1.16339	I n t
-0.8499238	I n v
-0.1352853	J n g
-0.2600982	K n u
-0.1352853	O n s
-0.05543197	U n d
-0.3452491	a n </s>
-1.903958	a n a
-2.398808	a n b
-0.6604236	a n d
-1.824776	a n e
-2.579178	a n f
-1.710833	a n g
-2.15577	a n h
-2.347655	a n i
-2.046625	a n k
-2.071449	a n l
-2.301898	a n m
-1.14053	a n n
-2.579178	a n o
-0.9674439	a n s
-1.310672	a n t
-2.759554	a n u
-2.347655	a n v
-3.136153	a n ß
-3.136153	a n å
-0.37787	d n a
-0.5904781	d n e
-0.5075039	d n i
-0.170657	e n </s>
-2.848944	e n S
-1.54619	e n a
-2.187168	e n b
-1.477474	e n d
-2.215197	e n e
-1.886138	e n g
-2.02956	e n h
-1.914167	e n i
-2.437046	e n l
-2.668569	e n m
-1.218102	e n n
-1.800223	e n o
-1.018376	e n s
-1.62786	e n t
-3.225543	e n v
-2.048865	e n ä
-3.225543	e n å
-3.225543	e n ö
-1.250409	g n </s>
-0.1737873	g n a
-0.9731278	g n e
-0.9731278	g n i
-1.430784	g n s
-0.3182923	h n </s>
-0.7898108	i n </s>
-1.383097	i n a
-2.387923	i n b
-1.326192	i n d
-2.701389	i n e
-2.040674	i n f
-0.3284839	i n g
-2.539723	i n h
-2.387923	i n i
-2.002886	i n k
-2.359348	i n l
-0.9957071	i n n
-2.306804	i n o
-2.701389	i n p
-2.306804	i n r
-1.590705	i n s
-1.025162	i n t
-2.387923	i n v
-0.5698753	k n a
-0.6616457	k n e
-0.30103	k n i
-0.8562344	l n </s>
-0.7215359	l n a
-1.731882	l n e
-0.1986571	l n i
-1.277281	m n </s>
-0.5850267	m n a
-0.2839966	m n d
-1.09691	m n e
-1.305856	m n i
-1.574372	n n </s>
-0.3881802	n n a
-0.5237873	n n e
-0.9127261	n n i
-1.804821	n n l
-2.424143	n n m
-1.600701	n n o
-1.313459	n n s
-1.658693	n n u
-1.901731	n n v
-2.082101	n n ä
-0.2305014	o n </s>
-1.305246	o n a
-2.752285	o n b
-1.575608	o n d
-1.274578	o n e
-2.752285	o n f
-2.752285	o n g
-2.375686	o n i
-2.537353	o n n
-0.8806038	o n o
-1.042969	o n s
-1.838849	o n t
-1.556303	o n u
-0.3182923	p n ä
-0.7274585	r n </s>
-0.3777366	r n a
-0.6349877	r n e
-1.197281	r n i
-2.332566	r n l
-1.498311	r n s
-1.595221	r n ä
-1.955967	r n ö
-0.4175356	s n a
-0.4900862	s n i
-0.5772364	s n ä
-0.353559	t n a
-0.8184459	t n e
-0.6423546	t n i
-1.203483	t n j
-1.203483	t n ä
-1.731882	t n ö
-1.622214	u n </s>
-0.2661882	u n d
-0.8160341	u n g
-1.92807	u n i
-1.476086	u n k
-0.6927951	u n n
-1.719124	u n s
-2.456469	u n t
-0.06963593	v n a
-0.8890198	v n i
-0.9079973	y n </s>
-1.407046	y n a
-0.4179111	y n d
-1.255246	y n e
-0.9079973	y n n
-0.64836	y n t
-0.6985036	Ä n d
-0.9134365	Ä n g
-0.3039182	Ä n k
-0.1352853	Ö n n
-0.6906623	ä n </s>
-1.589205	ä n a
-0.7545721	ä n d
-2.502641	ä n e
-0.8975339	ä n g
-2.502641	ä n i
-1.325963	ä n k
-2.126042	ä n l
-0.7045981	ä n n
-2.502641	ä n r
-0.9608157	ä n s
-1.066326	ä n t
-2.502641	ä n ö
-0.4854573	å n </s>
-1.141202	å n a
-0.8758877	å n d
-2.254211	å n e
-0.4422321	å n g
-1.877612	å n i
-1.243865	å n s
-2.254211	å n t
-2.039278	å n v
-0.7915152	ö n </s>
-1.82989	ö n a
-0.6339074	ö n d
-0.8495072	ö n e
-1.272916	ö n n
-0.4515671	ö n s
-1.82989	ö n t
-0.04139268	: o </s>
-2.491398	<s> o a
-1.93027	<s> o b
-0.1359365	<s> o c
-2.491398	<s> o d
-1.863323	<s> o f
-2.491398	<s> o g
-3.019797	<s> o h
-2.643198	<s> o k
-2.14415	<s> o l
-0.8612597	<s> o m
-2.491398	<s> o n
-1.522784	<s> o r
-1.542089	<s> o s
-2.071599	<s> o t
-2.106361	<s> o v
-2.643198	<s> o x
-0.961745	B o d
-0.8000787	B o k
-0.8000787	B o n
-1.176678	B o o
-0.961745	B o r
-1.176678	B o s
-0.3113765	C o n
-0.6675836	D o c
-1.195983	D o k
-0.2477845	D o m
-1.195983	D o x
-0.7798754	F o g
-0.5995	F o l
-0.3222193	F o r
-0.3113765	G o t
-0.9415416	H o f
-1.156475	H o l
-0.7798754	H o r
-1.156475	H o s
-0.5995	H o v
-1.416698	J o e
-0.544068	J o h
-0.2962836	J o n
-0.7829502	J o r
-0.5920758	K o m
-0.2532572	K o n
-0.9393242	K o p
-1.252791	K o r
-1.176678	M o </s>
-0.2632414	M o r
-0.8000787	M o s
-0.7954136	N o c
-0.6337473	N o r
-1.010347	N o t
-0.453372	N o v
-0.5735648	P o r
-0.2315232	P o s
-0.6197034	R o o
-0.8000787	R o s
-0.3424227	R o t
-0.185962	S o c
-1.226671	S o l
-0.9951475	S o m
-0.803262	S o n
-1.783645	S o t
-0.7129286	T o l
-0.2552725	T o r
-0.9516953	b o </s>
-1.054358	b o d
-1.849771	b o e
-2.064704	b o g
-1.536305	b o h
-1.455186	b o k
-2.064704	b o l
-1.455186	b o m
-1.327359	b o n
-2.064704	b o o
-0.3061696	b o r
-1.026329	b o t
-0.2247369	c o b
-0.8342553	c o m
-1.157608	d o </s>
-0.6457245	d o c
-1.518354	d o l
-0.4696332	d o m
-1.68002	d o r
-0.5693362	d o t
-1.59013	f o d
-0.9806117	f o g
-0.4771213	f o l
-0.4134522	f o r
-0.9806117	f o t
-1.553829	g o </s>
-0.8166095	g o d
-1.705629	g o l
-2.082228	g o m
-0.4154643	g o n
-1.206581	g o r
-1.705629	g o s
-0.5236974	g o t
-2.082228	g o u
-1.469822	h o l
-1.469822	h o m
-0.1825803	h o n
-1.830568	h o o
-1.331519	h o p
-1.830568	h o r
-0.867762	h o s
-1.293731	h o v
-0.7846821	i o </s>
-0.1100715	i o n
-1.445397	i o r
-1.653799	j o g
-1.096825	j o n
-0.06366908	j o r
-1.647138	k o </s>
-1.550228	k o g
-1.249198	k o h
-2.384484	k o k
-0.8020403	k o l
-0.3598967	k o m
-1.207806	k o n
-1.319779	k o p
-1.045078	k o r
-1.436285	k o s
-1.856084	k o t
-1.595986	k o v
-1.891164	l o </s>
-1.230449	l o c
-1.368752	l o d
-0.4026099	l o f
-1.19266	l o g
-2.106097	l o l
-1.729498	l o m
-1.549122	l o p
-0.993088	l o s
-1.577697	l o t
-0.6697816	l o v
-0.6746107	m o d
-0.8709053	m o g
-1.017033	m o n
-0.90309	m o r
-1.474689	m o s
-0.4149733	m o t
-1.386945	n o </s>
-1.909357	n o b
-1.143907	n o g
-0.1110577	n o m
-1.909357	n o n
-1.210853	n o r
-2.12429	n o t
-2.12429	n o v
-0.5611283	o o </s>
-0.5325533	o o l
-0.5325533	o o t
-1.378323	p o l
-0.8499238	p o n
-0.2887955	p o r
-0.640978	p o s
-1.012486	r o </s>
-2.226952	r o b
-1.617434	r o c
-0.9013352	r o d
-2.226952	r o f
-1.351304	r o g
-2.226952	r o j
-1.351304	r o l
-1.216606	r o m
-0.7394844	r o n
-1.313516	r o p
-0.8486289	r o r
-1.669978	r o s
-0.9155757	r o t
-1.489607	r o v
-2.025818	s o </s>
-1.606688	s o c
-2.763163	s o d
-1.78278	s o l
-0.2834854	s o m
-0.4025684	s o n
-1.586485	s o r
-2.763163	s o s
-1.200225	t o </s>
-1.965675	t o b
-1.39211	t o c
-1.09108	t o d
-2.180608	t o f
-1.23241	t o g
-1.30496	t o k
-1.09108	t o l
-1.39211	t o m
-1.443263	t o n
-1.804009	t o p
-0.2932745	t o r
-0.04921802	v o r
-1.281413	v o t
-0.1352853	x o l
-0.04139268	ß o n
-1.173858	<s> p a
-1.09747	<s> p e
-2.046488	<s> p g
-1.894687	<s> p i
-1.358383	<s> p l
-2.208154	<s> p o
-0.8986356	<s> p r
-1.547439	<s> p u
-0.2068147	<s> p å
-0.05543197	A p o
-0.4363152	O p s
-0.8342553	S p a
-0.8342553	S p e
-0.8342553	S p i
-0.05115252	U p p
-1.29847	a p .
-1.640512	a p :
-0.5026754	a p </s>
-1.855445	a p a
-0.7907404	a p e
-1.29847	a p h
-1.066947	a p i
-1.066947	a p p
-1.478845	a p s
-0.8170693	a p t
-0.5325533	e p a
-0.7129286	e p p
-1.089528	e p r
-0.7129286	e p t
-0.09644356	g p r
-0.7884977	i p a
-0.5735648	i p s
-0.5469562	l p </s>
-0.4191293	l p a
-0.9415416	l p e
-1.135285	m p </s>
-0.7586861	m p a
-0.5257669	m p e
-1.135285	m p l
-1.135285	m p r
-0.3182923	n p a
-0.867762	o p </s>
-0.5404031	o p a
-1.076708	o p e
-1.390174	o p h
-1.605107	o p i
-1.390174	o p o
-0.5155795	o p p
-1.00616	p p </s>
-1.12426	p p a
-0.9666517	p p b
-2.162635	p p d
-0.9481683	p p e
-1.786036	p p f
-1.786036	p p g
-1.947702	p p h
-2.162635	p p i
-1.947702	p p k
-0.7843115	p p l
-1.947702	p p m
-1.947702	p p n
-1.786036	p p o
-1.214436	p p r
-0.9859569	p p s
-1.553117	p p t
-1.553117	p p v
-1.12426	p p å
-0.3152704	r p </s>
-0.6784483	r p a
-1.626647	r p e
-0.6462637	r p å
-1.647169	s p </s>
-0.9098234	s p a
-0.69897	s p e
-0.7715207	s p i
-0.6368221	s p o
-1.03765	s p r
-1.647169	s p u
-1.647169	s p ä
-1.432236	s p ö
-0.1352853	t p a
-1.834166	u p a
-1.834166	u p i
-0.02732313	u p p
-0.1352853	v p a
-0.3113765	x p e
-0.1566261	y p p
-0.2600982	ä p p
-0.5735648	ä p s
-1.335326	ö p </s>
-1.021859	ö p a
-0.60206	ö p e
-1.021859	ö p i
-0.7617608	ö p s
-0.5399121	ö p t
-0.004500501	: r </s>
-1.227433	<s> r a
-1.682619	<s> r d
-0.6127838	<s> r e
-1.077671	<s> r i
-1.378701	<s> r o
-1.503639	<s> r u
-1.554792	<s> r y
-0.4086639	<s> r ä
-1.202609	<s> r å
-1.503639	<s> r ö
-0.3472484	A r r
-0.3472484	A r v
-0.867762	B r e
-0.6916708	B r i
-0.6916708	B r o
-0.566732	B r u
-1.390174	B r y
-1.228508	B r ä
-1.390174	B r ö
-0.3974735	D r a
-1.322604	E r </s>
-0.09593298	E r i
-0.899195	E r s
-0.7364097	F r a
-1.113009	F r e
-0.7364097	F r i
-0.5846093	F r ä
-1.113009	F r å
-0.9481986	G r a
-0.5715994	G r e
-0.7332656	G r y
-0.7332656	G r ä
-0.1566261	H r </s>
-1.199106	K r a
-0.4336556	K r i
-0.2787536	K r o
-0.2772807	O r d
-0.8342553	O r g
-0.5399121	P r e
-0.7617608	P r o
-0.3357921	P r ä
-1.173659	P r ö
-0.5282738	T r e
-0.3174204	T r o
-0.8890198	T r u
-1.265619	T r ä
-0.3113765	W r e
-0.4342276	a r </s>
-0.906303	a r a
-1.796681	a r b
-2.830977	a r c
-1.956382	a r d
-0.8537195	a r e
-1.956382	a r f
-2.436391	a r g
-2.830977	a r h
-1.448226	a r i
-2.488935	a r j
-1.734533	a r k
-1.45578	a r l
-2.132473	a r m
-1.104444	a r n
-1.849927	a r o
-2.436391	a r p
-2.436391	a r r
-1.229383	a r s
-1.308564	a r t
-3.04591	a r u
-2.132473	a r v
-2.830977	a r å
-1.275887	b r a
-0.877947	b r e
-0.8567576	b r i
-0.7476132	b r o
-0.5257644	b r u
-2.013232	b r y
-0.877947	b r ä
-1.403714	b r ö
-1.274927	d r </s>
-0.2934106	d r a
-0.9923806	d r e
-0.8489584	d r i
-1.631389	d r o
-1.354108	d r u
-2.188364	d r y
-1.053078	d r ä
-1.811764	d r ö
-0.2959556	e r </s>
-1.036318	e r a
-1.990561	e r b
-1.773077	e r d
-1.949168	e r e
-2.115499	e r f
-1.559197	e r g
-1.876617	e r h
-1.844433	e r i
-1.678807	e r k
-1.668342	e r l
-1.893651	e r m
-1.472047	e r n
-2.291591	e r o
-2.597447	e r p
-1.352072	e r r
-0.9432859	e r s
-1.800229	e r t
-2.087471	e r v
-3.125846	e r ß
-1.969372	e r ä
-3.125846	e r å
-2.212409	e r ö
-0.6882461	f r a
-1.758686	f r e
-0.8538719	f r i
-1.578311	f r u
-1.070581	f r ä
-0.2881928	f r å
-1.318693	g r </s>
-0.2968339	g r a
-0.9714445	g r e
-0.9714445	g r i
-1.632159	g r o
-1.012837	g r u
-1.290118	g r ä
-1.847093	g r ö
-0.31627	h r </s>
-0.4846744	h r i
-0.8091855	h r s
-0.2527253	i r </s>
-1.365734	i r e
-1.365734	i r g
-1.365734	i r k
-0.8373346	i r m
-1.150801	i r s
-0.9927008	k r a
-1.529538	k r e
-0.2393731	k r i
-1.168792	k r o
-0.7496627	k r ä
-1.906137	k r ö
-0.3182923	l r a
-0.2272438	m r </s>
-1.265619	m r a
-1.050686	m r e
-1.265619	m r å
-1.050686	m r ö
-0.875648	n r a
-0.660715	n r e
-0.875648	n r i
-0.875648	n r ä
-0.6679885	o r </s>
-1.851258	o r a
-0.5929803	o r d
-1.339375	o r e
-2.060204	o r f
-1.186147	o r g
-2.031629	o r i
-2.060204	o r k
-2.060204	o r l
-2.588603	o r m
-1.091591	o r n
-2.588603	o r o
-1.186147	o r p
-2.373671	o r r
-1.21028	o r s
-0.8735347	o r t
-2.588603	o r v
-2.588603	o r ä
-2.588603	o r å
-0.4117283	p r e
-1.180371	p r i
-0.5413622	p r o
-0.8239087	p r ä
-1.180371	p r ö
-0.5211381	r r </s>
-0.8398969	r r a
-0.4642332	r r e
-2.054363	r r i
-2.054363	r r k
-1.677764	r r s
-1.83943	r r y
-1.015988	r r ä
-1.83943	r r å
-0.3386803	s r ä
-0.7332656	s r ö
-0.615025	t r a
-0.8435043	t r e
-1.393176	t r i
-0.8547853	t r o
-0.6786941	t r u
-1.480326	t r y
-0.9294189	t r ä
-2.053891	t r å
-1.230449	t r ö
-0.4423591	u r </s>
-1.691588	u r a
-0.7781513	u r e
-0.7781513	u r i
-1.476655	u r n
-1.691588	u r r
-1.134613	u r s
-0.9542425	u r u
-1.135285	v r a
-0.7586861	v r e
-0.30103	v r i
-0.7586861	v r ä
-1.227244	y r a
-1.58799	y r d
-1.58799	y r e
-1.964589	y r i
-0.07725532	y r k
-1.749656	y r å
-0.3182923	Ä r l
-0.1223788	Å r </s>
-0.1352853	Ö r b
-0.3177618	ä r </s>
-0.9951475	ä r a
-2.825038	ä r b
-1.093156	ä r d
-1.575809	ä r e
-1.309541	ä r f
-1.990783	ä r g
-2.448439	ä r h
-1.844655	ä r i
-2.087693	ä r j
-1.814691	ä r k
-1.712029	ä r l
-1.990783	ä r m
-1.422581	ä r n
-1.844655	ä r o
-1.94939	ä r p
-2.825038	ä r r
-1.760334	ä r s
-1.485633	ä r t
-1.876839	ä r u
-1.399718	ä r v
-2.610105	ä r w
-2.268063	ä r ö
-0.4438803	å r </s>
-1.467361	å r a
-2.255859	å r b
-0.5185139	å r d
-1.380211	å r e
-2.255859	å r i
-1.467361	å r l
-2.255859	å r p
-1.217484	å r s
-0.8534022	å r t
-1.797366	ö r :
-0.5078624	ö r </s>
-1.155798	ö r a
-1.506802	ö r b
-1.456828	ö r d
-1.12836	ö r e
-1.818556	ö r f
-2.216496	ö r g
-2.165343	ö r h
-1.840832	ö r i
-2.005642	ö r j
-1.721646	ö r k
-1.466373	ö r l
-1.486117	ö r m
-1.575518	ö r n
-1.739375	ö r o
-1.356158	ö r r
-0.7540978	ö r s
-1.551384	ö r t
-2.396867	ö r u
-1.739375	ö r v
-2.738908	ö r ä
-2.216496	ö r ö
-0.09644356	: s </s>
-3.218071	<s> s :
-2.689671	<s> s </s>
-1.089349	<s> s a
-1.532557	<s> s e
-0.7267595	<s> s i
-1.591424	<s> s j
-0.7657673	<s> s k
-1.635627	<s> s l
-2.269872	<s> s m
-2.179695	<s> s n
-0.7533875	<s> s o
-2.153366	<s> s p
-1.022088	<s> s t
-2.383815	<s> s u
-1.598486	<s> s v
-1.771031	<s> s y
-1.651422	<s> s ä
-0.9540631	<s> s å
-2.105062	<s> s ö
-0.05971608	P s a
-0.2029836	a s </s>
-1.966721	a s a
-2.118521	a s i
-2.495121	a s k
-0.9796242	a s s
-0.6194728	a s t
-2.495121	a s ö
-0.7373453	b s e
-0.7373453	b s s
-0.3607461	b s t
-0.06694679	c s b
-0.4601828	d s </s>
-1.703169	d s a
-2.079768	d s b
-1.864835	d s d
-2.079768	d s e
-2.079768	d s f
-0.9902402	d s h
-1.166331	d s k
-1.47025	d s l
-1.041393	d s m
-1.864835	d s o
-2.079768	d s p
-1.47025	d s s
-0.8305393	d s t
-1.551368	d s v
-0.2973233	e s </s>
-1.765917	e s a
-2.46442	e s b
-2.46442	e s d
-2.069835	e s e
-1.845098	e s i
-1.430125	e s k
-1.413734	e s l
-2.679353	e s n
-1.566344	e s o
-1.803705	e s p
-0.9208187	e s s
-0.8076715	e s t
-2.069835	e s u
-1.765917	e s v
-2.679353	e s y
-2.46442	e s ä
-2.679353	e s å
-2.150954	e s ö
-1.221382	f s d
-0.8793407	f s o
-0.1870866	f s s
-1.436315	f s t
-0.4858952	g s </s>
-1.221849	g s a
-2.010346	g s e
-2.010346	g s h
-1.633747	g s k
-2.010346	g s l
-0.6847296	g s m
-1.795414	g s p
-1.481947	g s r
-1.400828	g s s
-0.8750613	g s t
-1.09691	g s v
-0.7972174	h s </s>
-1.325617	h s d
-0.5882717	h s e
-1.110684	h s o
-0.4121805	h s s
-1.167491	i s </s>
-0.7544873	i s a
-2.232195	i s b
-1.703796	i s e
-1.703796	i s i
-1.09691	i s k
-1.675221	i s p
-0.7544873	i s s
-0.3767507	i s t
-0.3182923	j s s
-1.122379	k s </s>
-1.679353	k s a
-1.46442	k s b
-1.069835	k s d
-0.5663444	k s e
-1.122379	k s g
-1.679353	k s h
-1.150954	k s s
-0.8037053	k s t
-1.679353	k s ä
-1.46442	k s å
-0.6851017	l s </s>
-1.251446	l s a
-2.364455	l s b
-1.836055	l s d
-0.6059204	l s e
-2.149522	l s g
-2.149522	l s i
-1.416256	l s k
-1.32608	l s m
-2.364455	l s n
-1.987856	l s o
-1.62711	l s p
-0.8581018	l s s
-0.8059238	l s t
-1.575957	l s ä
-0.4101745	m s </s>
-1.691588	m s b
-0.90309	m s k
-1.476655	m s o
-1.314989	m s s
-0.5351132	m s t
-1.691588	m s ä
-0.3163129	n s </s>
-2.693393	n s S
-1.444165	n s a
-2.478461	n s b
-1.71301	n s d
-1.558108	n s e
-2.693393	n s g
-1.904896	n s i
-2.693393	n s j
-1.026629	n s k
-2.693393	n s l
-1.71301	n s m
-1.779957	n s o
-2.136419	n s p
-0.934859	n s s
-0.9146556	n s t
-2.478461	n s u
-2.316794	n s v
-2.693393	n s w
-2.693393	n s ä
-2.316794	n s å
-2.693393	n s ö
-0.6349089	o s </s>
-2.013232	o s c
-1.275887	o s e
-2.013232	o s i
-1.178977	o s k
-1.636633	o s p
-0.5068791	o s s
-0.5769169	o s t
-1.138897	p s </s>
-0.7269987	p s a
-1.515496	p s j
-0.9059781	p s k
-1.515496	p s s
-0.5672979	p s t
-1.138897	p s ä
-1.515496	p s å
-0.6930966	r s </s>
-0.6963498	r s a
-2.126057	r s b
-2.044938	r s d
-1.706258	r s e
-2.654457	r s g
-2.654457	r s i
-1.196952	r s k
-2.654457	r s l
-2.654457	r s n
-1.357803	r s o
-2.654457	r s p
-0.6866626	r s s
-0.7557434	r s t
-2.126057	r s u
-2.097482	r s v
-1.865959	r s ä
-2.126057	r s å
-1.917112	r s ö
-0.6266356	s s </s>
-1.020136	s s a
-1.64486	s s b
-1.285838	s s e
-2.410311	s s g
-2.625244	s s h
-2.625244	s s i
-2.625244	s s j
-2.248645	s s k
-1.711807	s s l
-2.248645	s s m
-2.625244	s s n
-0.3241208	s s o
-1.429261	s s t
-2.410311	s s v
-2.625244	s s y
-2.625244	s s ä
-1.790988	s s ö
-0.4579379	t s </s>
-1.148939	t s a
-1.647988	t s e
-2.024587	t s f
-1.496187	t s i
-1.01424	t s k
-1.287242	t s l
-1.467612	t s m
-2.024587	t s n
-1.809654	t s o
-0.9350592	t s s
-1.190332	t s t
-2.024587	t s y
-1.496187	t s ä
-1.236089	t s å
-0.5029285	u s </s>
-2.02738	u s a
-1.417861	u s b
-0.7459666	u s e
-1.812447	u s f
-1.650781	u s r
-0.4222726	u s t
-0.7303784	v s </s>
-0.9393242	v s a
-1.467724	v s b
-1.467724	v s e
-0.6792259	v s k
-0.9393242	v s l
-0.8582054	v s t
-1.120414	y s a
-1.497013	y s e
-0.8874947	y s k
-0.9686136	y s n
-0.7085153	y s s
-0.3840042	y s t
-0.1566261	z s o
-0.5332252	Å s </s>
-0.5332252	Å s e
-0.8342553	Ö s s
-0.2772807	Ö s t
-1.143907	ä s </s>
-1.248642	ä s a
-1.747691	ä s e
-2.12429	ä s k
-1.011281	ä s s
-0.1346986	ä s t
-0.8170693	å s </s>
-1.640512	å s a
-1.640512	å s e
-1.478845	å s k
-0.4301247	å s o
-1.327045	å s s
-0.4897104	å s t
-1.061731	ö s </s>
-0.6419315	ö s a
-1.213531	ö s e
-1.061731	ö s s
-0.3579348	ö s t
-1.165226	: t </s>
-0.2925968	: t e
-0.5034502	: t t
-1.165226	: t z
-1.184985	<s> t a
-1.869232	<s> t e
-0.1354996	<s> t i
-1.568202	<s> t j
-1.568202	<s> t o
-1.200225	<s> t r
-1.83447	<s> t u
-1.60599	<s> t v
-1.744293	<s> t y
-1.99417	<s> t ä
-2.782668	<s> t å
-0.09644356	A t t
-0.08400699	E t t
-0.03476211	I t e
-0.5835766	S t .
-0.8302489	S t a
-0.8565779	S t e
-1.366554	S t i
-1.019305	S t o
-0.9815166	S t r
-1.157608	S t u
-1.060698	S t ä
-1.518354	S t å
-0.2730013	U t a
-0.481947	U t i
-0.6043836	a t </s>
-2.591062	a t a
-1.692986	a t e
-2.805995	a t h
-1.5738	a t i
-2.591062	a t l
-2.017497	a t o
-2.06865	a t r
-2.591062	a t s
-0.1779492	a t t
-2.429396	a t u
-2.429396	a t z
-0.4234087	d t </s>
-0.6037841	d t a
-0.7654504	d t o
-0.1547945	e t </s>
-1.284055	e t a
-2.896461	e t b
-1.681995	e t c
-1.37201	e t e
-2.681528	e t h
-2.286943	e t i
-2.368062	e t j
-2.681528	e t l
-2.681528	e t o
-2.020813	e t r
-1.518138	e t s
-0.9652958	e t t
-2.062206	e t y
-2.681528	e t z
-2.368062	e t ä
-1.024134	f t </s>
-1.192538	f t a
-0.1076797	f t e
-1.471292	f t i
-1.777147	f t l
-2.090614	f t o
-0.06214791	g t </s>
-1.355071	g t i
-1.227244	g t s
-0.2479733	i t </s>
-1.187275	i t a
-1.226784	i t e
-2.006659	i t i
-1.854859	i t l
-2.168326	i t o
-2.006659	i t s
-0.609484	i t t
-2.006659	i t u
-2.383259	i t z
-0.9995335	j t </s>
-0.657492	j t a
-0.3802112	j t n
-0.9995335	j t t
-0.5363812	k t </s>
-0.7871061	k t a
-0.60206	k t e
-0.7011915	k t i
-2.126511	k t m
-1.292256	k t o
-1.911578	k t s
-0.2599931	l t </s>
-1.00393	l t a
-1.322604	l t e
-0.9313796	l t i
-0.8692317	l t s
-1.879578	l t z
-0.1816951	m t </s>
-1.525842	m t a
-0.8129134	m t e
-1.374042	m t l
-1.113943	m t y
-0.6132762	n t </s>
-0.807412	n t a
-0.3985556	n t e
-1.317326	n t i
-1.317326	n t l
-1.772512	n t o
-1.401647	n t r
-1.644685	n t s
-2.38203	n t v
-2.005431	n t y
-0.405593	o t </s>
-0.9618955	o t a
-1.280654	o t e
-1.979158	o t f
-1.584572	o t h
-1.665691	o t i
-1.359836	o t o
-1.979158	o t r
-2.194091	o t s
-0.5402915	o t t
-0.4973246	p t </s>
-0.9493084	p t a
-0.30103	p t e
-0.3191282	r t </s>
-1.213075	r t a
-2.08767	r t d
-0.9631974	r t e
-2.302603	r t f
-2.302603	r t g
-0.9912261	r t h
-0.9631974	r t i
-1.926003	r t j
-2.08767	r t o
-1.693084	r t r
-1.926003	r t s
-2.302603	r t u
-2.08767	r t v
-1.745628	r t ä
-2.383472	s t .
-0.8582177	s t </s>
-0.8297291	s t a
-2.940446	s t b
-2.940446	s t d
-0.7902206	s t e
-1.902071	s t g
-1.342763	s t i
-2.151948	s t j
-2.725513	s t k
-1.674827	s t l
-2.151948	s t m
-2.106191	s t n
-1.068764	s t o
-1.030644	s t r
-2.725513	s t s
-2.725513	s t t
-1.254933	s t u
-1.763768	s t y
-1.030644	s t ä
-1.142403	s t å
-1.763768	s t ö
-0.2552063	t t </s>
-0.9595714	t t a
-0.7794774	t t e
-2.395215	t t f
-2.952189	t t g
-2.952189	t t h
-1.214844	t t i
-2.57559	t t j
-2.42379	t t l
-2.395215	t t m
-1.586455	t t n
-2.342671	t t o
-1.670776	t t r
-1.670776	t t s
-2.214844	t t v
-2.952189	t t y
-2.395215	t t z
-1.221549	u t </s>
-0.6308687	u t a
-2.141603	u t b
-2.518202	u t d
-1.382917	u t e
-1.683947	u t f
-1.236789	u t g
-2.518202	u t h
-0.4771213	u t i
-1.961228	u t k
-1.252583	u t l
-1.729705	u t n
-1.729705	u t o
-1.908684	u t r
-1.341524	u t s
-1.729705	u t t
-2.303269	u t u
-1.570004	u t v
-2.303269	u t z
-2.141603	u t ö
-0.1352853	v t </s>
-0.4644203	x t </s>
-0.6793533	x t r
-1.458171	y t a
-1.144705	y t e
-0.07542109	y t t
-0.4363152	Å t t
-1.318759	ä t </s>
-1.675221	ä t a
-2.017262	ä t e
-2.232195	ä t i
-2.232195	ä t o
-0.04963515	ä t t
-2.232195	ä t å
-1.035114	å t </s>
-0.6906179	å t a
-0.8087173	å t e
-1.199924	å t i
-2.148123	å t m
-1.410777	å t n
-2.148123	å t o
-1.313867	å t s
-0.4330536	å t t
-1.263836	ö t </s>
-0.6300887	ö t a
-0.4637573	ö t e
-1.640435	ö t h
-1.263836	ö t n
-1.640435	ö t o
-1.263836	ö t s
-0.7647873	ö t t
-0.7713969	<s> u n
-0.634559	<s> u p
-1.804821	<s> u r
-0.2354468	<s> u t
-0.2213823	B u r
-0.04275198	G u d
-1.640435	G u n
-1.425502	G u s
-1.096444	H u e
-1.096444	H u l
-0.5740313	H u n
-0.4357286	H u s
-1.096444	H u v
-0.3607461	J u l
-0.7373453	J u n
-0.03342376	K u n
-0.3182923	L u n
-0.5332252	L u t
-0.05971608	M u n
-0.3974735	N u </s>
-0.3974735	N u m
-0.4363152	P u b
-0.3113765	R u s
-0.6037841	S u e
-0.4519838	S u m
-0.7654504	S u n
-0.3607461	T u n
-0.7373453	T u s
-0.9481986	a u i
-0.7332656	a u k
-0.9481986	a u l
-0.9481986	a u ß
-0.3802112	b u d
-0.8378673	b u l
-1.214466	b u n
-0.4771213	b u r
-0.09644356	c u s
-0.4074853	d u </s>
-0.6390086	d u g
-0.8193839	d u k
-0.2213823	e u s
-0.9237069	f u a
-0.1674911	f u l
-0.79588	f u n
-0.453372	g u d
-1.010347	g u m
-0.7954136	g u n
-1.010347	g u s
-1.164353	h u g
-1.261263	h u l
-1.622009	h u n
-0.8219302	h u r
-0.1866293	h u s
-1.470209	h u v
-1.137836	i u h
-0.8243697	i u l
-0.4393327	i u m
-0.4771213	i u s
-1.168792	j u </s>
-0.527814	j u d
-1.906137	j u g
-0.7496627	j u k
-1.11764	j u l
-1.349163	j u n
-0.566732	j u t
-1.906137	j u v
-0.289941	k u l
-0.3361042	k u n
-1.98481	k u r
-0.6833649	l u f
-1.191095	l u g
-0.8346326	l u n
-1.533136	l u p
-0.30103	l u t
-0.9048141	m u l
-1.281413	m u m
-0.243038	m u n
-0.9048141	m u r
-0.1468019	n u </s>
-1.944845	n u a
-0.7883704	n u n
-1.38787	n u s
-1.335327	n u t
-0.4363152	o u n
-0.9803833	p u b
-0.1047354	p u n
-0.6543333	r u </s>
-2.122057	r u a
-1.287802	r u c
-1.333559	r u d
-2.122057	r u g
-0.6543333	r u k
-1.593657	r u l
-1.141674	r u m
-0.7692878	r u n
-1.907124	r u p
-1.565082	r u s
-0.9867718	r u t
-2.122057	r u v
-0.2108534	s u m
-0.7208291	s u p
-1.034296	s u t
-1.879578	t u c
-1.879578	t u d
-1.502979	t u e
-1.502979	t u f
-0.4890205	t u g
-1.322604	t u l
-1.27006	t u m
-0.526809	t u n
-1.322604	t u r
-1.351179	t u s
-1.879578	t u t
-0.3708649	v u d
-0.3708649	v u r
-0.4426182	<s> v a
-1.238757	<s> v e
-0.3983142	<s> v i
-1.703104	<s> v o
-2.899087	<s> v y
-0.9281117	<s> v ä
-1.392734	<s> v å
-0.7373453	A v g
-0.7373453	A v l
-0.5224123	A v s
-0.03476211	E v a
-0.4644203	K v a
-0.3027541	K v i
-0.7929386	S v a
-0.1879905	S v e
-1.187524	S v ä
-1.187524	S v å
-0.1174965	a v </s>
-1.653213	a v a
-2.226777	a v d
-1.884736	a v e
-2.44171	a v f
-1.832192	a v g
-1.884736	a v h
-1.913311	a v i
-2.44171	a v k
-1.227244	a v l
-2.44171	a v r
-1.209515	a v s
-2.226777	a v v
-0.4363152	d v i
-0.4363152	d v ä
-0.2730013	e v </s>
-1.176091	e v a
-0.9208187	e v e
-0.6709413	e v i
-1.795414	e v n
-2.010346	e v y
-2.010346	e v ä
-0.1223788	g v ä
-1.278754	i v </s>
-0.5383909	i v a
-0.5627503	i v e
-0.6353009	i v i
-2.113009	i v l
-0.9565343	i v n
-1.556034	i v s
-0.4101745	k v a
-0.60206	k v i
-0.4771213	k v ä
-0.5185139	l v </s>
-0.4515671	l v a
-0.7651863	l v e
-1.614957	l v i
-1.041393	l v m
-1.82989	l v p
-0.875648	m v e
-0.3186734	m v ä
-0.875648	m v å
-1.124472	n v a
-0.50515	n v i
-0.60206	n v ä
-0.5509075	n v å
-0.5762527	o v </s>
-0.4349236	o v a
-0.9912261	o v e
-1.610548	o v i
-1.036984	o v l
-1.448882	o v r
-1.610548	o v s
-1.297082	o v ä
-0.1223788	p v i
-0.9912261	r v </s>
-0.3477734	r v a
-1.825481	r v e
-0.593286	r v i
-1.610548	r v s
-0.9498334	r v ä
-1.825481	r v å
-0.2461813	s v a
-0.90309	s v e
-1.636356	s v i
-1.24177	s v u
-0.7865844	s v ä
-1.322889	s v å
-0.6901961	t v a
-1.309518	t v e
-0.3679768	t v i
-0.7871061	t v ä
-0.914933	t v å
-0.9134365	u v a
-0.3039182	u v u
-0.2213823	v v ä
-0.09644356	Ä v e
-0.09644356	Ö v e
-0.8373346	ä v a
-1.365734	ä v d
-0.1890562	ä v e
-1.365734	ä v n
-0.2089457	å v a
-0.7373453	å v o
-0.9724165	ö v a
-0.8310874	ö v d
-0.2112986	ö v e
-1.920615	ö v i
-1.044967	ö v r
-1.920615	ö v s
-0.2600982	<s> w e
-0.5735648	<s> w ä
-0.05971608	Q w a
-0.2247369	S w e
-0.8342553	S w ä
-0.1352853	d w j
-0.2315232	f w a
-0.5735648	f w e
-0.3113765	r w i
-0.1352853	u w a
-0.05971608	A x e
-0.4363152	E x t
-0.09644356	O x e
-0.09691001	a x </s>
-1.091125	e x </s>
-1.467724	e x e
-0.1863104	e x m
-1.252791	e x p
-1.252791	e x t
-0.3974735	o x e
-0.6124065	o x o
-0.1352853	ä x t
-0.8726294	<s> y p
-1.249229	<s> y r
-0.1597008	<s> y t
-0.05115252	B y g
-0.05971608	F y r
-0.007061854	K y r
-0.004825742	M y r
-0.6793533	N y e
-0.3027541	N y k
-0.05115252	R y t
-0.5995	S y n
-0.146128	S y s
-0.1995724	T y </s>
-0.8980759	T y b
-0.8980759	T y s
-0.1352853	a y :
-0.2937308	b y </s>
-1.605107	b y e
-0.770852	b y g
-0.9955889	b y n
-0.770852	b y t
-0.6793533	d y l
-0.3027541	d y r
-0.1509538	f y l
-0.6793533	f y r
-0.09691001	g y n
-0.09644356	h y s
-0.5166298	k y l
-1.673104	k y m
-0.2155998	k y r
-1.673104	k y s
-0.5713912	l y d
-1.07044	l y f
-0.4988405	l y s
-0.6127838	l y t
-0.2867896	m y c
-0.3631779	m y n
-1.397474	m y r
-0.7530138	n y a
-1.281413	n y c
-0.7530138	n y l
-0.3679768	n y t
-0.640978	r y c
-1.16339	r y d
-0.8499238	r y g
-0.768805	r y k
-1.001724	r y m
-0.640978	r y t
-0.1014576	s y n
-0.7269987	s y s
-0.7715207	t y </s>
-0.39794	t y c
-1.432236	t y d
-0.6368221	t y g
-0.9098234	t y r
-0.05971608	v y r
-0.4008282	d z </s>
-1.010347	d z b
-0.481947	d z f
-0.3182923	f z </s>
-0.5332252	f z s
-0.09644356	h z </s>
-0.09644356	l z d
-0.1597008	t z </s>
-1.034296	t z s
-0.005201194	<s> § </s>
-0.06983494	<s> ½ </s>
-1.252791	<s> Ä d
-0.7303784	<s> Ä k
-0.9393242	<s> Ä l
-0.9107492	<s> Ä m
-0.5542872	<s> Ä n
-0.9393242	<s> Ä r
-1.252791	<s> Ä v
-1.195983	<s> Å h
-1.195983	<s> Å l
-0.5864648	<s> Å r
-0.6675836	<s> Å s
-0.8193839	<s> Å t
-1.156475	<s> Ö h
-1.156475	<s> Ö l
-1.156475	<s> Ö n
-1.156475	<s> Ö r
-0.3222193	<s> Ö s
-0.9415416	<s> Ö v
-0.1352853	l ß o
-0.1352853	n ß o
-0.1352853	r ß o
-0.1352853	u ß o
-1.185259	<s> ä g
-1.860479	<s> ä k
-2.040855	<s> ä l
-1.860479	<s> ä m
-0.6436795	<s> ä n
-0.2195868	<s> ä r
-2.202521	<s> ä s
-2.417454	<s> ä t
-1.327926	<s> ä v
-0.09644356	B ä n
-0.01639042	D ä r
-0.4644203	F ä n
-0.6793533	F ä s
-0.4363152	G ä r
-1.156475	H ä l
-1.156475	H ä n
-0.1180993	H ä r
-0.7884977	J ä m
-0.1789794	J ä r
-0.2358073	K ä r
-0.6124065	K ä t
-0.2662679	L ä n
-0.4259687	L ä r
-0.8342553	M ä l
-0.8342553	M ä n
-0.4576561	M ä r
-0.8342553	M ä s
-0.1638568	N ä m
-0.544068	N ä r
-0.02802872	P ä r
-0.9493084	R ä k
-1.477708	R ä n
-0.07525095	R ä t
-0.875648	S ä d
-0.4990488	S ä n
-0.660715	S ä t
-0.1352853	T ä l
-0.9134365	V ä d
-0.9134365	V ä g
-0.356462	V ä l
-0.9134365	V ä s
-0.5332252	W ä r
-1.326892	b ä c
-1.165226	b ä g
-1.541825	b ä n
-0.7075702	b ä r
-0.6661775	b ä s
-0.4065402	b ä t
-2.006712	d ä g
-0.007178585	d ä r
-1.685514	f ä </s>
-1.157114	f ä d
-1.685514	f ä k
-0.529039	f ä l
-1.308914	f ä n
-0.4198946	f ä r
-0.8512583	f ä s
-0.7933912	g ä l
-0.1333393	g ä r
-1.036429	g ä s
-1.258278	h ä d
-0.9060955	h ä l
-1.995623	h ä m
-0.8826144	h ä n
-0.252883	h ä r
-1.161368	h ä s
-1.619024	h ä v
-0.6793533	i ä h
-0.4644203	i ä l
-0.6793533	i ä r
-0.3390734	j ä l
-0.9115781	j ä m
-0.5775478	j ä n
-0.8681124	j ä r
-2.024587	j ä v
-0.6857417	k ä l
-0.254378	k ä n
-1.606094	k ä p
-0.7314993	k ä r
-2.137451	l ä c
-1.922518	l ä d
-0.5956259	l ä g
-1.760852	l ä k
-0.9607733	l ä m
-0.8118343	l ä n
-0.7717171	l ä r
-0.7468936	l ä s
-1.072747	l ä t
-1.553117	m ä k
-0.4710471	m ä l
-0.3989607	m ä n
-1.182252	m ä r
-0.8512583	m ä s
-1.634235	m ä t
-0.5620725	n ä m
-1.913789	n ä p
-0.3650473	n ä r
-0.5868961	n ä s
-1.322219	r ä c
-1.034978	r ä d
-1.832195	r ä f
-1.063941	r ä k
-1.29589	r ä l
-1.751076	r ä m
-0.7201593	r ä n
-1.094975	r ä s
-0.409068	r ä t
-1.751076	r ä v
-1.807383	s ä c
-0.9731278	s ä d
-0.5417641	s ä g
-1.197865	s ä k
-1.197865	s ä l
-0.9317352	s ä n
-1.59245	s ä r
-0.5581545	s ä t
-1.227601	t ä c
-0.7668703	t ä d
-0.5483751	t ä l
-0.4916475	t ä m
-0.9265711	t ä n
-1.801166	t ä r
-1.801166	t ä t
-0.6855471	v ä g
-0.3483049	v ä l
-1.805961	v ä m
-1.117856	v ä n
-0.6493348	v ä r
-2.18256	v ä s
-2.18256	v ä x
-0.3974735	w ä l
-0.6124065	w ä n
-0.7032914	<s> å </s>
-1.402261	<s> å b
-1.763007	<s> å h
-1.402261	<s> å k
-1.22617	<s> å l
-2.139607	<s> å n
-0.4728425	<s> å r
-1.530088	<s> å s
-0.589348	<s> å t
-0.3027541	B å l
-0.04139268	D å </s>
-0.3113765	F å r
-0.5332252	G å r
-0.5332252	G å s
-0.6124065	H å f
-0.3974735	H å k
-0.5332252	K å h
-0.5332252	K å l
-0.3974735	L å g
-0.6124065	L å n
-0.993284	M å l
-0.5399121	M å n
-0.2536053	M å r
-0.04139268	N å d
-0.660715	P å </s>
-0.875648	P å f
-0.660715	P å s
-0.1091445	R å d
-0.7129286	R å g
-0.314394	S å </s>
-1.352769	S å l
-1.137836	S å n
-0.7432508	S å s
-0.97617	S å t
-0.1223788	V å r
-0.08130494	b å d
-1.447039	b å g
-1.232106	b å r
-0.06338698	d å </s>
-1.74274	d å n
-1.74274	d å r
-1.214341	d å t
-0.2340832	f å </s>
-1.515496	f å f
-0.987097	f å n
-0.987097	f å r
-0.7781513	f å t
-0.94939	g å </s>
-1.074329	g å e
-0.5783222	g å n
-0.3753587	g å r
-1.171239	g å t
-1.475157	g å v
-0.03970937	h å l
-1.109747	h å r
-1.773775	l å g
-0.7353992	l å n
-1.397175	l å s
-0.1401787	l å t
-0.5626569	m å </s>
-2.087108	m å d
-1.710509	m å g
-0.6617884	m å l
-0.854913	m å n
-1.710509	m å r
-1.048733	m å s
-0.650793	m å t
-0.7189411	n å d
-0.1136994	n å g
-2.084675	n å h
-1.869742	n å s
-0.0685347	p å </s>
-1.743606	p å f
-1.743606	p å l
-1.534661	p å m
-2.272006	p å n
-1.261659	p å s
-2.057073	p å t
-0.9602329	r å d
-0.7841416	r å g
-1.470209	r å k
-0.2298544	r å n
-1.998608	r å p
-1.441634	r å s
-1.783675	r å å
-0.2937795	s å </s>
-0.7168816	s å d
-2.092079	s å g
-0.9956352	s å l
-1.472757	s å n
-0.9412775	s å s
-1.518514	s å t
-0.5686362	t å </s>
-1.457656	t å c
-0.9586073	t å e
-1.834255	t å l
-0.455932	t å n
-0.9586073	t å r
-1.834255	t å s
-1.277281	t å t
-1.105551	v å </s>
-0.9777236	v å g
-1.186669	v å l
-0.8394209	v å n
-0.2276011	v å r
-0.4363152	å å s
-1.310704	<s> ö d
-1.652746	<s> ö g
-1.867679	<s> ö k
-1.652746	<s> ö l
-1.33928	<s> ö m
-0.9542425	<s> ö r
-1.867679	<s> ö s
-0.1701009	<s> ö v
-0.2498775	B ö n
-0.5099757	B ö r
-0.6124065	D ö d
-0.2358073	D ö p
-0.004409119	F ö r
-0.3058558	G ö r
-0.6193223	G ö s
-0.8342553	G ö t
-0.2360892	H ö g
-1.110684	H ö k
-1.110684	H ö v
-0.9490178	H ö ö
-0.1903317	J ö n
-0.4913617	J ö r
-0.05115252	K ö p
-1.064704	L ö f
-0.2762064	L ö j
-0.8497712	L ö p
-0.8497712	L ö s
-0.09644356	M ö r
-0.3113765	N ö d
-0.146128	S ö n
-0.7654504	S ö r
-1.783645	b ö c
-1.783645	b ö l
-0.8354467	b ö n
-0.25042	b ö r
-1.568712	b ö s
-0.7189411	b ö t
-0.60206	d ö d
-0.4929155	d ö m
-1.36751	d ö p
-0.5177391	d ö r
-1.36751	d ö t
-2.052223	f ö d
-1.559308	f ö l
