R R 1.0000000
g NULL 0.0007593
g å 0.0045475
g g 0.9433400
g k 0.0067319
g j 0.0155807
g d 0.0012502
g r 0.0005183
9 9 1.0000000
9 NULL 0.0011390
. n 0.0000981
. . 1.0000000
. NULL 0.0011390
Å Å 0.9130435
ö e 0.0005204
ö y 0.0099338
ö ö 0.9813129
ö o 0.0021109
ö å 0.0027285
ö ä 0.0010277
ö i 0.0006134
o NULL 0.0261959
o a 0.0053191
o k 0.0021420
o j 0.0014164
o r 0.0002073
o u 0.0371940
o å 0.0372897
o i 0.0015335
o ö 0.0110206
o o 0.9817693
o e 0.0012143
u u 0.8917137
u e 0.0002602
u r 0.0040431
u j 0.0028329
u o 0.0013433
u a 0.0009332
u NULL 0.0391040
u v 0.0655738
u i 0.0039871
L L 1.0000000
L l 0.0001431
\ \ 1.0000000
7 NULL 0.0007593
7 7 1.0000000
j g 0.0022366
j NULL 0.0034169
j i 0.0582733
j n 0.0006864
j e 0.0006072
j : 0.0030864
j j 0.4079320
k t 0.0002157
k k 0.8026316
Ä Ä 0.5217391
4 4 1.0000000
4 NULL 0.0026576
s v 0.0002732
s NULL 0.0026576
s s 0.9626477
s n 0.0001961
s e 0.0013011
f r 0.0237404
f g 0.0039761
f p 0.0007987
f v 0.3579235
f c 0.0005596
f NULL 0.0527715
f f 0.9951515
v u 0.0470810
v V 0.0092593
v r 0.0004147
v v 0.0879781
v NULL 0.0075930
₥ ₥ 1.0000000
D D 0.6405229
V a 0.0000933
V V 0.2407407
V U 0.2826087
V v 0.0002732
H V 0.1851852
H H 1.0000000
ä e 0.0066788
ä a 0.0002800
ä ö 0.0014375
ä å 0.0013643
ä ä 0.7122302
; ; 1.0000000
i a 0.0000933
i t 0.0001079
i g 0.0082008
i f 0.0004040
i NULL 0.0960516
i i 0.9150437
i e 0.0146587
i j 0.5000000
i y 0.0033113
e d 0.0001389
e r 0.0055982
e a 0.0583240
e NULL 0.1924829
e l 0.0007156
e e 0.9623558
e o 0.0065247
e ö 0.0047916
e t 0.0001079
e m 0.0002544
e i 0.0119614
e å 0.0009095
e ä 0.2822885
: : 0.9969136
: NULL 0.0003797
: e 0.0001735
a ä 0.0041110
a å 0.0100045
a i 0.0055206
a NULL 0.0064541
a t 0.0005393
a a 0.9259985
a ö 0.0004792
a o 0.0009595
a n 0.0007845
a e 0.0045971
a r 0.0038358
a d 0.0015280
n d 0.0016669
n n 0.9858796
n r 0.0018661
n NULL 0.0079727
n m 0.0017807
n c 0.0039172
n å 0.0018190
n t 0.0006472
K K 0.7008798
G G 1.0000000
å i 0.0001534
å o 0.0072923
å å 0.9413370
å a 0.0012131
å p 0.0023962
å u 0.0004708
q k 0.0082619
q q 1.0000000
3 NULL 0.0018983
3 3 1.0000000
" " 1.0000000
B B 1.0000000
— — 1.0000000
NULL j 0.0481586
NULL d 0.0009724
NULL r 0.0058055
NULL n 0.0048049
NULL e 0.0059849
NULL i 0.0012268
NULL c 0.0162283
NULL m 0.0005088
NULL s 0.0015246
NULL l 0.0008587
NULL a 0.0050392
NULL g 0.0007455
NULL t 0.0009708
S S 1.0000000
J J 1.0000000
J I 0.2535211
ß s 0.0055901
ß ß 1.0000000
| | 1.0000000
# NULL 0.0011390
# k 0.0003060
' ' 1.0000000
M M 1.0000000
A A 0.9950000
) NULL 0.0197418
) ) 1.0000000
) n 0.0021573
P P 1.0000000
/ / 1.0000000
Z l 0.0001431
( ( 1.0000000
( NULL 0.0246773
( i 0.0001534
( l 0.0062974
( n 0.0000981
( g 0.0024851
Ö Ö 1.0000000
b NULL 0.0349279
b m 0.0002544
b n 0.0010786
b b 1.0000000
0 NULL 0.0015186
0 t 0.0001079
0 0 1.0000000
§ § 1.0000000
, , 1.0000000
, NULL 0.0018983
U U 0.6956522
2 NULL 0.0072134
2 2 1.0000000
2 n 0.0000981
- - 1.0000000
N N 0.9836066
6 NULL 0.0018983
6 6 1.0000000
æ ä 0.0003426
æ e 0.0005204
æ a 0.0000933
l d 0.0008334
l t 0.0007550
l NULL 0.0015186
l i 0.0003067
l l 0.9862602
! ! 1.0000000
8 d 0.0001389
8 8 1.0000000
8 NULL 0.0018983
h a 0.0001866
h l 0.0001431
h NULL 0.3906606
h d 0.1661342
h k 0.0593635
h j 0.0028329
h h 0.9978710
h g 0.0347913
h t 0.0004315
h i 0.0001534
h v 0.0773224
h e 0.0008674
Y Y 1.0000000
Q K 0.0205279
Q Q 1.0000000
w r 0.0063239
w u 0.0225989
w n 0.0000981
w g 0.0014911
w V 0.1388889
w w 1.0000000
w a 0.0000933
w NULL 0.0174639
w v 0.4103825
z z 1.0000000
z t 0.0001079
z g 0.0002485
z s 0.0296023
é e 0.0000867
W v 0.0002732
W W 1.0000000
W V 0.4259259
X X 1.0000000
O U 0.0217391
O O 1.0000000
O Å 0.0869565
x g 0.0002485
x x 0.9761905
? ? 1.0000000
c g 0.0002485
c f 0.0008081
c c 0.9792949
c h 0.0021290
c l 0.0001431
c s 0.0002541
c k 0.1199510
F F 1.0000000
r d 0.0009724
r n 0.0015689
r r 0.9412192
r m 0.0005088
r NULL 0.0056948
r t 0.0001079
* * 1.0000000
T T 1.0000000
T D 0.3594771
T t 0.0002157
½ ½ 1.0000000
y g 0.0014911
y i 0.0009201
y u 0.0009416
y y 0.9867550
y ö 0.0009583
y j 0.0212465
t NULL 0.0011390
t l 0.0018606
t a 0.0006532
t k 0.0006120
t d 0.1165440
t n 0.0007845
t r 0.0001037
t i 0.0001534
t s 0.0002541
t t 0.9787509
t e 0.0000867
] a 0.0000933
] ] 1.0000000
m m 0.9966930
m NULL 0.0018983
m a 0.0014931
m t 0.0002157
m n 0.0007845
5 NULL 0.0011390
5 x 0.0238095
5 t 0.0001079
5 5 1.0000000
C K 0.2785924
C C 1.0000000
… … 1.0000000
p f 0.0036364
p NULL 0.0189825
p p 0.9968051
p n 0.0005884
1 1 1.0000000
1 l 0.0002862
1 NULL 0.0087320
d d 0.7098208
d n 0.0002942
d r 0.0063239
d a 0.0000933
d t 0.0166109
d g 0.0004970
d NULL 0.0144267
d l 0.0030056
d s 0.0001270
I E 0.0047847
I I 0.7464789
I l 0.0001431
I N 0.0163934
E E 0.9952153
E Ä 0.4782609
E A 0.0050000
E e 0.0000867
