R R 1.0000000
NULL g 0.0005188
å g 0.0025940
g g 0.9846952
k g 0.0057069
j g 0.0028534
d g 0.0023346
r g 0.0012970
9 9 0.9250000
NULL 9 0.0750000
n . 0.0010582
. . 0.9957672
NULL . 0.0031746
Å Å 1.0000000
e ö 0.0028791
y ö 0.0028791
ö ö 0.9827255
o ö 0.0052783
å ö 0.0028791
ä ö 0.0014395
i ö 0.0019194
NULL o 0.0126374
a o 0.0104396
k o 0.0012821
j o 0.0001832
r o 0.0003663
u o 0.0144689
å o 0.0150183
i o 0.0018315
ö o 0.0042125
o o 0.9369963
e o 0.0025641
u u 0.8149742
e u 0.0012909
r u 0.0167814
j u 0.0008606
o u 0.0030120
a u 0.0043029
NULL u 0.0443201
v u 0.1032702
i u 0.0111876
L L 0.9957627
l L 0.0042373
\ \ 1.0000000
NULL 7 0.0317460
7 7 0.9682540
g j 0.0128388
NULL j 0.0128388
i j 0.5420827
n j 0.0099857
e j 0.0099857
: j 0.0014265
j j 0.4108417
t k 0.0007619
k k 0.9992381
Ä Ä 1.0000000
4 4 0.9270833
NULL 4 0.0729167
v s 0.0001315
NULL s 0.0009208
s s 0.9967114
n s 0.0002631
e s 0.0019732
r f 0.0550613
g f 0.0038471
p f 0.0002404
v f 0.3149796
c f 0.0002404
NULL f 0.0334215
f f 0.5922097
u v 0.2237136
V v 0.0022371
r v 0.0089485
v v 0.7203579
NULL v 0.0447427
₥ ₥ 1.0000000
D D 1.0000000
a V 0.0243902
V V 0.6341463
U V 0.3170732
v V 0.0243902
V H 0.0600601
H H 0.9399399
e ä 0.0355658
a ä 0.0013857
ö ä 0.0013857
å ä 0.0013857
ä ä 0.9602771
; ; 1.0000000
a i 0.0001475
t i 0.0001475
g i 0.0048673
f i 0.0001475
NULL i 0.0373156
i i 0.8800885
e i 0.0249263
j i 0.0520649
y i 0.0002950
d e 0.0000755
r e 0.0040795
a e 0.0472161
NULL e 0.0383017
l e 0.0003777
e e 0.8381809
o e 0.0025686
ö e 0.0007555
t e 0.0000755
m e 0.0000755
i e 0.0058926
å e 0.0001511
ä e 0.0622498
: : 0.9907975
NULL : 0.0030675
e : 0.0061350
ä a 0.0011846
å a 0.0021718
i a 0.0035538
NULL a 0.0016782
t a 0.0004936
a a 0.9795656
ö a 0.0000987
o a 0.0004936
n a 0.0007897
e a 0.0052320
r a 0.0036525
d a 0.0010859
d n 0.0011847
n n 0.9925955
r n 0.0017771
NULL n 0.0020733
m n 0.0006911
c n 0.0006911
å n 0.0003949
t n 0.0005924
K K 1.0000000
G G 1.0000000
i å 0.0004704
o å 0.0178739
å å 0.9736595
a å 0.0061148
p å 0.0014111
u å 0.0004704
k q 0.9310345
q q 0.0689655
NULL 3 0.0431034
3 3 0.9568966
" " 1.0000000
B B 1.0000000
— — 1.0000000
j NULL 0.1005917
d NULL 0.0207101
r NULL 0.1656805
n NULL 0.1449704
e NULL 0.2041420
i NULL 0.0236686
c NULL 0.0857988
m NULL 0.0059172
s NULL 0.0355030
l NULL 0.0177515
a NULL 0.1597633
g NULL 0.0088757
t NULL 0.0266272
S S 1.0000000
J J 0.9016393
I J 0.0983607
s ß 0.8000000
ß ß 0.2000000
| | 1.0000000
NULL # 0.7500000
k # 0.2500000
' ' 1.0000000
M M 1.0000000
A A 1.0000000
NULL ) 0.2600000
) ) 0.6300000
n ) 0.1100000
P P 1.0000000
/ / 1.0000000
l Z 1.0000000
( ( 0.3664921
NULL ( 0.3403141
i ( 0.0052356
l ( 0.2303665
n ( 0.0052356
g ( 0.0523560
Ö Ö 1.0000000
NULL b 0.0540541
m b 0.0005875
n b 0.0064630
b b 0.9388954
NULL 0 0.0547945
t 0 0.0136986
0 0 0.9315068
§ § 1.0000000
, , 0.9974385
NULL , 0.0025615
U U 1.0000000
NULL 2 0.1266667
2 2 0.8666667
n 2 0.0066667
- - 1.0000000
N N 1.0000000
NULL 6 0.0442478
6 6 0.9557522
ä æ 0.1250000
e æ 0.7500000
a æ 0.1250000
d l 0.0008683
t l 0.0010130
NULL l 0.0005789
i l 0.0002894
l l 0.9972504
! ! 1.0000000
d 8 0.0135135
8 8 0.9189189
NULL 8 0.0675676
a h 0.0003256
l h 0.0001628
NULL h 0.1675077
d h 0.1946931
k h 0.0315807
j h 0.0003256
h h 0.5341039
g h 0.0227902
t h 0.0006511
i h 0.0001628
v h 0.0460687
e h 0.0016279
Y Y 1.0000000
K Q 0.5000000
Q Q 0.5000000
r w 0.0353009
u w 0.0277778
n w 0.0005787
g w 0.0034722
V w 0.0086806
w w 0.0277778
a w 0.0005787
NULL w 0.0266204
v w 0.8692130
z z 0.2033898
t z 0.0033898
g z 0.0033898
s z 0.7898305
e é 1.0000000
v W 0.0140845
W W 0.3380282
V W 0.6478873
X X 1.0000000
U O 0.0050505
O O 0.9848485
Å O 0.0101010
g x 0.0120482
x x 0.9879518
? ? 1.0000000
g c 0.0004640
f c 0.0009281
c c 0.8120650
h c 0.0032483
l c 0.0004640
s c 0.0009281
k c 0.1819026
F F 1.0000000
d r 0.0007675
n r 0.0017544
r r 0.9955044
m r 0.0002193
NULL r 0.0016447
t r 0.0001096
* * 1.0000000
T T 0.7298578
D T 0.2606635
t T 0.0094787
½ ½ 1.0000000
g y 0.0095694
i y 0.0095694
u y 0.0031898
y y 0.9505582
ö y 0.0031898
j y 0.0239234
NULL t 0.0003015
l t 0.0013064
a t 0.0007034
k t 0.0002010
d t 0.0843131
n t 0.0008039
r t 0.0001005
i t 0.0001005
s t 0.0002010
t t 0.9118682
e t 0.0001005
a ] 0.3333333
] ] 0.6666667
m m 0.9921499
NULL m 0.0012661
a m 0.0040517
t m 0.0005065
n m 0.0020258
NULL 5 0.0441176
x 5 0.0294118
t 5 0.0147059
5 5 0.9117647
K C 0.5397727
C C 0.4602273
… … 1.0000000
f p 0.0068545
NULL p 0.0380807
p p 0.9504950
n p 0.0045697
1 1 0.8979592
l 1 0.0081633
NULL 1 0.0938776
d d 0.9478761
n d 0.0005565
r d 0.0113152
a d 0.0001855
t d 0.0285661
g d 0.0003710
NULL d 0.0070488
l d 0.0038954
s d 0.0001855
E I 0.0172414
I I 0.9137931
l I 0.0172414
N I 0.0517241
E E 0.8965517
Ä E 0.0948276
A E 0.0043103
e E 0.0043103
